[array([[  8.51257920e-01,   1.15616679e-01,  -1.17208743e+00,
         -6.35539114e-01,   4.81837690e-01,   3.95833105e-01,
          1.01680982e+00,   2.90162992e+00,  -4.13143694e-01,
          8.14940691e-01,   1.95420122e+00,  -5.34085870e-01],
       [  1.78351021e+00,   1.92884970e+00,   2.19461754e-01,
          2.07756472e+00,  -8.69732082e-01,  -1.32721078e+00,
         -9.50100899e-01,   1.80968070e+00,  -6.39856517e-01,
          2.46728253e+00,   1.47107971e+00,   1.11457789e+00],
       [  2.48630285e+00,   3.43179315e-01,  -1.01297069e+00,
          1.57202566e+00,   6.74251795e-01,  -1.52031884e-01,
          7.97656402e-02,   1.55073144e-02,  -2.99123287e+00,
         -5.03370941e-01,  -3.60090286e-01,  -1.02302253e-01],
       [  4.43642229e-01,  -1.84164524e-01,   1.33764935e+00,
          6.87415183e-01,  -8.27947438e-01,  -1.21709794e-01,
         -1.75194383e+00,  -1.03890646e+00,   7.35067204e-02,
          1.45724225e+00,   1.06464934e+00,   3.68174851e-01],
       [  1.90149561e-01,  -1.59391209e-01,   2.58341450e-02,
          2.66902316e-02,  -7.25864917e-02,   4.26969677e-02,
         -1.11820437e-01,   1.79454833e-01,  -4.52732742e-02,
         -6.35695681e-02,   3.55469495e-01,   2.64251069e-03],
       [  1.55861527e-01,  -5.26316985e-02,   2.30222428e-03,
          1.46025326e-02,  -1.88880507e-02,   8.60779826e-03,
         -1.77848060e-02,   1.42448694e-01,  -2.24622693e-02,
         -8.49299058e-02,   2.06208512e-01,   4.86674607e-02],
       [ -3.38186882e-02,   2.41472088e-02,   1.72378823e-01,
         -3.56906210e-03,   1.41791433e-01,   2.68450193e-02,
          4.47772145e-02,  -2.39112481e-01,  -7.59226978e-02,
          2.20389485e-01,  -2.20612511e-02,  -1.16228200e-01]], dtype=float32), array([-0.8342129 , -3.63640809, -1.22844195, -2.91458082,  2.39189792,
        3.44309497,  1.75671291, -1.5261271 , -1.32007515, -2.11764264,
        0.25016287, -3.12897873], dtype=float32), array([[  1.19041431e+00,   7.36377994e-03,   2.75454938e-01,
          7.25640416e-01,   1.38242349e-01,  -3.56251672e-02,
          1.75740704e-01],
       [  1.04788351e+00,  -8.36277068e-01,  -1.14082313e+00,
          3.15273309e+00,  -5.89604020e-01,   5.09652160e-02,
         -1.17810559e+00],
       [  5.88257968e-01,  -6.54076517e-01,  -9.14828777e-01,
         -1.74945533e+00,  -1.43613231e+00,  -3.75029184e-02,
         -7.45699823e-01],
       [  3.43970132e+00,  -1.38371810e-01,  -2.58523405e-01,
          1.73975849e+00,  -4.95813698e-01,  -8.75403732e-03,
         -7.37133920e-01],
       [ -9.15353417e-01,   9.46547449e-01,   2.01053691e+00,
          4.69864547e-01,   1.46640170e+00,  -3.25363651e-02,
          5.40703177e-01],
       [ -1.35242975e+00,   4.55589592e-01,   1.50852466e+00,
         -1.89150417e+00,   6.47702456e-01,  -4.06404678e-03,
          1.69958138e+00],
       [ -4.10268021e+00,   1.32863986e+00,   1.04217041e+00,
          1.78342652e+00,   2.72578001e+00,  -4.44587767e-02,
          5.86489141e-01],
       [ -7.14360595e-01,  -5.49622416e-01,  -1.23690739e-01,
          1.60053980e+00,   5.96036851e-01,   8.10127985e-03,
          9.26313102e-01],
       [ -1.45019293e+00,  -4.51416254e-01,  -7.83422530e-01,
         -6.86152756e-01,  -4.75089639e-01,  -5.70804859e-03,
          3.45737934e-02],
       [  9.09393668e-01,  -5.59499979e+00,  -6.68519557e-01,
          7.07426548e-01,  -1.94975948e+00,  -2.68571358e-02,
          2.11206824e-01],
       [  1.68931112e-01,  -6.24099374e-01,  -1.47199929e-02,
          3.99924442e-02,  -7.58280903e-02,  -4.60447706e-02,
          6.77635849e-01],
       [  1.63043487e+00,  -5.61912775e-01,  -2.28436327e+00,
          1.19337225e+00,  -1.08858573e+00,  -1.10619757e-02,
         -1.83940220e+00]], dtype=float32), array([ -2.52100974e-01,   7.60956883e-01,   2.85511947e+00,
        -2.87845516e+00,   5.34097606e-04,  -2.36062221e-02,
         5.43393075e-01], dtype=float32), array([[ -5.02708614e-01,  -1.52842569e+00,   9.09205154e-02,
         -6.82256997e-01,   2.16488451e-01,  -4.60722297e-02,
         -2.33207494e-01,  -6.08587682e-01,   4.69981879e-02,
         -5.94095290e-01,  -3.57917070e-01,  -5.18093765e-01,
         -1.26812086e-01,   2.88069189e-01,  -3.33539546e-01,
          2.14543462e-01,  -2.32602566e-01,   2.88168788e-01,
         -2.83888280e-01,   1.08790942e-01,  -2.25512050e-02,
          1.81791559e-01,   2.92613357e-01,  -1.91585153e-01,
         -6.18184924e-01,  -3.13729197e-01,   2.06815481e-01,
          2.73110509e-01,   2.27182552e-01,  -9.86626148e-01,
         -4.12709385e-01,   1.01716064e-01,   1.46071091e-01,
         -6.46706402e-01,  -1.59124279e+00],
       [ -1.69951692e-02,  -4.43324149e-02,  -1.43236756e+00,
         -5.94489038e-01,  -4.05000448e+00,  -6.39687032e-02,
         -1.23709846e+00,  -3.49593431e-01,  -1.21291447e+00,
         -3.64015371e-01,  -5.52369177e-01,  -2.39628053e+00,
         -4.00772333e+00,  -1.82284617e+00,  -5.68863249e+00,
         -1.21290946e+00,  -2.62162566e+00,   5.06021202e-01,
         -1.56748104e+00,  -1.29274178e+00,  -4.16108191e-01,
         -2.15791154e+00,  -2.53192306e-01,  -1.21188688e+00,
         -2.63458371e-01,   4.77742523e-01,  -2.11118507e+00,
         -1.43732214e+00,  -4.83043939e-02,   4.99225140e-01,
         -4.68676853e+00,  -5.82506545e-02,  -3.05835009e-01,
         -2.94099391e-01,   9.96865451e-01],
       [  3.45558196e-01,   1.55979738e-01,   2.11265668e-01,
          2.88710773e-01,   7.29397172e-03,  -5.38546778e-02,
         -1.65737748e-01,  -2.58870155e-01,  -8.76949131e-01,
         -5.98941803e-01,   1.65373355e-01,   4.40276153e-02,
          4.68221866e-02,  -4.55163121e-01,  -3.47779728e-02,
         -7.05898941e-01,  -5.23697853e-01,  -2.64642239e-01,
         -3.35596472e-01,   3.57323289e-02,  -1.82104126e-01,
         -3.58775020e-01,  -3.78036618e+00,  -1.26943544e-01,
         -6.65038884e-01,  -2.35056460e-01,   2.87401766e-01,
         -1.05182815e+00,  -4.55911541e+00,   1.08277366e-01,
          3.22842658e-01,  -4.30036116e+00,  -1.81063437e+00,
         -6.46207988e-01,   1.03711896e-01],
       [ -2.69216466e+00,  -5.29585898e-01,  -9.26341891e-01,
         -1.09597015e+00,  -3.64136964e-01,  -2.87430763e-01,
          2.35657290e-01,   2.39685386e-01,   1.82884395e-01,
         -6.51014984e-01,  -5.58726966e-01,   2.53653731e-02,
         -1.03158742e-01,  -7.39100933e-01,   1.32802919e-01,
          5.37834428e-02,   4.35152531e-01,  -2.97852010e-01,
          4.73298699e-01,   1.69809550e-01,   1.63801551e-01,
          1.51331156e-01,  -2.16558188e-01,   4.11519676e-01,
         -6.09381378e-01,   1.24622891e-02,  -4.17375296e-01,
         -2.56411970e-01,   3.52152646e-01,  -6.93157494e-01,
         -4.58630055e-01,   2.80878246e-01,   2.63740897e-01,
         -6.13485217e-01,  -1.58634245e+00],
       [ -3.67916673e-01,   2.54931033e-01,  -3.38595778e-01,
          1.39937818e-01,  -5.82173288e-01,  -1.35350987e-01,
          2.53966123e-01,   1.46848917e-01,  -1.91323888e+00,
         -1.79850087e-01,   2.68871225e-02,   4.48827833e-01,
         -9.52386558e-02,  -1.45394933e+00,   5.71878672e-01,
         -1.72952247e+00,   9.91794094e-02,  -2.28849337e-01,
         -1.16982698e+00,  -3.56725907e+00,  -5.10896444e-02,
         -3.19151357e-02,  -1.48505598e-01,  -3.13118768e+00,
         -2.63830602e-01,   2.68516187e-02,  -2.87379694e+00,
         -9.78509128e-01,  -9.94534194e-02,   2.01480389e-01,
          6.00982726e-01,  -1.29563004e-01,  -2.70253628e-01,
         -2.65295118e-01,   1.11882262e-01],
       [ -6.24737516e-03,  -6.60577267e-02,  -1.59166735e-02,
         -1.12662405e-04,  -1.40091507e-02,  -2.95140445e-02,
          1.23398728e-04,  -8.13493505e-02,  -4.07067873e-02,
         -1.23839928e-02,  -8.13018978e-02,  -6.16016053e-02,
         -4.66343500e-02,  -1.82514861e-02,  -7.82208368e-02,
         -5.73513843e-02,  -1.53611377e-02,  -7.29610920e-02,
         -8.72768164e-02,  -9.35879499e-02,  -9.68584940e-02,
         -5.33863995e-03,  -6.34974912e-02,  -9.27768648e-02,
         -8.24009553e-02,  -2.29505468e-02,  -8.31864998e-02,
         -5.82805136e-03,  -3.64935920e-02,  -1.00273499e-02,
         -3.87464389e-02,  -8.15977380e-02,  -3.05303298e-02,
         -2.53949314e-02,  -3.61922197e-02],
       [  2.93822825e-01,   1.65813699e-01,   2.29281057e-02,
          1.94577441e-01,  -1.77388802e-01,  -2.24574581e-01,
         -2.31785044e-01,   3.39517929e-02,   2.77547240e-01,
         -2.30645835e-01,   2.34757233e-02,   1.16787426e-01,
          7.52032846e-02,   1.58103704e-01,  -1.09027371e-01,
         -2.09597617e-01,   3.73635106e-02,  -7.83002019e-01,
          3.06655526e-01,  -3.64955753e-01,  -3.43899399e-01,
         -5.80400407e-01,   1.58616245e-01,   2.21448779e-01,
         -2.77985990e-01,  -5.18366933e-01,  -7.93342516e-02,
          8.36121216e-02,  -8.39335442e-01,  -1.02969304e-01,
          3.04774731e-01,   3.01926494e-01,   7.96010196e-02,
         -2.18471348e-01,   7.19544142e-02]], dtype=float32), array([ 0.46239457,  0.40187553,  0.93767869,  0.61824882,  1.44645965,
        0.28843167, -0.82541692, -0.62951094,  0.2130214 , -0.18570836,
        0.58045971, -0.35599834,  1.0450238 , -0.38710898, -0.5951457 ,
       -0.81637514, -2.2465868 ,  0.48389241, -0.65351409,  0.34113047,
       -1.03297734, -0.83270371,  0.03710363, -0.03392421, -0.17074341,
       -0.31012812,  0.89611608, -0.52831131, -0.58860922,  0.76572782,
       -1.16715753,  0.16618022, -1.65716612, -0.17388663,  0.10561271], dtype=float32)]

