1.195531,0.22735983,0.90123475,0.42938301,-0.88498414,0.55060905,-0.11471131,0.23750544,0.96215755,0.063044764,0.1183043,-0.75744617,0.94844913,-0.0251051,0.63986456,1.375686,-0.37294963,-0.141066,0.090264298,0.82816136,-0.90583551,0.078073643,-1.0729764,0.53906566,1.8361292,-0.93892634,0.58171129,1.254974,-1.1560555,-0.4127546,1.0229026,0.59947354,-0.4030492,-0.36976945,-1.5939088,1.0096455,0.98268658,-0.23541154,-1.0742757,-0.077891178,0.87760419,-1.0076085,-0.040452227,-1.0388644,-1.0510212,0.015667008,-1.3393093,0.47205088,0.90777373,-1.1332697,0.20573977,-1.3825353,-0.46394125,-0.84795851,0.9000507,-0.41001523,-0.022143865,-0.26104188,-1.3905482,0.92099303,0.29908797,-0.23480885,-0.85467368,0.56279147,0.3148855,0.12916872,0.2270779,0.87661517,0.63248408,0.19377558,-0.55006427,0.11320588,-0.45125666,0.49746445,0.17017254,-0.25047478,0.38291302,-0.24454209,0.22767751,-0.35517254,-0.51906013,0.13173406,-0.63255286,-0.22584297,-0.32918942,0.42089736,0.12375538,-0.32672614,0.4936116,-0.29831371,0.39545417,-0.14898442,-0.75349998,0.036168527,-0.63298172,0.20076364,-0.01104153,-0.066826902,-0.12619565,-0.14020129,-0.041795507,-0.025974602,-0.22853783,0.12923466,0.063638538,0.044716902,0.11966093,0.040689632,0.64281327,-0.71660089,-0.43673041,-0.58336926,1.1599882,-1.4597363,0.7811265,0.21414313,0.8574481,0.11505507,-0.33548221,1.078347,0.1301558,0.72371733,0.54480857,-0.14365634,0.84973711,-1.1191032,0.34370497,0.30682907,1.8689226,0.59082663,0.19285479,-0.050612479,0.79628581,0.40366304,0.044429697,0.13077752,0.090724051,-0.25003856,0.24605951,-0.062545136,0.47577214,0.26689002,0.4623906,0.60578203,-0.12568074,-0.62958938,-1.3496946,0.37094998,0.12084807,0.82645434,0.7194764,1.2756072,0.39160535,-0.3378804,-0.17052723,-0.22631152,0.63185298,0.16002288,-0.53990531,-1.5410514,-0.61554623,1.1590949,-0.28849211,0.2491703,1.2400626,0.56471878,0.4593243,0.49313563,1.2521695,-0.4412362,0.15950906,-1.681988,-1.3645904,1.4713913,-0.92315048,-0.2734299,0.6623717,-1.8030615,0.24830331,-0.072759762,-0.1107031,0.26860344,0.07209409,-0.41775241,1.093662,-0.52910811,-0.77329487,-0.46371597,0.74992782,-0.72682589,0.50519121,-0.46222878,0.13532591,-0.10499854,-0.096651368,-0.31975579,1.5517403,-0.066860847,-0.18537059,-0.15773024,0.21522847,0.58503377,0.37972164,0.43900061,-0.25763154,1.2132416,-0.036174946,0.32609066,0.52454871,-0.68998837,0.18747972,-0.39015082,-0.022803539,0.19335292,0.30831245,0.62373132,0.23663212,0.34585607,0.68200147,-0.47774443,0.49030495,-0.31866932,-0.33482054,0.72594827,0.95063943,0.14360099,0.56940567,-0.33614722,-0.25977865,1.2072074,0.26145571,-0.094755188,-0.4682714,-0.92905927,0.94157374,-0.7367748,1.5319014,-0.025691787,-0.47603488,0.64323223,0.33983755,-0.36465314,-0.83925486,0.72658014,-1.008714,0.8275947,1.0000147,-0.66257733,0.13773948,-0.52762604,-0.06944079,0.16850235,0.69344836,0.015368811,-0.088046022,-0.36425859,-0.27278242,1.3688611,0.91036654,0.19816951,0.47084114,1.0153043,-0.51179183,0.75029248,1.0673754,0.52251852,-0.62871951,-0.40834936,-0.28795025,0.77186382,0.20510407,0.94846737,-0.45747268,0.81078482,0.78990906,-1.0075928,-0.20955835,-0.92855686,0.097487867,-0.12558207,0.22032218,0.28972539,-0.40872389,0.52503544,0.090082176,-1.5893961,-0.34468666,0.033685472,-0.036207855,-0.75914168,0.67932212,-0.12984645,1.2711431,-0.47574946,-0.72990894,-0.027703978,-0.044314988,0.022611763,0.25298178,0.85180765,-0.031995121,-1.505024,0.88400823,0.28716171,1.5390915,0.019144665,-0.070887364,-0.53069043,0.58421487,-0.4593499,0.23921011,0.066455342,0.67048109,-0.17658052,-0.58052266,1.3149325,1.0232329,-1.0797465,-0.52469319,-0.18635149,-0.19180332,-0.70395201,0.40797022,-0.17939062,1.4100882,0.25105828,0.026833687,-1.4439999,0.60373878,0.53011292,-0.26848567,-0.19749191,-2.0599654,-1.111455,0.28334215,-0.12565087,0.75763518,0.42832223,-0.18712087,-0.45637977,0.90370375,-0.48508722,1.0006746,0.058593314,-0.85975468,-1.2193018,0.004276976,0.34655926,0.10281941,-0.11371593,0.89098907,-0.93543261,-0.73734164,-0.57205111,-0.058869664,-0.87667805,-0.66955638,-1.78872,1.8502063,0.65184844,0.86290407,-0.2039981,0.96371603,-1.3587178,-0.26261911,0.46802911,-0.82307023,0.10570558,-0.054642484,-0.80073786,2.6809044,0.49482253,0.52047187,-1.516294,-0.43853202,0.57476205,0.32425144,-0.43601841,-1.2469652,2.463063,-0.21283656,-0.63586855,1.7188108,-0.28638092,-0.50302279,-1.8371208,0.39665455,0.76326036,1.0257305,-0.8992632,-0.91189963,2.3358798,-0.32802972,1.7444478,-0.34559941,-1.3902972,0.37355486,-1.8997954,0.90165472,-0.61750257,1.8707316,0.64517355,-0.97539276,-0.77060789,0.89314002,-0.21210547,-0.29719728,-0.85431534,0.099326409,-1.0730747,0.80745387,0.050948188,0.70017248,0.092426844,0.76678956,0.64772582,0.46562535,-0.018308522,0.4382188,-0.11262063,-0.71836245,0.65704089,-0.31381795,1.4723583,0.33912855,0.06868802,-0.022318404,-0.54438633,0.28948462,-0.91187227,0.64994615,-0.67343444,0.7050072,-0.39018786,0.27384156,-0.5303672,0.36847427,0.9319616,-0.7787044,0.051773217,-1.5276537,0.3022733,-0.17210792,0.2094779,1.0511509,0.15053357,0.44320965,-0.33398628,-0.018537937,0.28773537,-0.20921561,-0.52500743,-0.63916141,-0.75080121,-0.23514961,0.18226196,0.70440364,-0.12551889,0.00026447457,-0.36128759,0.73053938,0.57063973,-0.33718866,-0.59421414,-0.61676806,-1.7976054,-0.22110032,0.78413033,1.7649118,0.95759195,0.44693875,-1.7166862,-1.0682929,0.4828496,1.2017398,-0.69443697,0.45786062,-1.3487294,1.083901,1.3197693,1.2133535,1.67399,1.1497512,-1.0858725,-0.063729249,-0.61527437,-0.91043884,0.21786729,0.58939761,0.82606047,0.95689327,1.1268823,0.18549989,0.81796187,-0.033202015,0.65111053,-0.26502052,-1.8323506,1.523284,0.90451401,1.880757,-0.6829232,-0.81611753,1.3879693,-1.7846671,-0.64010942,-0.32714584,0.23691078,-0.014537214,0.64198512,1.1288176,1.0072747,0.30690426,0.28973192,0.18650514,-0.43745199,-0.034509104,0.60612607,0.079242423,-0.8538273,0.0082936445,0.17167515,0.69590473,0.51022148,0.30539277,1.2958575,0.61605126,0.51845938,0.27538756,-0.16001944,-0.10152567,1.5157177,-0.1415264,0.88687319,-0.9098888,-1.4435866,-0.30518782,-0.82238132,0.011733714,-0.18689218,0.080983914,-0.44032577,1.2420889,-0.66277438,0.079176061,1.116026,-1.3124895,0.49163535,-0.51515549,0.39847985,-0.016936714,-0.12209754,0.033187136,0.14816062,0.34128433,-0.62046278,-0.11665205,0.23525341,-0.32102767,0.85970843,-0.26489854,-0.41159701,-0.31442234,-0.71838486,-0.96814638,0.7542547,-0.048300412,0.17549816,0.49933746,0.33664066,-1.2375724,0.5816173,0.11673269,-0.7024579,0.28301182,0.35414824,-0.83860421,0.83242005,-0.34339565,-0.76824456,-0.29956719,0.13759147,0.54696709,0.084408268,0.75303531,-2.0835698,-0.9759357,0.77876186,0.26613683,0.55412138,-0.29349348,-0.25837126,0.83936799,-0.85811728,0.42748278,-0.83054942,0.62401617,-1.5802894,-0.28177872,-0.22410025,-1.325361,0.08467146,-1.151597,0.98213768,1.266355,0.28307402,1.0181817,0.074901298,1.2039527,-0.76123506,-1.1867923,-0.67488468,-1.8964999,-0.50541735,-0.70865369,1.1155434,0.57640338,0.71248001,0.58319229,0.9394871,1.3931465,0.11053485,-0.0067823092,0.58219361,-0.57708508,-0.53082067,-1.1402949,-0.58267456,0.01604108,0.95761997,0.81569982,0.096552953,0.7319358,-0.72571057,-1.5983166,0.77673912,-0.70744371,-0.90824354,0.62840617,0.52531159,-0.13515621,1.3141934,-0.12401407,-0.65020269,-0.25070411,-0.4447363,-0.39441025,-0.30305856,-0.62192148,0.070450924,-0.95489532,-0.10149948,-0.874026,-0.67344218,0.13664678,0.10858437,-0.74699265,0.99828923,0.059957352,-0.9204433,0.93837398,0.77696967,-1.5811414,0.036876317,-0.29652503,-0.73794436,-0.13541058,0.80545932,-0.9318608,1.0251532,0.36515158,-0.51561779,-0.19473641,0.5853526,-0.88685751,-0.02198142,-0.13133784,0.86405516,-0.34913051,-0.44861987,0.026392221,0.11467557,0.29735237,-0.71865165,-0.11832638,0.22087136,-0.17799427,-1.110611,-0.43229818,-1.0067996,-0.40398809,-0.07418637,0.18892643,-0.91459531,-0.63030398,-0.74067652,-0.48148268,0.41753861,-0.020353289,0.18885408,-0.17009807,-0.86036301,-0.32658631,-0.043340683,0.14584228,0.21109705,0.3019031,-0.40841293,-1.3825235,0.71646714,-0.30278152,-0.78172135,0.15427075,-0.47573406,0.71083969,0.34624416,0.20964539,-0.81091946,-1.1768874,0.60201186,-1.2612268,-0.22045584,2.0524631,0.49816453,-0.2845256,1.0832089,-0.39479226,-1.1917816,-0.018237296,1.0893273,0.41317853,0.30696991,0.087238602,-0.23209222,-1.281932,0.77292663,-0.66536337,0.19749099,0.642932,-0.29929751,1.0165228,-0.83073956,-0.25212231,1.0171813,-0.34597272,-0.69868606,0.57344317,0.54558307,-0.38514194,0.37652221,-1.0792291,-1.2154431,-0.11572082,-0.38135627,-0.3295598,-0.27759048,-0.29994944,0.60449505,-0.92446893,-0.18906012,-0.80699664,-1.249863,-0.6280995,-0.90915239,-0.56589556,0.12899554,-0.31894207,-0.88574499,0.27618614,1.5313296,-2.2282305,0.33454821,-1.1282593,-2.2725396,0.056602985,-0.22750737,-1.1028718,1.17377,0.25754312,-0.94891149,0.2339716,0.83436704,-1.0089021,1.3835095,-0.84998572,-0.0025050209,0.2535733,-1.0953037,-0.49456224,0.55074459,0.107636,0.44923598,-1.2789131,-0.88807911,-0.45656767,-0.58417898,-0.76455408,0.74671555,0.51159841,-0.8815366,-0.10392196,0.50966769,-0.1798936,-0.45569199,0.030103313,0.27465379,0.13872051,0.66286105,0.14879085,0.13394889,-0.14580862,0.21620443,-0.22049692,1.4266144,0.69724089,0.45477733,-0.004296917,0.20671535,1.4240162,-0.26273215,-1.3563508,-0.23959816,-0.40257302,0.10903864,-1.3777754,0.97289133,-0.03151584,0.27546656,-1.539233,-0.1348892,-0.26005858,-0.10539505,-0.81410521,0.96081406,-0.028836031,-0.13628571,-0.61297888,1.0771867,-0.61335212,0.69450945,-0.13460688,-0.79081184,-1.2425274,-0.2092284,0.20106837,0.35465127,0.43787295,-0.8405121,0.92756104,1.200143,-0.19028106,0.63261515,-0.444345,0.075631358,-0.32785159,-0.99445045,0.40489802,-0.28013188,-0.0017239025,-0.22500896,0.072857045,0.010142596,-0.77363455,-0.6890406,-0.84755409,-0.20622908,0.29133657,0.47288284,-0.80914783,0.41578305,-1.1558565,0.92796624,-0.079171203,-0.19103232,0.035530489,-0.059656501,-1.4417781,0.76553327,-0.46971327,0.6279524,-1.2726645,-0.15832281,-0.43547454,0.78555977,0.029271426,0.1960122,0.33708039,0.21840881,-0.9739269,0.86735767,-0.3444936,1.3265601,-1.5060817,0.68843317,-0.8696683,-0.61486888,0.83353156,0.53512746,0.86652511,0.032149438,-1.5239112,-0.012409145,-0.1313547,-0.63933545,-1.664826,1.3138146,0.24698098,-0.64982831,-0.48827344,0.77167654,0.4061909,0.12686104,-0.39303619,2.2205522,0.10789961,-0.66661298,-1.592645,0.34255597,-0.70411563,0.018061865,-0.59656471,1.1365259,0.38545027,1.1112428,-1.0739698,1.442127,0.17770927,-0.91214913,-1.2896551,-0.96118122,0.94830805,0.38932273,0.48808891,-0.12197658,-0.37164146,1.0421445,-1.5685045,-0.68859142,0.21515425,-0.71006685,-0.39643252,0.68356431,0.36852607,0.7691111,-0.13852349,0.45069888,-0.72242785,0.76516962,-0.7650038,-0.86028224,-0.10713156,0.19116907,-0.067472152,-0.73443562,-0.071018167,-0.8453036,0.38675544,0.79331708,0.22036052,-0.8310352,-0.49568731,-0.089938723,-0.25980353,-0.13570932,-0.49190414,-0.58411437,0.41394317,0.16121164,0.2523436,-0.20106536,-0.30051318,0.18740849,-0.47809771,-0.014103038,0.88769102,0.18536063,-0.60894328,-0.17275527,-1.0072374,0.12322198,0.061623778,0.31989124,0.038251515,-0.26488483,0.42250884,0.23702134,0.068876088,0.27585652,-0.4545418,-0.10813753,-0.33670044,0.040132023,0.039470557,-0.26749748,0.38106534,-0.21876779,-0.6894682,0.17495297,-0.075747155,0.035407845,-0.69100314,0.29777557,0.038778868,0.56852716,0.03078164,0.96850926,0.40581223,0.20209882,-1.2415649,-0.34999511,-0.32268944,-0.3932116,-0.64623106,0.55815178,-0.4053233,-1.0581371,-0.17013292,0.42229486,0.50500131,-0.28737652,0.14817512,1.2503984,0.49253741,0.54653627,-0.81305689,0.5771758,-1.4572556,-0.46014103,-0.50369132,1.3011999,0.64222252,-0.033745971,0.0016918639,0.14515252,-0.62516797,0.43724433,-0.14559111,-0.90623266,0.35081226,0.1900406,-0.11209111,0.094171464,-0.36790609,-0.32503045,-1.5842831,-0.89229012,-0.021516778,0.1544341,0.2080778,0.24747467,0.12965344,-0.015734451,-0.37536544,1.227103,-0.37824124,0.73465204,-0.63796204,-0.33509672,-0.19709775,0.62626165,0.59949052,-0.58579326,-0.074427284,-0.43818578,0.12049185,0.72811812,0.34679094,-0.59014404,-0.6938749,0.072948851,-0.029886959,0.018901812,0.38377905,-0.25630859,0.1727186,-0.093084119,0.15677729,0.033397458,0.13786198,-0.35727227,0.13643694,-0.25030002,-0.61992961,-0.55228305,0.32573631,-0.2581369,-0.057976827,0.58015788,-0.29259703,0.18283641,-0.38188845,1.9565758,-0.87347806,-0.25318551,0.32319096,-0.32110107,-0.12988457,0.25612041,-0.369542,-0.81140047,-0.07981544,-0.73142451,-0.43441793,-0.077420838,-0.7087248,-0.41753012,-0.34025079,0.4652943,-0.84912282,-0.65370315,-0.52882195,0.0951114,-0.61103249,-0.38930821,0.26951334,0.1367806,-0.3801693,-0.26839468,-0.13066736,0.13692673,0.74393988,-1.0992509,0.22967175,0.10158049,-0.7798351,0.39560831,1.1656315,0.3143875,-0.14035451,-0.31195086,-0.0636025,0.56051326,-0.47314516,-0.2840569,-0.59337091,0.16636507,-0.087219208,-0.5407567,0.36758241,-0.066026323,0.45360011,1.0845993,1.6156703,-0.10780527,-0.26190799,0.50980026,-0.88663799,-0.13399751,-0.11584707,-0.055958942,1.1355532,-0.61247188,0.32838884,0.35371581,0.58546442,-0.078477427,-0.41850805,1.0657938,-0.67409801,-0.45160434,-0.48686764,-0.48701712,0.36175528,-1.0104728,0.82111549,0.33183011,-0.15002039,0.93912119,-0.34349987,-0.29291645,0.11498267,-0.44979024,0.23856317,-0.80421007,0.84826547,-0.43837047,0.12437034,0.020404682,0.21498837,1.0315716,0.34443945,-0.3627927,0.48227093,-0.0084664105,0.060212623,-0.41223142,0.49218059,-0.26945338,-1.095888,-1.2848319,-0.45858482,-0.44337943,-1.2381434,-0.99401325,-0.31420767,0.3053911,1.3152415,-0.59168935,0.77896249,-1.004495,-1.0292548,-1.4978733,-0.050339319,-0.84486562,-0.82103944,-0.019408202,0.071241684,-0.13498093,-0.090053692,-0.65365827,-0.084251836,-0.5559755,-0.60966063,-0.78046644,-1.2485213,0.19647641,-0.5641191,-0.68293732,0.42893457,-0.030463256,-0.24634744,-1.0853926,-0.3449485,1.4234031,-0.62250018,-0.49036583,0.28299049,0.58428723,-0.47161347,-1.5204428,-0.6553992,-0.39036158,0.093143865,0.57025564,0.55953157,1.5503732,-0.13515279,0.4079963,-0.10708671,-0.44606423,-0.26013318,-1.0112449,-1.0704334,0.63464624,0.12532301,0.3669531,1.0664169,0.65709132,-0.87776196,0.57625669,2.082355,-1.4459184,-0.40813175,0.71186668,-3.8569279,-0.76871729,0.81589705,-0.30541918,0.37482333,0.34350607,0.19476482,-0.96156484,0.22741549,-0.65280968,0.11939272,1.93713,-0.88512439,0.59302151,0.026167249,-0.81619805,-0.039475769,-1.0705378,0.48131981,0.42277631,0.98679298,1.4838068,-0.18898153,0.85064697,-1.7619627,-0.44326863,0.8385008,-1.2118551,0.78319192,-0.98150933,-0.46749207,0.53206629,0.78118289,-0.13533497,0.62076128,0.64119279,-0.71167731,0.34312865,0.046858422,-0.096470229,-0.15314181,0.73203778,0.26715508,1.3380698,0.21563445,-0.80312127,-0.67908442,0.10822318,-0.58697259,0.31609958,0.34311837,0.47128111,1.0067072,-1.4100499,0.15899652,-0.86974865,-0.94444054,0.074549556,0.16182122,-0.63961315,-0.32214633,0.85528678,-0.3373338,0.98533255,0.14607787,0.014314442,-0.54272157,-1.260627,0.16632585,1.102929,0.1731199,-0.98080504,-0.85665369,1.0572633,-0.30629644,0.29304439,-0.41027305,-0.26773944,-0.90554303,0.22177847,0.44909027,1.1234714,-0.0089069419,-1.1203624,-1.4002762,-0.12814102,0.3219592,-0.037104867,-0.067673288,1.4232924,-0.8059116,-0.09240406,0.54365265,-0.46608779,0.36732122,-0.41165745,-1.0043703,-0.12808236,-0.12911452,-0.25069857,0.25429174,0.40812922,-1.0161474,-0.7432633,0.18066742,-0.89983284,-0.84499776,1.0290146,0.035098638,-0.47064087,0.12363446,-0.52564335,-1.0204393,0.98463237,-0.60441977,0.47347471,-0.94203633,-0.9612636,-0.31157893,0.58367831,0.39957619,0.52283168,-0.22443148,0.23231652,-0.35368192,0.7291134,-0.038199876,1.0770774,-0.75659132,-1.1647151,0.7155323,0.59891218,-0.15571831,-0.35708228,0.056731496,-1.1053907,-0.12415029,0.5202024,-0.33111444,1.3402369,0.083667979,-0.682639,0.99930358,0.2884703,0.065010242,0.23197106,0.6105901,0.34926093,-0.49093157,0.39595631,-0.93903881,0.3022168,0.34287378,-0.25614849,0.19169866,0.12784769,-2.3743286,0.31294337,-0.46858481,1.2145188,-0.45829991,0.12755232,0.64962906,-1.2562952,0.59154999,-0.12314685,0.52066284,1.1060431,-1.3517532,0.55804372,0.11770337,0.31831145,-0.41251302,0.4653843,-1.3646863,-1.7040509,-0.056728937,1.0752705,1.5826055,-0.71591926,-0.18241115,0.38419211,-0.16453806,-0.38886303,-1.3492328,-0.0022749789,-1.2938046,-0.54385489,0.57521939,1.03353,0.49300179,-0.80347854,0.42954981,0.031770017,0.07911966,-0.26624563,-0.51753175,0.78670609,-1.0457083,-0.50641996,0.11946592,0.16320804,-0.38532236,-0.31023052,0.095692225,-0.034432687,-0.13715085,-0.60745424,-0.52041721,0.98684525,0.1063382,-0.88289183,-0.83212388,0.99118525,-0.95968467,-0.31052643,0.94057757,-1.6338964,-0.16397616,-0.12250088,0.04522964,0.71278417,-1.4708306,0.11777652,-1.0306257,0.42503187,0.45641851,0.11321155,-0.40850148,-0.93684334,0.19306917,0.21376422,-0.053701803,0.14476728,-0.96297491,1.2868706,-1.1674762,-0.35965335,2.0705864,0.82913464,-1.0423728,-0.80049855,1.1607409,0.15144311,-0.63485646,0.66405416,-0.72404271,-0.17415072,0.19912863,-0.30313599,0.78894609,-0.16585259,-0.20457423,-0.091155477,0.040204592,0.90002763,-0.061458055,0.065469816,-0.2297302,-0.99054122,-0.58499879,0.22459006,0.40900451,0.7343173,-2.0552893,-1.7826382,0.63641721,0.46273446,-0.82953662,1.5390364,-0.27664945,-0.80309743,-0.32685524,0.37372929,1.0016615,0.83896995,0.14228536,-1.1809886,-0.12780412,1.2752992,-0.52809662,0.27536622,-0.28093594,-1.2747829,0.2965709,1.4472198,1.1418583,-0.37067068,0.22124197,-1.0380995,0.035813097,-0.1652592,-0.69318932,0.01593682,-0.058720093,-1.2471658,0.38267002,-0.58748764,1.0093739,0.47617927,-0.61577016,0.35069507,-0.53564405,0.86766803,-0.47165078,-0.30336633,0.45952818,-1.0145918,0.33378431,1.2009414,-0.61101252,0.32502329,-0.41629413,-0.67717606,-0.54352087,0.14134614,0.38282669,-0.43598288,0.55820513,-0.83990085,-0.25789177,1.72404,-0.29998592,0.8571769,-0.29451558,-1.0937334,-0.83160269,0.46143544,0.23918946,-0.23213576,-0.22260752,-0.88424861,-1.0674996,0.41690618,-0.53115231,-0.33597213,-0.0084271086,-0.46523595,-0.94093269,0.96720481,0.58854407,-1.0279622,-0.37033087,0.17546445,-0.91883135,-0.063700914,0.21458055,-0.47017145,-0.54148573,-0.18781845,0.14630814,0.36621508,0.1032593,-0.92233533,-0.56756228,-0.16236021,0.37019107,-0.42659006,-0.57105035,0.62627238,-1.2664077,-0.75439638,-0.13220932,-0.11566649,-0.40690577,0.07456056,0.56720489,-0.80525756,0.54387689,-1.1865932,0.18112963,0.93607098,1.181734,0.081004038,-0.45698309,-0.24011271,-0.2047956,0.43082821,1.2516606,-0.68137342,-0.67492366,-0.28864479,0.81089979,0.75526404,0.77659345,0.88253742,-0.49180645,1.0364873,0.26364812,0.5298636,0.50001657,-1.5913125,0.14952844,-0.81070608,-0.041583236,-0.16198026,-0.20797366,-0.10692389,-1.0067194,-0.45823747,-0.50514758,-0.4884086,-0.087317839,-0.72500348,0.3370741,-1.9300503,0.49397886,0.64387536,-0.14832047,0.21115749,-0.51352084,0.25479379,-0.53816038,0.11369074,-0.59358215,-0.86431748,0.34966618,0.36275113,-0.48340461,0.0069136396,-0.24702632,-0.21404883,-0.34477988,1.4444623,0.64013022,0.53016055,0.95891249,-0.28482321,-0.67561918,0.28684825,-0.030765304,0.52071792,0.91581976,-0.12555641,-0.83700323,0.10961338,0.7396577,0.29508173,1.0489246,-0.80877733,-0.48235628,0.11997656,0.45348319,0.74380589,0.45356134,-0.24512388,-0.58228046,-0.12024764,0.76249295,0.52388346,-0.258147,-0.41234326,-0.31814203,0.089751326,-0.26510024,-0.94077283,-1.0066687,0.93215531,-0.28876078,0.4178943,-0.0099171549,0.26216385,-0.58941251,-0.12197261,0.059622727,-0.46075857,-0.58682013,0.27650455,-0.038290985,0.5934732,-0.022796722,-0.20756328,0.30473042,0.67712128,-0.27586135,0.36422679,-0.89081645,-0.87463224,-0.35144833,0.6175918,-0.20036955,0.215995,-0.49078056,-0.82637608,0.09264493,0.028317915,1.2104938,0.74904698,-0.74817461,0.06259536,0.92107862,0.8625741,0.15963094,0.26933897,-0.74989438,0.069712356,0.33292955,-0.1814862,0.23184997,0.67036772,-0.085808262,-0.9030748,-0.077018298,-1.044934,-0.0050459579,-0.37471339,0.79565489,-0.26939541,-0.52063,-0.39164126,-0.17440701,0.046211038,0.47200686,-0.75322956,0.19560176,0.4981893,-0.60708243,0.27853721,0.57671076,0.10093203,-0.43531933,0.75898838,-0.67122203,0.69779652,0.57808256,0.25678098,-0.31286675,0.24323696,0.030177951,1.1275029,1.1519693,0.022907283,0.59830904,0.33303532,0.07222224,-0.27476546,0.57446301,0.7000767,-0.50842953,0.22038163,0.15533534,0.62119979,0.0034243064,0.013712178,0.39221048,0.45226616,1.8004253,-0.54618782,-0.62454683,1.2702389,0.83451366,-0.47239351,-0.3054783,-0.64020324,0.067822322,-0.10509488,0.70020777,-0.93805778,1.387712,-0.17560209,-1.5907319,1.3507882,0.71785182,-0.67591918,-0.13093758,-0.71344668,0.090083852,-1.2986572,1.0409518,-0.063445441,-0.61425924,0.26475781,-0.28074005,0.86230791,0.70236862,-0.024666501,0.21824838,0.28385511,0.65379959,-0.3667779,0.57129401,1.1855184,-0.47469473,0.13748346,-0.43146446,-0.17517304,-0.1212168,0.027622007,0.12090486,-0.24080274,0.097700275,0.049134631,0.037469331,-0.10151122,0.33709249,-0.11532922,-0.28205058,0.040724181,0.34418163,0.56863976,0.45149833,0.79178405,-1.2529244,0.50323445,0.10351654,0.048787568,0.56827843,0.40557829,0.85187793,0.39560688,0.68452013,0.18790981,-0.0032466406,-0.93372798,-0.49598801,0.68925881,0.32562393,0.32431671,-0.59939355,-0.52125156,0.51771915,-0.31831828,-0.1649048,0.82071549,0.42759016,0.27578101,0.033988915,-0.69647563,-0.43079534,0.38346976,-0.37453803,-0.08608783,0.4895575,0.67341334,-0.65344304,0.35246369,0.23826022,0.41687807,0.8379277,-0.65252525,0.078390904,0.42401847,-0.043567762,0.23597594,-0.61597311,-0.10773173,-0.05699252,0.61536485,0.73273957,0.25031313,0.11633482,0.58707309,0.29437062,-0.21744703,1.5104219,-0.9987281,-0.94490659,0.57251137,-0.1343552,-0.81310594,-0.89565063,1.2201,0.078625865,0.60190821,0.74044544,-0.42711532,1.2164137,0.90843606,-0.5101555,0.2171828,-0.25197545,-1.1186178,-0.19294366,0.17065017,0.22078851,0.32580405,0.71685719,0.25510958,0.31966993,0.81736988,-0.28845757,1.1595637,0.91487563,-0.33564293,-0.13951559,-0.76046634,1.049655,-0.64179623,0.91212451,1.0602297,-0.0055536842,-0.2073058,-0.38704529,-0.098069474,0.28550509,-0.19414403,0.46945408,-0.55432081,0.12283407,-0.29225266,-0.1599194,0.036049943,0.72631425,0.55654913,-0.05733465,0.42737341,1.4038938,0.12223,-0.18352425,-1.3660098,-0.032213736,0.95755088,0.20392595,0.18697253,-0.082073361,0.33103523,-0.28976101,0.8733536,0.77400255,-0.14746249,0.086227857,-0.87538058,0.019927666,0.5382821,0.66563511,-0.55254513,-0.36229876,0.99211812,0.39186418,-0.10640108,-0.057130564,-0.090828277,-0.1789736,0.11442928,0.19635847,-0.048668753,0.72012246,-0.6531654,-0.77717513,-0.33305091,0.2127074,-0.12995522,-0.39327943,0.97613102,-0.74028921,0.49053717,-0.55782878,-0.13357185,0.072113954,-0.35116652,-0.51054698,0.19279367,0.43682685,-0.5097447,-0.30185857,0.32201919,-0.14560288,-0.30698571,0.0078798914,-0.35931727,-0.27413812,-0.31092441,-0.14925306,-0.5011462,-0.51470166,-0.11439477,0.72914898,0.12856875,0.20028116,0.051595259,0.018916758,0.21551727,-0.021395246,0.39379013,0.27050352,0.95851755,-0.22707166,0.58514714,0.12274121,-0.20308352,-0.49111289,-0.73493725,0.10142972,0.10667967,0.4221254,0.68759757,-0.73152113,-0.057731237,-0.49290773,0.71581292,0.10478445,-0.40244162,-0.1787734,0.098972619,0.5840258,-0.60659814,0.28966469,0.73651087,
-0.29639685,0.15272035,0.13091594,-0.10492275,0.13617113,-0.063067503,-0.10686114,-0.28936583,-0.28584537,-0.059897728,-0.15545423,-0.12191747,
0.35904139,0.36271921,-0.11319035,0.47310302,-0.13004993,-0.12101652,-0.078449443,-0.12375347,-0.085989006,-0.11152937,0.54873216,0.30059019,-0.075225465,-0.11479172,-0.13007297,-0.17150031,-0.13871944,-0.12625529,-0.14211829,-0.16842724,0.028660173,-0.088134691,-0.1483683,-0.14742032,-0.6225884,0.29465726,-0.13123845,-0.14798237,-0.098880686,-0.098652966,0.32193133,-0.14100023,-0.083160132,-0.12532474,-0.11226887,-0.22021626,-0.11563894,-0.095498979,0.28219488,-0.13501848,0.1170552,-0.091457635,0.06572929,-0.9560414,0.11967093,-0.12615576,-0.89685738,0.35207888,-0.93282878,-0.12092087,0.21035001,-0.14677508,-0.65911287,-0.092659421,-0.093260109,-0.082269557,-0.13598341,0.17113847,-0.15895107,-0.093424819,-0.081232257,0.39139634,-0.15176637,-0.098997526,-0.14547077,-0.13697059,-0.29131192,-0.1569694,-0.14360553,-0.14134185,-0.136447,-0.15093994,-0.15378582,-0.10011718,-0.14252479,-0.121518,-0.11001401,-0.13465257,-0.15718682,-0.15895572,-0.11783746,-0.13793913,-0.13944921,-0.1615687,-0.16326793,-0.13840352,-0.15222679,-0.12030073,-0.12007276,-0.12811984,-0.07277298,-0.16083869,-0.081494883,-0.11258911,-0.12303688,-0.099031888,-0.10297412,-0.15023431,-0.14405274,-0.1508778,-0.095746085,-0.56717092,-0.24560869,-0.4135763,-0.68657571,-0.089033574,-0.13978557,-0.15061064,-0.13774514,-0.13789441,-0.13014343,0.17274851,-0.14470962,-0.1059669,-0.14241809,-0.10597552,-0.088325381,-0.12639262,-0.10507517,-0.089726008,-0.70750529,-0.11118371,0.21489388,-0.091443971,-0.005529677,-0.099892214,-0.11236264,-0.11633362,-0.12110063,-0.10815594,-0.11022888,-0.098677777,-0.13650168,-0.15699191,-0.11497834,-0.15066057,0.46044797,-0.11546626,-0.1133386,-0.095638953,-0.14427528,-0.15681005,-0.70173323,-0.26920921,-0.07359001,0.32493442,-0.12219521,-0.12805171,-0.096496515,-0.10738831,-0.2391244,-0.68756789,-0.099013396,-0.16300853,-0.097618148,-0.1276052,-0.1542093,-0.15446399,-0.10317167,-0.12115942,-0.091542087,-0.27952218,-0.16145447,-0.54570079,-0.1603335,-0.088245012,-0.13171703,0.18904668,-0.083482645,-0.10740064,-0.046286441,-0.1355706,-0.048261974,0.56358063,-0.58996022,-0.12676346,-0.099711895,-0.13071755,-0.082864493,-0.16214366,-0.10430408,-0.13842256,-0.11145793,-0.11956251,-0.13398075,-0.138337,-0.12959318,-0.094241463,-0.14431828,-0.11231672,-0.099224903,-0.12967223,-0.15709724,-0.11243863,-0.12964563,-0.097314052,-0.079364412,-0.15950555,-0.080332093,-0.09678337,-0.64267904,-0.14221258,-0.16885464,0.52092022,-0.29482663,-0.32318646,0.099556088,-0.1399181,0.26661062,-0.17038138,0.68171269,-0.56690812,-0.09502437,-0.12662683,-0.10305668,-0.073991001,-0.13468824,0.39987266,-0.11541902,-0.085688479,-0.14671277,-0.10049143,0.28712681,-0.93313444,-0.14412057,-0.12213749,-0.11133587,-0.079254791,-0.12490632,-0.15453453,0.40664104,-0.1336153,-0.10570616,0.34230939,-0.1526137,-0.097684391,-0.10939936,-0.1188013,-0.073819198,-0.11445141,-0.68047452,-0.094305001,-0.097429454,0.56483024,0.39654025,-0.1502883,-0.10627887,-0.2945438,-0.13881135,-0.088649228,0.080834419,0.1185178,0.40348142,-0.13876586,-0.10019342,0.84799969,-0.14560741,-0.12536278,-0.071884155,-0.11690959,0.32910883,-0.12080563,-1.0449988,-0.032506898,-0.15023656,0.10790877,-0.084864005,-0.1352209,-0.11316776,-0.16478895,-0.10318929,-1.0096254,-0.12706259,-0.075125322,-0.16372372,-0.1125926,-0.16736642,-0.68665349,-0.14451817,-0.12467238,-0.085734591,-0.087957732,-0.09268374,-0.096575812,-0.14960702,-0.1078377,-0.11879385,-0.11205445,-0.11638252,-0.14224878,-0.08107882,-0.14356107,-0.098114155,-0.114925,-0.15149064,-0.13212559,-0.1179633,-0.1410836,-0.14543779,-0.10115112,-0.14466704,-0.17063999,-0.10451162,0.25830907,0.11860719,-0.1342971,-0.10218054,-0.13696556,-0.11176869,-0.085122198,0.15552899,-0.08816307,-0.13874634,0.51648688,0.35689223,-0.12392749,-0.126185,-0.080565155,-0.14227216,-0.13170272,-0.20302849,-0.1130264,-0.10130174,-0.12249216,-0.33969298,0.088328004,-0.11645536,-0.076594844,-0.090456352,-0.085265405,-0.13778898,-0.11299289,-0.11494716,-0.10191149,-0.10939358,0.23676886,0.13593553,-0.11561351,-0.12817678,-0.13227247,-0.12680614,-0.084691837,-0.16813496,0.11876063,-0.1331296,-0.12159541,-0.097246267,-0.16264398,-0.15768129,-0.11220492,0.11230122,-0.11655252,-0.1117661,-0.10921224,-0.14770544,-0.94452739,-0.097412601,-0.11732664,-0.16167723,-0.10454564,0.01240894,-0.15427062,-0.082468666,-0.088595629,-0.022466684,-0.11094761,0.53641599,-0.099283732,-0.092891976,-0.1346852,-0.20119573,-0.097329713,0.37322626,-0.16085273,-0.099456668,-0.093622431,-0.16777596,-0.10412597,-0.12419905,-0.16447218,-0.11406587,-0.092479914,-0.11882005,-0.16054422,-0.079002775,-0.096409634,-0.13057855,-0.12686603,-0.084673263,-0.13469233,-0.14408384,-0.16501839,-0.13606191,-0.096677646,-0.12073807,-0.091451049,-0.15575512,-0.11327621,-0.089526363,-0.13214345,-0.27053258,-0.072762236,-0.93475813,-0.10621787,-0.086856522,-0.12943581,-0.17699622,-0.037468139,-0.30317712,-0.10554244,-0.64145172,0.092854336,-0.10768774,-0.14805399,-0.12186237,-0.048741382,-0.13551326,-0.10460264,-0.13750049,-0.11040307,-0.8931337,-0.086861297,-0.096056662,-0.13134675,-0.12374689,0.80143034,-0.079415537,0.56902289,-0.088569626,-0.11625466,-0.24377789,0.48494807,-0.1683726,-0.11443178,-0.090941526,-0.12313039,0.018070539,-0.11939242,-0.10115519,-0.11171281,-0.81679577,-0.95412958,-0.14720219,-0.14233737,-0.071948051,-0.58879614,1.1217774,-0.11246586,-0.13815784,-0.13108861,-0.12358891,-0.11352496,-0.64633906,0.061214689,-0.11515594,-0.1335725,-0.1216526,-0.084695511,-0.087493919,-0.11089587,0.45694456,-0.10460756,-0.63001907,0.13290599,0.37227982,-0.46329474,-0.11094126,-0.69729346,-0.11805551,-0.079951763,-0.10344353,0.59678096,-0.15462628,-0.10401423,-0.10487694,-0.13780096,-0.083445661,0.068824939,-0.1386061,-0.15787855,-0.12918039,-0.11221449,-0.10621745,-0.11970209,-0.13760008,-0.14814124,-0.088970795,-0.14404748,-0.16342013,-0.14321595,-0.14796174,-0.11761844,-0.10455955,-0.13652232,-0.12856182,-0.088646315,-0.13624097,-0.088535242,-0.12919234,-0.1248072,-0.16754846,-0.084880225,-0.67081696,-0.12634329,-0.1006085,0.011323288,-0.10082448,-0.093678966,-0.093015067,-0.09079475,-0.10054069,-0.084709689,-0.70934314,-0.14264876,-0.1243086,-0.13679811,-0.14103021,-0.11813972,-0.13280822,-0.1471899,-0.12136389,-0.082153127,-0.089046903,-0.11368532,-0.13730319,-0.42349845,-0.1343057,-0.14580777,-0.082529441,-0.15632144,-0.3904736,-0.09481246,-0.15742147,0.41689372,-0.16106339,-0.13203099,-0.11933304,-0.10707449,-0.1351849,-0.090110242,-0.24608198,-0.077571332,-0.076922894,-0.14495519,-0.086516872,-0.46036437,-0.12504822,-0.12488189,-0.10425155,-0.089533538,-0.14538971,-0.71398962,-0.12738378,-0.1146189,-0.075347506,-0.14480411,0.60843188,-0.13787995,-0.14668632,-0.094356492,-0.053919211,-0.14937501,-0.3212449,-0.12584004,-0.12768586,-0.13787745,0.4405866,-0.14925052,-0.11846393,-0.13113774,0.31639633,-0.14726688,-0.08422365,-0.13157479,-0.14510347,-0.51260322,-0.1383474,-0.093804464,-0.072345607,-0.12964492,-0.14897023,-0.11775328,-0.11148351,-0.10857151,-0.12828292,-0.10560183,-0.088473104,-0.095030583,-0.12290396,-0.085266635,-0.077924877,-0.13331799,-0.089196227,-0.15283245,-0.10907239,-0.15904345,-0.1369863,-0.085112415,-0.097335815,-0.12473571,-0.12574863,-1.1153055,-0.11582954,-0.58048528,-0.13630821,-0.13990788,-0.086192645,-0.44763467,-0.21457453,-0.091534011,-0.13750015,-0.49673077,-0.16897705,-0.11747903,0.2742365,-0.10846071,-0.090967409,0.24581401,-0.53784823,-0.1301326,-0.62784386,-0.14607584,-0.39973143,-0.091367006,-0.14758746,-0.11928581,0.11140729,-0.068624906,-0.11717083,-0.10044313,-0.096805483,-0.10464728,-0.25100327,0.4779174,-0.53976208,-0.13339017,-0.13098428,-0.12799595,-0.11074213,-0.12401399,-0.10670188,-0.1530295,-0.12214911,-0.081029035,-0.092882119,-0.11680686,-0.54087836,-0.3010152,-0.13701458,-0.14930457,-0.13944499,-0.59882754,-0.085581481,-0.14851947,-0.10410157,-1.1369795,-0.13702796,-0.12664381,-0.14681485,-0.15320936,-0.14053912,-0.12961367,-0.13771906,-0.13320617,-0.90797138,-0.11434765,-0.15801206,-0.10105197,-0.12115869,-0.1395504,-0.93566579,-0.092930786,-0.14132468,-0.31237823,-0.14631793,-0.10355659,-0.14394882,-0.11936035,-0.11290516,-0.10784383,-0.086111203,-0.14816411,-0.16855894,-0.11275955,-0.14291684,-0.16322584,-0.16152993,-0.13138875,-0.12657636,-0.14468712,-0.1550013,-0.11654709,-0.091328725,-0.16402124,-0.097294979,-0.13572934,-0.1486775,-0.074234702,-0.11201608,-0.1135174,-0.16852412,-0.057874937,-0.35980272,0.061739214,-0.11605401,0.029969651,0.57806259,-0.085299782,-0.10246465,-0.14171329,-0.46206942,-0.11254168,-0.11716454,-0.28441232,-0.13899133,-0.65787876,-0.10642495,-0.15371071,-0.12869436,-0.12105672,0.46598351,-0.12482785,-0.47443664,-0.17094702,-0.13990974,0.17881821,-0.49988669,-0.1349941,-0.10404318,-0.13183375,-0.12391479,-0.19621955,-0.16338548,-0.99445307,-0.13159853,0.52568096,-0.14772576,-0.095635794,-0.11305713,-0.11215774,-0.10098886,-0.15153931,-0.56756073,-0.13601016,-0.095663548,-0.14801459,-0.31298876,-0.10526041,-0.12575684,-0.098719895,1.0064363,-0.15614237,-0.081829481,-0.10310517,-0.1111206,0.33818665,-0.11141992,-0.92678249,-0.14109439,-0.1532789,-0.15109919,-0.1076381,-0.14213531,-0.081145845,-0.22034286,-0.11415107,0.13332841,-0.1356948,-0.1320601,-0.16358291,-0.1558336,-0.16110682,-0.10385885,0.64026856,-0.10816153,-0.14766996,-0.14671551,-0.1608493,-0.14494261,-0.097134717,-0.12845401,-0.94898582,-0.13319096,-0.11721572,-0.14071868,-0.10711519,-0.13904023,-0.13282864,0.35269359,0.39798653,-0.12032835,1.0444338,-0.097535625,-0.15492924,-0.15940015,-0.098698653,-0.20169829,-0.14505456,0.50080347,0.14675611,-0.16482618,-0.16067654,-0.19589983,0.4971683,-0.10802444,-0.081008896,-0.11558263,-0.12208946,-0.3008768,-0.12860574,-0.091357976,-0.16506709,-0.36638021,0.0050039715,-0.13602895,-0.14375474,-0.17572479,-0.095509276,-0.76213813,-0.1217816,-0.14944689,-0.2094375,-0.096874677,0.073566243,-0.12156392,-0.074894972,-0.10924926,-0.13724793,0.24050967,-0.13706557,0.92420524,0.10583627,-0.1111673,-0.11654896,-0.052331518,0.023539407,-0.0034496777,-0.12556547,0.1356412,-0.12075517,-0.32359853,-0.137806,-0.11051451,-0.11820464,-0.19043477,-0.56012046,-0.1099458,-0.11359599,0.32967615,-0.24622384,-0.17348769,-0.14097957,-0.11991172,-0.17765145,0.050261524,-0.070834525,-0.1274081,-0.15634294,-0.082260169,-0.17412356,-0.15587726,-0.1418381,-0.13762943,-0.20168142,-0.12926453,-0.19448785,-0.095604889,-0.089743957,-0.12413026,-0.11433016,-0.1502136,-0.092604376,-0.14552461,-0.14797623,-0.12627867,-0.13977748,-0.099881545,-0.085126214,-0.14699021,-0.11726807,-0.10495228,-0.17805091,-0.11100189,-0.1200017,-0.14201891,-0.10471416,-0.17009833,-0.15853691,-0.14406078,-0.10719151,0.97684395,-0.38843614,0.45979816,-0.10483161,-0.13623105,-0.09121421,0.3741422,-0.11004195,-0.11437309,-0.26595575,-0.12725066,-0.14287439,-0.15716855,-0.12016674,-0.17832753,-0.18911201,-0.16236651,-0.15525553,-0.16245839,-0.1579292,-0.075126767,-0.099807888,-0.052060626,-0.1615565,-0.16358931,-0.14219226,-0.08717721,-0.12013049,-0.15143828,-0.17142293,-0.14349279,-0.099645026,-0.10007209,-0.079632767,0.25412247,-0.15130515,-0.15485446,-0.12758875,-0.14188354,-0.13340466,0.28433982,0.74161005,-0.21772036,0.33933258,-0.12140912,-0.15180169,-0.13119502,-0.17789117,-0.71785921,-0.36775237,-0.13808942,-0.10820545,-0.18137503,-0.12780665,-0.1315594,-0.18209851,-0.1653152,-0.10608997,-0.17573781,-0.55660301,-0.080649361,-0.67570585,-0.16561246,-0.12355222,-0.14006469,-0.58477604,-0.11907358,-0.10961016,-0.071900971,-0.1186656,1.0508363,-0.32306823,-0.87276739,-0.15438713,-0.098816872,-0.086176015,-0.095290683,-0.16762432,-0.14323266,-0.15921521,-0.12423303,-0.12772889,-0.12457464,-0.15276402,-0.090200678,-0.11037188,-0.1022787,-0.13351211,-0.088373289,-0.17477177,-0.17139545,-0.084866621,-0.10916375,-0.17427522,-0.13831276,-0.080520093,-0.13933952,-0.12137454,-0.71759772,-0.081210807,-0.19171365,-0.25066537,-0.074272737,0.19140203,-0.19914503,-0.139182,-0.013043432,-0.10265946,-0.14691438,0.1111265,-0.2255152,-0.10757431,-0.17447294,-0.13412963,-0.129742,-0.38097966,-0.12393346,-0.12666407,-0.18948257,-0.091018781,0.70903951,0.73984855,-0.11401586,-0.13286415,-0.12304081,-0.13387109,-0.14114353,-0.11934432,0.35191068,-0.14072095,-0.12175107,-0.14151452,-0.15384275,-0.19612788,-0.18189692,-0.11270151,-0.13723788,-0.11256482,0.88538998,-0.15412749,-0.17018171,-0.031918839,-0.2218882,-0.09540011,-0.14482355,0.40223059,-0.18107688,-0.1724491,0.17240174,-0.21492709,0.80632502,-0.1383386,-0.1279978,-0.062133715,-0.099607468,-0.081076436,-0.1667598,-0.11904969,-1.0000358,-0.1416254,0.57335919,-0.15304887,-0.086645268,-0.40902627,-0.068845674,-0.088180356,-0.11529155,-0.1277823,-0.14640759,0.38228294,-0.18386646,-0.12128316,-0.095893331,-0.16114479,-0.07293497,0.57572675,-0.13108192,-0.16327438,-0.12621012,-0.12534964,-0.10246354,-0.14109947,-0.16077325,-0.11138242,-0.089027211,-0.10696839,-0.11869835,-0.12305094,-0.13095494,-0.1859677,-0.073431522,-0.1666393,-0.12187342,-0.13767885,-0.11072899,-0.097249039,-0.10499581,-0.13430487,-0.10294916,-0.12708795,-0.087074839,-0.408346,0.4214296,-0.10959164,-0.12399348,-0.092286341,-0.143057,-0.14850007,0.81906003,-0.10022645,-0.12409302,-0.61092871,-0.90657818,-0.12417782,-0.1167186,-0.13558978,-0.1279432,-0.12246102,0.30591899,-0.099146776,-0.067663208,-0.1523193,-0.23166484,0.034317635,-0.42474166,-0.11776523,-0.15542947,-0.12617373,-0.16718736,-0.14077486,-0.14699431,-0.16690354,-0.10205001,0.18868189,0.40162715,-0.086217016,-0.16934472,-0.14362577,-0.13779423,-0.12106389,-0.10969236,-0.57168359,-0.13462421,-0.12829831,-0.13414256,-0.12161613,-0.11649297,-0.072894558,0.74804318,-0.13321726,-0.11576939,-0.12443053,-0.17489001,1.1756822,-0.11737348,-0.1030253,-0.12437044,-0.097653955,-0.04563605,-0.12291978,-0.12174545,-0.1468353,1.2766783,-0.099716924,-0.11269891,-0.087298967,-0.16018626,-0.13282582,0.98929131,-0.15957958,-0.15591937,-0.1508213,-0.10575361,-0.078959197,-0.14606079,-0.12999955,-0.11495302,-0.19890615,-0.1146921,-0.17325281,-0.1746667,-0.16507067,-0.12612963,-0.15574767,-0.090494432,-0.17696995,-0.13361385,-0.1519831,-0.093541838,-0.17020603,-0.12354493,-0.1202848,-0.097686954,-0.13131861,-0.16307606,-0.14010215,-0.13062496,-0.10270213,0.33997798,-0.15959527,-0.520805,-0.13247807,-0.086997852,-0.16596764,0.46122125,0.17199567,0.73736888,-0.11699209,0.38885128,-0.65161526,-0.092252813,-0.13027148,-0.19154415,-0.44318113,-0.14092104,-0.17063619,-0.12265623,-0.143939,0.71414363,-0.11334544,-0.20439899,-0.09811803,-0.12241831,0.016900612,-0.13261101,0.10342328,-0.13944106,-0.1376147,-0.79384542,1.3974583,-0.078992203,-0.14644967,-0.12612762,-0.16292134,0.24233098,-0.14513338,-0.14344648,-0.14814895,0.26015335,0.68712705,-0.11161691,-0.15731524,-0.12560116,0.71450943,-0.061734777,-0.084774174,-0.1341027,-0.08977215,0.71369469,-0.17142741,0.26966348,-0.64349824,-0.095814556,-0.16159593,-0.18535097,-0.17680405,-0.18387142,-0.11853774,0.8317821,-0.15466943,0.37438232,0.38057065,0.36962885,-0.89279538,-0.096203804,-0.82821727,-0.13266484,-0.10210235,-0.12211386,-0.56906462,-0.16353576,-0.13937178,-0.11168439,-0.070969366,-0.08594884,0.086727627,-0.17692475,-0.1673619,-0.21087496,-0.10788771,-0.1009456,-0.11792043,-0.13983302,-0.087572008,-0.17442621,-0.14966553,-0.12211571,-0.15691097,-0.096189663,-0.091824248,-0.12511691,-0.18434553,-0.15741469,-0.17117253,-0.17715123,-0.12601267,-0.14102656,-0.18061666,-0.10251468,-0.12385642,0.51400876,-0.12922758,-0.098364271,0.47501472,-0.17324178,-0.16108139,-0.097592644,-0.11483694,-0.09609735,-0.10912893,-0.043347325,-0.14002676,-0.17241238,-0.14239095,-0.12646008,-0.19873011,-0.12052443,-0.18276893,-0.16123733,-0.11167162,-0.13728359,-0.15564026,-0.11571366,0.072955862,-0.10124958,-0.14138386,-0.14457363,-0.12928621,0.64757037,-0.074529216,-0.1385448,-0.29428601,-0.58885694,-0.15686002,-0.12308232,-0.1815635,-0.13010624,-0.074771076,0.52897722,-0.10720196,-0.14705046,-0.086500339,-0.17453215,-0.50507158,-0.14901292,-0.12943509,-0.16370077,-0.11408833,-0.14839838,0.52038968,-0.11352701,-0.082014494,-0.16186772,-0.088701278,0.20039883,-0.1671927,-0.18050893,-0.1490176,-0.12847804,-0.16485198,0.44743043,-0.16596346,-0.065250814,-0.14713489,-0.19161817,-0.10330267,-0.09537632,-0.090942763,0.79220515,-0.15570381,-0.13596115,-0.16854651,-0.15184754,0.75519937,-0.07368838,-0.09221413,-0.17534748,-0.093570352,-0.1394795,-0.11757346,-0.11216163,-0.12212031,-0.091697365,-0.17303176,-0.13240409,-0.18469812,-0.170192,-0.16126761,-0.15421157,-0.12420199,-0.1095576,-0.17309053,-0.15348835,-0.1344319,-0.13983953,-0.16928877,-0.16051452,-0.12966366,-0.10616732,0.14293568,-0.13231945,-0.17396186,-0.13190569,-0.15961225,0.25011837,-0.0078465072,-0.66811645,-0.13522118,-0.17621785,-0.49602103,-0.14499016,-0.16765487,-0.56058323,-0.15352014,-0.080196001,-0.40978441,-0.052612677,-0.12005054,0.39899224,-0.12584989,-0.73872167,-0.16754182,-0.1082705,-0.11729462,-0.28829718,-0.11977737,-0.15337013,-0.15130496,-0.14239292,-0.11634595,0.91435593,0.1364803,-0.4289788,-0.14194964,-0.11633201,-0.15001209,-0.11920946,-0.1327807,-0.174402,-0.11247886,-0.18939191,-0.13385597,-0.15100926,-0.1029513,-0.0059586335,1.3304496,-0.092974,-0.18503581,-0.10003864,-0.51579422,-0.11221766,-0.13046713,-0.15962204,0.090509541,-0.18255734,-0.16513664,-0.18944456,-0.13314967,-0.10712138,-0.14484434,-0.12170799,-0.16392414,-0.21927084,-0.18891633,-0.33206102,-0.13735123,-0.16669881,-0.16939731,0.063043252,-0.093032792,-0.16366014,0.34297463,-0.078559026,-0.13137078,-0.15270998,-0.10780829,-0.11639224,-0.076841548,-0.14834884,-0.10612073,-0.11924598,-0.16659415,-0.12000641,-0.14643753,-0.13058026,-0.12048082,-0.10112986,-0.13513368,-0.12650193,-0.19290382,-0.093164749,-0.13188136,-0.10976083,-0.15275234,-0.13058218,-0.18551198,-0.15102555,-0.071132854,0.49540913,0.66691285,-0.31931275,-0.36088568,-0.1322629,-0.24076216,0.31125146,-0.11982977,-0.095179573,-0.17678007,-0.66940922,-0.15429439,-0.13865614,0.054950826,-0.092448875,0.62671185,-0.12077545,-0.071961358,-0.092363372,-0.20249209,0.043080602,-0.11212374,-0.3048737,-0.15382648,-0.15011616,-0.50013131,-0.58632231,-0.098154791,-0.10055456,-0.10470179,-0.11084728,0.47310129,-0.1036932,-0.082595088,-0.092880853,-0.30063099,-0.14573595,-0.086285748,-0.14663926,-0.094329216,-0.16266724,-0.17154279,0.5751844,-0.1222306,-0.11301924,-0.14897399,0.48994061,-0.15564795,-0.1132559,-0.14391367,0.18278061,-0.12392483,-0.16163526,-0.12258241,-0.11845185,-0.43423694,-0.12211385,-0.10046773,-0.17928545,-0.098302223,-0.14830501,-0.11855083,-0.1434951,-0.12764959,-0.66628587,-0.12502752,0.67393363,-0.14930585,-0.10623974,-0.097849451,-0.14694917,-0.1552567,-0.10969437,-0.0062654451,-0.091012776,-0.10640065,-0.13665286,-0.080186084,-0.12536797,-0.10420034,-0.079007544,0.36828831,-0.13249646,-0.13637675,-0.14006729,-0.11962746,-0.11537749,-0.13297403,0.80362153,0.07765539,-0.02876443,-0.55332679,-0.12732106,-0.049364865,-0.11270154,-0.099743225,-0.098390251,-0.11953957,0.35941964,-0.8633343,-0.039148588,-0.049404636,-0.1059084,-0.43270558,-0.024618454,-0.034266941,-0.040513419,-0.07165429,0.41844955,-0.056426849,-0.10606592,-0.018347451,-0.34098917,0.54452991,-0.095995843,-0.098639809,-0.078645155,-0.11766723,-0.40655759,-0.046341445,-0.09431944,-0.086089551,-0.057006396,-0.079826996,-0.104003,-0.090477191,0.60077614,-0.090100206,-0.03019773,-0.092962421,0.2358084,-0.23553146,0.059642527,-0.053666599,0.4958908,0.63633907,-0.05663725,-0.10542472,-0.55191398,-0.098915368,-0.39392582,-0.068479843,-0.070342459,-0.057518512,-0.062325623,-0.52324909,-0.087899148,-0.11293454,-1.0563495,-0.31329462,-0.096509233,-0.065266542,-0.06310232,-0.073517673,0.14743012,-0.10376284,-0.030207315,-0.046458237,-0.075008325,-0.054489437,-0.047971137,-0.056145143,-0.06546814,-0.077928931,-0.093916669,-0.033534862,-0.072955675,-0.026731435,-0.1257495,-0.077321947,-0.051238194,-0.091752656,-0.036237471,-0.029451231,-0.11367687,-0.070792362,-0.041316375,-0.035172954,-0.088552333,-0.10029661,-0.1054645,-0.070679054,-0.089643806,-0.070615761,-0.10827212,-0.088618986,-0.096873991,-0.055113733,-0.072329953,0.10408036,0.16484794,0.5983811,0.57366347,-0.044571385,-0.071745075,-0.075135723,0.34571737,-0.10306209,-0.051106289,-0.60782975,-0.061238263,-0.090067536,-0.10763369,-0.062270228,-0.080310293,-0.10440184,-0.10664191,-0.063347541,-0.16101962,-0.10427942,-0.75274044,-0.076705053,0.68220848,-0.058884952,-0.071920343,-0.097392619,-0.062723093,-0.098099738,-0.094084159,-0.037360709,-0.090545438,-0.040530685,-0.097171433,-0.070120893,-0.15497492,-0.095031612,-0.067753918,-0.067932457,-0.073040366,-0.084018581,-0.95634872,0.16686878,-0.10961359,-1.0616758,-0.084100902,-0.042244516,-0.085107207,-0.072960913,0.61859202,1.2388945,-0.078321874,-0.045732308,-0.07879021,-0.050629769,-0.036962055,-0.09688437,-0.12586559,-0.06713777,-0.11676529,-0.099139042,-0.081580609,-0.43136743,-0.041042097,-0.07379134,-0.11306776,0.21318142,-0.055496234,-0.11122672,0.34292841,-0.11051765,0.58126169,-0.81461424,-0.23889504,-0.038713064,-0.062428743,-0.071513347,-0.093491696,-0.0401273,-0.10812268,-0.098966606,-0.1103779,-0.094429038,-0.10433862,-0.031871062,-0.059071906,-0.033708092,-0.078170359,-0.031434689,-0.11610851,-0.10058746,-0.11538069,-0.042953316,-0.092011884,-0.040830612,-0.1219641,-0.095128559,-0.1022027,-0.043916054,0.18324739,-0.040013984,-0.27083343,-0.37572592,-0.40573844,-0.44539675,-0.63721967,-0.041788295,0.083371133,-0.044770453,-0.037893668,0.035471637,-0.07206253,-0.035952907,-0.089582577,-0.076644897,-0.079978526,-0.18292226,-0.0534596,-0.089518234,-0.058086712,-0.091633178,0.11108273,0.74130619,-0.035633635,-0.045752607,-0.087492242,-0.058503237,-0.10234409,-0.06989184,-0.2530885,-0.057430949,-0.11590627,-0.87670219,-0.061483636,-0.047497258,-0.037578199,-0.080036238,-0.043199327,-0.079380728,0.48715827,-0.061920352,-0.053637587,0.1946266,-0.044248402,-0.12189262,-0.055340413,-0.507801,-0.10722803,-0.052077349,0.052916314,0.6167506,0.028396387,-0.074012868,-0.039793584,-0.11891463,-0.11643171,-0.12023532,-0.03789511,-0.057372022,-0.25678658,-0.11532586,-0.30433059,0.19261511,-0.10960247,0.26302165,-0.051025342,-0.10963514,-0.10779353,-0.043897077,-0.081673563,-0.87687147,-0.057042204,-0.036688287,-0.028287666,-0.10564712,-0.10351801,-0.21516176,-0.089792579,-0.050769899,-0.037863135,-0.062992699,-0.11564955,-0.034172986,-0.029158611,-0.065640718,-0.092600815,-0.086821049,-0.085065775,-0.03204729,-0.11068016,-0.06706737,-0.076159693,-0.061788313,-0.12162009,-0.063532524,-0.063578248,-0.055162646,-0.082914017,-0.055289153,-0.054357529,-0.082437098,-0.056404538,-0.21774681,0.61124307,-0.031588033,-0.054165654,-0.039224841,-0.065899514,-0.072866037,-0.043838445,-0.11965033,-0.038495976,0.2666578,-0.20574616,-0.067871615,-0.040605985,-0.074526004,-0.033081621,-0.11545289,0.51157349,-0.10283216,-0.06509234,-0.092683554,-0.24624763,0.055492945,0.065882333,-0.049109388,-0.11312976,-0.078152351,-0.10612011,-0.11715232,-0.063363984,-0.038648281,-0.030215506,0.077441409,-0.17327639,-0.12011306,-0.075076133,-0.05275324,-0.080571905,-0.10018729,-0.068837278,0.19542482,-0.10305335,-0.10890943,-0.088620909,-0.099005379,-0.095034003,-0.11922862,0.85984713,-0.053363625,-0.10091105,-0.078051552,-0.060454477,0.30361035,-0.08048407,-0.093433693,-0.0697404,-0.060189519,0.7942881,-0.036537886,-0.079462893,-0.09097489,-0.27405792,-0.084706441,-0.95089662,-0.10542269,-0.10842687,-0.084719248,0.47063646,-0.081209771,0.47161758,-0.041125089,-0.11436293,-0.044849548,-0.073171519,-0.056300011,-0.05078464,-0.053050239,-0.099535301,-0.083639637,-0.074383244,-0.066891067,-0.051424827,-0.058962621,-0.058059711,-0.096866883,-0.04943921,-0.043149441,-0.066387393,-0.050334767,-0.048966486,-0.10444227,-0.0874172,-0.045596845,-0.052108176,-0.056885671,-0.08908239,-0.060469326,-0.33740956,-0.080374815,0.45438156,-0.091008447,-0.084808059,-0.11448571,0.12112518,-0.2371453,-0.15965855,-0.057645921,-0.73039275,-0.29735717,-0.10717469,-0.03692684,-0.051080462,0.24113373,-0.10805607,-0.065159358,-0.11377441,-0.094635315,-0.1184089,-0.10919528,-0.09079805,-0.073599756,-0.088829465,0.36447209,-0.047321267,-0.46840981,-0.047339026,-0.061618004,0.27206698,-0.12057967,-0.051502246,-0.068861872,-0.059837297,-0.10831214,0.45470679,-0.055414431,-0.10957866,-0.093006797,0.47254264,-0.22553632,-0.080210567,-0.11458071,-0.073981673,-0.29028675,-0.14993376,-0.079486281,-0.062221643,-0.080700971,0.81154931,-0.12198278,-0.65148664,-0.85599273,-0.090335876,-0.10526746,-0.10166947,-0.052269146,-0.039666314,-0.033720709,0.015242651,-0.078203544,0.15638319,-0.34828988,-0.70929897,0.40493786,-0.11002711,0.85008395,-0.090124361,-0.081044406,-0.039880969,0.22391932,-0.023219924,-0.09023501,-0.11375616,-0.069376796,-0.032031722,-0.8081848,-0.05555331,-0.060817573,0.77734572,-0.08925534,-0.10975358,-0.044931129,-0.076416187,-0.036264192,-0.11797214,-0.047382656,-0.10493937,-0.079538897,-0.038881987,-0.11880189,-0.097553104,-0.072363757,-0.066433378,-0.065145761,-0.047131866,-0.091822669,-0.097107351,-0.054763548,-0.043072071,-0.058124963,0.68773818,-0.029463073,-0.073904395,0.089142323,-0.11941494,-0.070034355,-0.10292633,-0.06624344,-0.07571502,-0.13052391,-0.20731123,-0.072103687,-0.087654449,-0.040725566,-0.050788071,-0.066164859,-0.11987355,-0.033863533,-0.056885563,-0.11441269,-0.11262387,-0.10442527,-0.11431827,-0.37738526,-0.12406052,-0.054420758,-0.1239302,-0.098091155,-1.0867752,-0.080313735,-0.059404515,-0.17153208,0.38074359,-0.03451097,-0.10452525,-0.071701556,-0.056981485,-0.084972031,0.46234927,-0.080117673,-0.068438813,-0.094523311,-0.060676724,-0.64632022,-0.078113712,-0.071842588,-0.037208933,-0.078727245,-0.052205905,0.16890134,-0.080041222,-0.11387489,-0.06387303,-0.040316634,0.58193457,-0.075865746,-0.094391309,-0.09465567,-0.44182098,-0.12412913,0.60501003,-0.10117026,-0.047336943,-0.10345804,0.20763442,-0.093932867,-0.03161364,-0.062174741,0.33507958,-0.10963452,-0.05974555,-0.10017335,-0.11041339,0.38511014,-0.066198274,-0.045368806,-0.074382275,-0.032327201,-0.097083509,-0.11625351,-0.039829206,-0.078474745,-0.082103051,-0.0640091,-0.097662024,-0.11232462,-0.078573167,-0.091785669,-0.10133491,-0.051481433,-0.051383972,-0.069161557,-0.043072432,-0.052827328,-0.10917997,-0.058134172,-0.11963749,-0.099359944,-0.12892473,-0.11168301,-0.056589145,-0.29038692,-0.10131538,-0.044305243,0.68094498,0.13954192,-0.11169768,-0.055832807,-0.063390963,-0.44783151,-0.060477767,-0.042012617,0.30567974,-0.085617714,-0.070592336,-0.086025119,0.88641119,-0.07690493,-0.51360232,-0.066417001,0.35288677,-0.093009271,-0.10174937,-0.10265734,0.43626171,-0.10369502,-0.10768027,-0.10411526,-0.049165219,-0.073006004,0.55664116,0.97498697,0.57629687,-0.054508019,-0.10395277,-0.079624124,-0.076227278,-0.050875559,-0.098112285,-0.080017269,-0.039798602,-0.052741293,-0.072891951,-0.060379729,0.34579822,-0.5042215,-0.10979901,-0.08555299,-0.099552795,0.51678538,-0.12040339,-0.075821668,-0.10162463,0.43637642,-0.10356885,-0.093560494,-0.08772032,-0.054563593,-0.041267861,-0.0626368,-0.089513175,-0.10698427,0.35111395,-0.048552379,0.29399762,-0.063592829,-0.036460869,-0.050856274,-0.35141563,-0.066183276,-0.10433407,-0.87353611,-0.081865899,-0.036680602,-0.044234425,-0.11079393,-0.06110929,-0.090812236,-0.08908651,-0.044403668,-0.1013119,-0.074208371,-0.11290049,-0.072153658,-0.064864278,-0.11769911,-0.071749106,-0.064810045,-0.11406446,-0.085334286,-0.09829849,-0.026587388,-0.11100531,-0.061031103,-0.068566158,-0.10957848,-0.10313927,-0.11313488,-0.4091267,0.28522667,-0.20680261,-0.013469676,-0.033840325,0.17754637,-0.60944557,-0.061581187,-0.10249206,-0.079874128,0.76803005,-0.094801962,-0.091201149,0.11355318,-0.07402987,0.035937078,-0.06522686,-0.084480308,-0.075648345,-0.10415982,-0.22101825,-0.045856807,-0.48182875,-0.059918948,-0.081668563,0.88339514,-0.61844468,-0.10734157,-0.10833003,-0.049691763,-0.1001329,-0.010885577,-0.038073152,-0.3722747,-0.052189793,0.80078149,-0.057571031,-0.11153401,-0.12254496,-0.099182278,-0.1076719,-0.080475807,0.87683588,-0.070636928,-0.12392555,-0.043747365,-0.28521818,-0.11156256,-0.11861224,-0.11879478,0.14827652,-0.028914092,-0.074267879,-0.045766506,-0.040816706,-0.60758704,-0.040878233,-0.54360288,-0.047332641,-0.11413021,-0.042006712,-0.087070033,-0.096831061,-0.11296821,-0.28018847,-0.072646402,0.087155044,-0.10597283,-0.074239261,-0.044506654,-0.082170621,-0.040048432,-0.072628267,-1.0400159,-0.080533862,-0.08703091,-0.035364769,-0.040991839,-0.07315097,-0.087010205,-0.056167942,-0.75064415,-0.038212303,-0.072346985,-0.11763457,-0.092935197,-0.095012993,-0.083288938,0.18426552,0.046322431,-0.13968898,-0.6562866,-0.091028653,-0.14828201,-0.14731364,-0.11955434,-0.11094596,-0.16725959,0.28963107,0.19732487,-0.13521007,-0.16392134,-0.10387027,-0.62617314,-0.16496311,-0.11594213,-0.16596653,-0.087869436,0.30088136,-0.13546646,-0.13678831,-0.15683222,0.39319283,-0.73253971,-0.085910417,-0.10781607,-0.13954672,-0.15481523,0.4825131,-0.099071704,-0.14463888,-0.16983165,-0.1478354,-0.72754252,-0.15617356,-0.15302579,-1.3443155,-0.14798425,-0.0019635262,-0.095080428,-0.11991155,-0.67418629,0.37266773,-0.097386777,0.023326645,-0.19139442,-0.81479293,-0.098087505,0.24619643,-0.13815984,-0.099293999,-0.15111804,-0.078970313,-0.090062901,-0.16055869,-0.25448421,-0.14899355,-0.12341533,0.15240207,0.69233239,-0.075193077,-0.14139619,-0.09653575,-0.17217052,0.037588015,-0.067013271,-0.10356081,-0.078540407,-0.077479489,-0.14675108,-0.14229816,-0.10548007,-0.13486801,-0.15476516,-0.15393491,-0.10541094,-0.13380396,-0.080818661,-0.11729076,-0.0849998,-0.14943101,-0.08502347,-0.11869296,-0.17253195,-0.09682209,-0.081320375,-0.11273927,-0.13130136,-0.16737917,-0.16122927,-0.11452056,-0.10171111,-0.13688534,-0.13596801,-0.13710836,-0.14774655,-0.12984212,-0.11534933,-0.082162149,-0.71520901,-0.71248823,0.688986,-0.099587962,-0.097183548,-0.16997789,-0.12469833,-1.2553715,-0.15752782,-0.10239567,-1.0219599,-0.1816469,-0.15176168,-0.14678238,-0.073822148,-0.15200117,-0.16829069,-0.20191611,-0.15867437,0.60770297,-0.11888047,-0.38643885,-0.08661627,-0.84733754,-0.17501824,-0.086281285,-0.15073663,-0.13819201,-0.16660711,-0.11566695,-0.1486143,-0.14014369,-0.12485146,-0.13533258,-0.098905191,-0.72616416,-0.12302998,-0.12848981,-0.16712929,-0.11689504,-0.095452875,-0.11132476,0.076669253,-0.19546737,-0.24582805,-0.15400225,-0.10691866,-0.077496089,-0.1500777,-0.065222219,-0.21048397,-0.10738817,-0.14577325,-0.15777944,-0.16538121,-0.12421969,-0.12021392,-0.10900985,-0.11354717,-0.17638391,-0.36888131,-0.095353089,-0.71252519,-0.13658272,-0.10217483,-0.12002134,-0.25234762,-0.10965689,-0.067718722,-0.78226656,-0.15467624,-0.76056755,0.10311013,-0.57310504,-0.11747788,-0.074664876,-0.12619546,-0.12682877,-0.10379216,-0.16921452,-0.10939245,-0.11286494,-0.14198415,-0.13151869,-0.095237315,-0.10442913,-0.098415367,-0.15452568,-0.1678037,-0.089783952,-0.10755777,-0.080884576,-0.15338436,-0.15521865,-0.091552459,-0.17600843,-0.098140009,-0.17308678,-0.12290052,0.32185501,-0.12409995,0.56016296,0.73004293,0.42600608,-0.17562424,0.97850901,-0.14237046,-0.74046224,-0.15973321,-0.46346387,-0.31980386,0.97102481,-0.1297181,-0.089182347,-0.098816007,-0.16326502,-1.2085695,-0.14960714,-0.094606943,-0.12836769,-0.087007627,-0.95351356,-0.33665234,-0.14702536,-0.13580604,-0.092676349,-0.10976995,-0.092107244,-0.12324605,-0.82920378,-0.10869414,-0.097163551,-0.72711891,-0.078714401,-0.17364752,-0.13542463,-0.14031252,-0.15019445,-0.15360716,0.4812035,-0.081825659,-0.085573241,0.82957596,-0.77558887,-0.1099816,-0.17206821,-0.53426975,-0.15133272,-0.142763,0.36989138,-0.67594481,0.25864908,-0.16886818,-0.095150463,-0.66214293,-0.13367197,-0.12086025,-0.14487393,-0.15291116,0.30507445,-0.081219338,0.79681128,-0.22230875,-0.074782573,0.11932904,-0.13282603,-0.08872997,-0.074315004,-0.088652194,-0.076975457,-0.063602455,-0.099557884,-0.1834932,-0.12970519,-0.12351035,-0.075301304,-0.46914732,-0.12230436,-0.14181192,-0.15374035,-0.13872036,-0.12264471,-0.081808239,-0.13034779,-0.13732851,-0.09837763,-0.17247891,-0.139805,-0.077228308,-0.15468363,-0.17154156,-0.081911966,-0.11264013,-0.14305368,-0.1160109,-0.084603488,-0.16983524,-0.14972183,-0.15819566,-0.13976999,-0.091056369,-0.15906611,-1.3035134,-0.46087483,-0.11362847,-0.084496304,-0.11655931,-0.11373368,-0.16286799,-0.85485607,-0.15508461,-0.10534807,0.18665157,0.32093084,-0.083182581,-0.079927474,-0.10090858,-0.12430229,-0.16895932,-0.9666307,-0.12657829,-0.06693092,-0.16206349,-0.40652254,0.74230373,0.82848287,-0.17353326,-0.12610961,-0.080386952,-0.16367881,-0.12204898,-0.0883964,-0.15310119,-0.15153788,-0.55310637,-0.14062558,-0.099081397,-0.096806012,-0.084672935,-0.1133131,-0.16060664,-0.11890744,-0.22054859,-0.072534494,-0.11355792,-0.12165903,-0.11091138,-0.11187775,-0.13746886,-0.030310834,-0.078166969,-0.13764991,-0.1119976,-0.085530236,-0.35662845,-0.098278999,-0.099474922,-0.090961322,-0.1033145,0.23740733,-0.15624614,-0.13324678,-0.11237767,-0.55433768,-0.075829402,0.73382604,-0.14506508,-0.17520294,-0.099497661,0.22985172,-0.11430458,-0.45717156,-0.12459654,-0.16607153,-0.095162936,-0.075698592,-0.14175186,-0.12328485,-0.14199971,-0.097713657,-0.14467156,-0.087011188,-0.1323096,-0.12297776,-0.082335562,-0.12138376,-0.13690014,-0.18561555,-0.16182929,-0.13895215,-0.15378654,-0.071905702,-0.079178773,-0.10721235,-0.10177151,-0.10845976,-0.1264098,-0.11965007,-0.16395196,1.4093182,-0.10874774,-0.19274284,-0.13195473,-0.089766838,-0.13591675,-0.89635479,-0.47162923,0.59391505,-0.11379665,-0.46782213,-0.26226628,-0.12363198,-0.10167416,-0.16986814,0.064756788,-0.17926005,-0.10124037,-0.17344998,-0.14912248,0.33430296,-0.11881806,-0.16170424,-0.095293507,-0.16770162,0.334409,-0.15911713,-0.67250293,-0.17125534,-0.089458026,-0.3919138,-0.94069636,-0.071205333,-0.083853781,-0.13341928,-0.13191113,0.49183309,-0.12335443,-0.1614743,-0.097069204,0.33991861,0.29073077,-0.12941283,-0.093746245,-0.15945993,0.15797326,-0.68159145,-0.10631411,-0.13001153,-0.15987609,0.29810479,-0.12247353,0.85333675,1.0438333,-0.15804414,-0.12677805,-0.1764368,-0.12225831,-0.12964821,-0.14500049,-0.15940636,-0.11515645,-0.22164184,0.90567869,0.90455252,-0.7210573,-0.16090778,0.091658756,-0.10300397,-0.13161707,-0.11664491,-0.77345634,-0.15984595,-0.096399024,-0.14466819,-0.12900598,-0.12735547,0.49387366,-0.080353007,-0.11688992,-0.65404642,-0.1424755,-0.10565378,-0.10232555,-0.098223664,-0.1421417,-0.093746789,-0.11253861,-0.071681201,-0.16495194,-0.13206865,-0.097711757,-0.17862348,-0.16634618,-0.095139958,-0.13279603,-0.1658027,-0.091472059,-0.081643328,-0.19008657,-0.10189081,-0.14766464,-0.63279927,-0.15145728,-0.098655082,-0.57491273,-0.17688766,-0.099917866,-0.10847813,-0.11070848,-0.080073841,-0.13076261,-0.050624561,-0.091816716,-0.11125555,-0.10980283,-0.12732774,-0.14792295,-0.094298556,-0.091181032,-0.095734045,-0.14776093,-0.095147878,-0.11246478,-0.09852086,0.21561082,-0.085277095,-0.065479368,-0.1521862,-0.10028291,0.42150688,-0.070096269,-0.14917403,0.47742385,0.57262379,-0.1578164,-0.12718554,-0.16572727,-0.13609925,-0.15925437,-0.22753532,-0.15960404,-0.15683475,-0.16245206,-0.14509563,0.7265206,-0.078107551,-0.16686282,-0.11078265,-0.11374419,-0.098110609,0.59661019,-0.10302738,-0.11817349,-0.11877554,-0.15587962,-1.1932956,-0.12716478,-0.10095484,-0.084283486,0.52730244,-0.085596502,-0.43642285,-0.10092256,-0.076385975,-0.13699006,-0.26356974,-0.11828512,-0.12609684,-0.17158002,0.16499481,-0.066211954,-0.14351773,-0.099274091,-0.10296598,-1.0364009,-0.066921458,-0.14536187,-0.11292444,-0.13921687,-0.097888224,-0.10153163,-0.087920167,-0.1134447,-0.16856323,-0.13007358,-0.12923886,-0.1291717,-0.086048551,-0.084183738,-0.15241982,-0.1410937,-0.15726829,-0.13645858,-0.073479094,-0.12443794,-0.081803523,-0.1210856,-0.14450969,-0.14554842,-0.1743906,-0.14377376,-0.17368437,1.3447175,-0.13881043,-0.16215768,0.44806781,1.0547862,-0.97902369,-0.13051225,-0.084147237,-0.39085039,-0.089190625,-0.17258435,0.044653788,-0.12804016,-0.10854654,-0.61498547,-0.84680814,-0.14460476,-0.26175904,-0.13096909,0.64680648,-0.1703077,-0.1460242,-0.16224223,-0.26233056,-0.15612216,-0.10580621,-0.12082016,-0.16433662,-0.11701896,0.16958208,-0.87857693,-0.88932437,-0.14925417,-0.15629694,-0.12219516,-0.066412956,-0.076460965,-0.14229549,-0.15192232,-0.13032015,-0.13434651,-0.099456698,-0.11432311,0.24630876,-0.80730909,-0.13888319,-0.1564019,-0.17392108,0.62595731,-0.13786498,-0.13988547,-0.14318986,0.30409092,-0.11750613,-0.094530776,-0.15159647,-0.10383196,-0.10551248,-0.072912194,-0.1312775,-0.090903491,0.41656381,-0.13708195,-0.51383835,-0.11309855,-0.09903124,-0.13648894,0.1675936,-0.085607335,-0.10191578,0.25021687,-0.1476389,-0.13905808,-0.1367685,-0.096797459,-0.1765092,-0.074944369,-0.10072359,-0.15664911,-0.097529203,-0.11970732,-0.12593217,-0.092039876,-0.1282419,-0.084051125,-0.11489301,-0.11857652,-0.15803936,-0.18247257,-0.14183262,-0.11124116,-0.082257167,-0.1668475,-0.15699191,-0.17863289,-0.10057402,-0.080005966,-0.58970469,-0.61380142,-0.48188397,-0.65548927,-0.093150228,0.22826788,0.090809122,-0.1421793,-0.079782732,-0.16835125,-0.82507724,-0.16618307,-0.10584386,-1.0988935,-0.09704487,-0.64074147,-0.098020665,-0.154892,-0.16165385,-0.16968919,0.59695536,-0.1111415,0.29375401,-0.095203318,-0.14610258,0.42805609,0.021532798,-0.098966531,-0.13004467,-0.14299053,-0.13164166,-0.34442669,-0.10172089,-0.286879,-0.16674781,-0.15112931,-0.10196363,-0.14517051,-0.096112408,-0.1322078,-0.1293993,-0.077531055,-0.0020497837,-0.13037294,-0.090465114,-0.14577997,0.54114443,-0.14198908,-0.11874806,-0.12187979,-0.034219578,-0.12729342,-0.13628159,-0.099899538,-0.10924301,-0.53038859,-0.15618813,-0.79388005,-0.15876192,-0.084290802,-0.13713275,-0.085737884,-0.1684352,-0.15678795,0.020185299,-0.10879672,-0.98941559,-0.12187754,-0.17029074,-0.1008412,-0.15062879,-0.1085104,-0.16450574,-0.47418213,-0.15750077,-0.12288852,-0.10209303,-0.15091711,-0.090908185,-0.17449446,-0.14035736,-0.57580709,-0.071631573,-0.11921439,-0.089918435,-0.16171403,-0.12897597,-0.12980117,-0.66436684,-0.79645473,0.13871405,0.14479464,0.082303993,0.103664,0.12438001,0.11706918,0.10449876,0.10067656,-0.25396279,0.58760244,0.12606949,0.12493919,0.15591395,0.69608879,0.12900735,0.090000585,0.15346254,0.10883082,0.21762544,0.11257546,0.080412239,0.17204677,1.3246063,-0.21706253,0.10364252,0.098732509,0.13465522,0.12471897,0.063273557,0.12421209,0.11888649,0.13076168,0.15069464,-0.52322501,0.14561814,0.12714876,0.65293741,0.11367209,-0.20900168,0.14494269,0.5991357,-0.46951753,0.58225262,0.11133597,-0.12958249,0.61593026,0.15691279,0.099070877,0.56741846,0.14767249,0.49897346,0.12506272,0.085293986,0.14771891,0.14256704,0.51711285,0.14400937,0.1456334,0.44309393,0.48562521,0.0903183,0.10727712,0.15920857,0.13475356,0.36201814,0.10806581,0.10711209,0.15449928,0.13444151,0.13985872,0.10607181,0.09557607,0.13814652,0.15963651,0.090958878,0.11876731,0.078572311,0.16289793,0.15998861,0.10816982,0.10799434,0.077066451,0.13887902,0.10627921,0.12303155,0.14966539,0.14254698,0.12951578,0.15854394,0.11212036,0.12491135,0.13531238,0.10165451,0.13540922,0.15559433,0.10659773,0.093518592,0.094379745,0.098224357,0.56166649,0.20911987,0.036118701,0.76867527,0.075737283,0.15546285,0.085234895,0.13248341,0.11508006,0.10624304,0.52234107,0.15710962,0.15973327,0.10060118,0.097834975,0.13353667,0.1508179,0.15753432,0.10227138,-0.42055896,0.097339869,-0.26049113,0.14904384,0.38351452,0.098835371,0.13313559,0.15936556,0.084928058,0.090020157,0.15881681,0.12371724,0.15331337,0.072045505,0.12667681,0.089290529,-0.16947682,0.10691414,0.094343856,0.16450807,0.16321687,0.093435004,0.79976672,-0.47944537,0.12264968,0.76714045,0.13041356,0.10435396,0.097264417,0.14722267,0.55916941,-0.097787194,0.12763885,0.079529919,0.14000839,0.1583375,0.13241579,0.1159413,0.077051394,0.14342694,0.11616903,-0.8124916,0.12197902,0.71246147,0.14562616,0.13672084,0.15243614,-0.58995301,0.092859879,0.095344111,0.49252462,0.13399683,0.50030035,0.46706408,-0.40109795,0.094836526,0.10938466,0.13858224,0.087263145,0.15260987,0.134106,0.12450522,0.072926432,0.10767333,0.086115278,0.16001347,0.094871409,0.085330099,0.11271193,0.09549699,0.08429607,0.10627726,0.1388528,0.085541449,0.12027369,0.16911468,0.1522679,0.077996567,0.11969776,0.1211391,-0.30968285,0.07387457,0.6154682,-0.045827251,-0.65485328,0.27715528,0.47794268,0.097907946,-0.50460148,0.14072497,0.5412752,0.78965658,0.010906993,0.14794576,0.15955928,0.089042418,0.10371812,0.83707559,0.13484204,0.12852362,0.14146677,0.12580068,-0.64843595,0.38878953,0.15006,0.097959414,0.14156622,0.14555471,0.13564979,0.079939015,-0.41473624,0.124137,0.11987727,0.034015551,0.14264432,0.11959384,0.12817883,0.13579342,0.15496595,0.10071079,0.045441903,0.14293261,0.12979756,-0.78977978,-0.45301208,0.087636486,0.13565494,0.42368716,0.15460519,0.1439878,-0.7811206,-0.80311453,-0.28224266,0.13709939,0.15356599,0.3543855,0.075446099,0.072409689,0.16757552,0.10654134,0.62673914,0.12105829,0.3111276,-0.76795673,0.089830637,0.17497315,0.13593097,0.087906711,0.15683673,0.079543076,0.11057708,0.20162489,0.16506332,0.16258869,0.082061887,0.14400268,0.10095701,0.79305977,0.11125164,0.15428548,0.13936882,0.12995522,0.087749697,0.11857399,0.16002563,0.11735262,0.10558682,0.087796189,0.10831224,0.15174545,0.10054314,0.14991228,0.14958411,0.13560073,0.08262828,0.12251045,0.12636821,0.16418773,0.10704922,0.10248383,0.12159784,0.089737102,0.12700239,-0.10394906,0.20600827,0.11215035,0.12534508,0.085844964,0.15542224,0.15833914,0.33315286,0.078213438,0.081639417,-0.14590409,0.7338233,0.12850392,0.089014024,0.1324005,0.089866571,0.14477918,-0.55589437,0.17116572,0.10876548,0.14171736,-0.085721165,-0.28938726,-0.18138373,0.1402134,0.12405338,0.10174937,0.10999926,0.11072613,0.082670882,0.084192216,0.12245379,0.32560676,1.3298023,0.088548742,0.13333225,0.12456834,0.13269255,0.09061005,0.13302781,0.77479208,0.09369196,0.13228928,0.14027499,0.1459945,0.15702049,0.11785571,-0.094040982,0.13480712,0.12824719,0.12731941,0.14631154,0.56481212,0.087171555,0.13576138,0.10391862,0.094030865,-0.56257725,0.10660222,0.12887654,0.13628805,-0.37916419,0.095682018,0.51979959,0.084809393,0.16629466,0.072611094,-0.069324054,0.10312759,0.42626899,0.1085912,0.088373624,0.11815656,0.15570712,0.12691104,0.12678547,0.12486844,0.094434112,0.16086008,0.098249912,0.16806835,0.13117138,0.13569562,0.0944262,0.09955392,0.14899221,0.13653025,0.091099091,0.099196829,0.12779187,0.10758503,0.080710791,0.094908461,0.1126844,0.16671601,0.10464934,0.14505391,0.36523372,0.1480469,0.55660313,0.15432812,0.15895729,0.16341753,-0.055784844,0.69035035,-0.69263053,0.13179144,-0.8871091,-0.5691117,0.09246584,0.10763017,0.1715935,-0.089965664,0.16700286,0.11763719,0.12020107,0.11223106,-0.46760607,0.092320479,0.15089604,0.11610349,0.085018724,-0.34947297,0.11983208,0.55091643,0.097510591,0.092453428,0.74214727,-0.20813541,0.075639464,0.10386904,0.14299446,0.15773955,-0.35130346,0.1681076,0.14805004,0.15287718,-0.4968611,0.21178851,0.1492341,0.12814838,0.12214446,-0.73888922,1.0047481,0.11683479,0.14913847,0.098415285,0.11029553,0.16399872,-1.0528738,0.23065056,0.1406983,0.098354056,0.16685162,0.15816012,0.16060889,0.15214565,0.72395313,0.11220778,0.63110846,0.90487909,-0.3291066,-0.3672637,0.16593803,-0.52847868,0.1119447,0.13861753,0.13329494,-0.26795074,0.10097822,0.14464244,0.12992229,0.081008025,0.11674319,0.51340353,0.098985195,0.13013886,-0.47156331,0.1587147,0.10736947,0.13240507,0.14560695,0.068895482,0.16043785,0.14622687,0.10847399,0.13292098,0.1333212,0.098946504,0.14151563,0.16451509,0.16158411,0.090722911,0.1062839,0.15601456,0.12527686,0.13119106,0.097720459,0.16398478,-0.30209184,0.098651074,0.082163155,-0.6947366,0.158582,0.16803861,0.086855665,0.14183958,0.077359803,0.13612765,0.2447623,0.12954745,0.10564883,0.09538576,0.10191165,0.14173108,0.10838999,0.12741406,0.16125275,0.13272712,0.15019909,0.14296226,0.14044219,-0.34321067,0.14798518,0.13155477,0.16525334,0.093819827,-0.81581587,0.12163286,0.091752894,0.071998477,0.2059857,0.1119993,0.11146789,0.14298646,0.15350473,0.08825063,-0.50507712,0.1628774,0.097827889,0.097496398,0.13620414,-0.15087128,0.13251232,0.092962287,0.15958038,0.10527688,0.12454755,0.98278493,0.09717112,0.10353474,0.11624545,0.065545924,0.05863177,0.11113457,0.11751586,0.12869379,0.035100989,0.14860687,-0.45347643,0.084174871,0.071241133,0.1208913,0.76903051,0.091710187,0.11166116,0.15102826,0.11160944,0.089692831,0.094958708,0.1293987,0.10397559,-0.42139706,0.076045804,0.10919867,0.1558917,0.13329557,0.11091702,0.15676139,0.12850437,0.14947543,0.13156971,0.16874172,0.16472308,0.14842699,0.17329487,0.10039468,0.17815459,0.14070493,0.12454537,0.14636764,0.081473507,0.15480851,0.14363818,0.13435042,0.13528062,0.11307217,0.070251584,0.14468127,0.15636839,-0.25844827,0.11820572,0.12721837,-0.44500488,1.0972115,0.40067542,0.16324836,0.1159172,0.29532233,0.099737674,0.15805919,-0.41576025,0.099903695,0.11263883,-0.55977666,-0.80737329,0.16028015,-0.8414318,0.11520408,0.078339309,0.15263787,0.13015507,0.1141577,0.5494104,0.11804602,0.11768882,0.15949592,0.14507143,0.11916485,-0.038218942,0.079313025,-0.1390713,0.12883584,0.12709153,0.14772496,0.074974269,0.088438384,0.11479283,0.13423018,0.10132136,0.12046745,0.12148792,0.11252438,0.9296959,-0.38063568,0.078268349,0.1635699,0.11076628,-0.43063334,0.10286199,0.15733129,0.10623661,-0.565521,0.11685558,0.15619917,0.15004925,0.10575665,0.09912052,0.085879713,0.10069028,0.11930253,-0.42922586,0.15990613,0.70757526,0.108711,0.14938453,0.14504069,0.90954387,0.090396583,0.13569918,0.30114526,0.12830476,0.13433339,0.11527775,0.10575671,0.13169622,0.094951309,0.13283445,0.16644512,0.1042675,0.11969121,0.14520539,0.076240316,0.075364806,0.13851042,0.14172524,0.13100865,0.1335876,0.12395028,0.091192387,0.09707699,0.14483434,0.074836984,0.086193912,0.15019433,0.082204692,0.14997348,0.55503708,-0.5601238,0.45577788,-1.1082599,0.14197919,1.3390406,-0.85154802,0.14472297,0.14544503,0.15275626,-0.5277608,0.16051342,0.13927545,0.42654705,0.16331966,-0.69819558,0.074320421,0.10268382,0.084896065,0.14544128,-0.23038554,0.07859122,-0.32531148,0.10416369,0.13337408,-0.48106042,0.64999741,0.07780645,0.14102294,0.09224949,0.12044048,-0.96103776,0.13457589,-0.64734238,0.11902022,-0.28899094,0.074392036,0.10874929,0.14228171,0.079198018,0.12926911,0.1074883,0.58194906,0.1184289,0.10156349,0.11408488,-0.77090669,0.14927898,0.086779542,0.12585735,0.14937611,0.16515455,0.12636597,0.11811061,0.11691765,0.63983756,0.14700735,0.21175976,0.10717259,0.16029614,0.12042391,0.10309049,0.10518045,0.16269924,0.52541894,0.14672591,-0.29947004,0.12193213,0.15281069,0.10077844,0.13619275,0.089776263,0.078040272,-0.31621164,0.15203904,0.12566738,0.14904472,0.077839032,0.14772385,0.14139825,0.094939068,0.25475615,0.15910138,0.10628078,0.081704438,0.11172183,0.093338929,0.090473458,0.8912884,-0.6791988,-0.10079091,0.35738546,-0.079897963,-0.049546693,-0.10222446,-0.04924776,-0.13148658,-0.12349755,0.41345456,0.64833921,-0.10755909,-0.13788682,-0.052703846,-0.81039858,-0.10322304,-0.056074854,-0.057501346,-0.045203671,-0.46836936,-0.074843042,-0.1272413,-0.07799466,-0.43739513,0.62980348,-0.074738428,-0.072899304,-0.073156178,-0.059365656,0.24814841,-0.11119516,-0.14282583,-0.1009804,-0.09368936,0.1455479,-0.068734266,-0.058966219,-0.62597358,-0.10357138,0.13033466,-0.061429765,-0.54567486,0.99897975,-0.22261444,-0.13117759,0.68481427,-0.35941646,-0.53678352,-0.088103876,-1.0706302,-0.056239996,0.31007591,-0.14305979,-0.062043574,-0.056369543,-0.050758868,0.25705981,-0.064750873,-0.10355386,-0.58026236,-0.53876644,-0.13028665,-0.063692063,-0.04511046,-0.085359126,-0.65855128,-0.062013473,-0.071387038,-0.11178005,-0.071849555,-0.10672003,-0.12443675,-0.084320731,-0.11978619,-0.053504989,-0.092008762,-0.13750955,-0.12782262,-0.051668245,-0.11153756,-0.065067023,-0.11209598,-0.10368861,-0.11567454,-0.07375703,-0.040704463,-0.1116328,-0.088864535,-0.057299353,-0.10749722,-0.09482035,-0.055047169,-0.097499833,-0.12413077,-0.093750253,-0.11779077,-0.11236408,-0.1125439,-0.071621306,-0.11648491,1.265435,1.0164189,0.015407271,-0.55332041,-0.12302855,-0.098035634,-0.059254568,-0.75465351,-0.088808164,-0.061179299,-0.39682406,-0.13021471,-0.088423237,-0.049584903,-0.073050492,-0.069380261,-0.09209878,-0.084250227,-0.10185517,-0.12593198,-0.099065602,-0.27866077,-0.080219634,-0.7848745,-0.11923076,-0.10774589,-0.083356462,-0.11331188,-0.070979513,-0.12811285,-0.095194526,-0.072225161,-0.068550028,-0.090747878,-0.12512279,-0.37732449,-0.12284812,-0.05662654,-0.04248298,-0.079759233,-0.0589724,-0.27235737,-0.7479195,-0.1351102,-0.40901071,-0.12579741,-0.10353006,-0.072871551,-0.046000905,1.2382332,0.90630108,-0.04643444,-0.059227932,-0.054912772,-0.064725243,-0.093288355,-0.090372734,-0.12520835,-0.10212133,-0.090185575,0.3018133,-0.10445964,-0.3891651,-0.095710263,-0.10965891,-0.10704243,0.58554924,-0.082405858,-0.052576941,-0.18330579,-0.099306621,0.7889244,-0.81004781,0.82940519,-0.086277291,-0.050949026,-0.068550847,-0.076883547,-0.074976966,-0.11614083,-0.11396898,-0.093160979,-0.13562931,-0.13814324,-0.077716112,-0.047423266,-0.10416982,-0.080621898,-0.12520909,-0.091679528,-0.090765275,-0.080685757,-0.06782347,-0.073647335,-0.052176468,-0.094137937,-0.12058082,-0.082948007,-0.088697039,-0.5373466,-0.081637576,0.053500127,0.773444,-1.0528755,-0.65058559,-0.42595759,-0.072291672,0.50846463,-0.074134827,-1.1266788,0.95137936,0.14687194,-0.054504264,-0.086647086,-0.1228044,-0.11557065,-0.97879708,-0.075484961,-0.069132216,-0.11231196,-0.10549999,0.46964902,-0.026239706,-0.077782452,-0.12237909,-0.098349266,-0.13495569,-0.091945238,-0.13724127,-0.68808019,-0.074026696,-0.089854784,-0.23672663,-0.1210067,-0.086160094,-0.11631921,-0.077033654,-0.11077826,-0.080893993,0.9483245,-0.090826936,-0.1320349,-1.0925058,-0.83077419,-0.10559378,-0.053178985,0.69111347,-0.079987437,-0.12049337,-0.029688442,-0.0174696,-0.48268303,-0.11838303,-0.069442108,0.51943004,-0.12794651,-0.077585429,-0.10268821,-0.067692488,-0.95469111,-0.066973776,1.4584289,-0.80056649,-0.095255211,0.80398774,-0.06310311,-0.070429847,-0.11999098,-0.091976672,-0.062489595,-0.30288929,-0.092154093,-0.12476892,-0.053137813,-0.060893163,-0.10142159,-0.46979672,-0.064044058,-0.063379057,-0.049390092,-0.12493283,-0.13905869,-0.1194388,-0.051886395,-0.065735042,-0.090241782,-0.13002534,-0.12999636,-0.08026316,-0.091014311,-0.081021085,-0.078303821,-0.076092795,-0.070176899,-0.11364124,-0.072343141,-0.091777332,-0.11679111,-0.11920282,-0.069591947,-0.068538658,-0.087538235,-0.76550448,-0.18140048,-0.080196157,-0.045896325,-0.075556919,-0.067863293,-0.098681018,0.12664017,-0.098997921,-0.12072494,0.54767883,-0.068243273,-0.074306607,-0.13123748,-0.062932022,-0.1201455,-0.054826267,0.459106,-0.084654167,-0.069446601,-0.10056075,0.93909013,0.21319298,0.16363451,-0.10924867,-0.1306491,-0.12986736,-0.1313044,-0.098399863,-0.10792456,-0.10071465,-0.13150457,-0.68558282,0.94632006,-0.098500326,-0.04910142,-0.12945648,-0.03451224,-0.087958433,-0.070015959,-0.26914403,-0.069220714,-0.12767981,-0.13517803,-0.079717688,-0.13166374,-0.074826166,-0.71452647,-0.057233829,-0.079981156,-0.050829712,-0.067528754,0.64809698,-0.099406116,-0.080328271,-0.098117329,-0.12319086,-0.0079359105,-0.082581058,-0.060272045,-0.12062392,0.53151888,-0.077638991,0.45043024,-0.12346154,-0.12668273,-0.10064349,1.3806193,-0.068288155,-0.52116948,-0.046238489,-0.06897904,-0.066661492,-0.055498388,-0.097831674,-0.065425254,-0.13016082,-0.044187598,-0.050650626,-0.09101624,-0.087515801,-0.059620216,-0.11390635,-0.10800287,-0.13383833,-0.062445041,-0.04959821,-0.084628455,-0.083957784,-0.080030985,-0.12003358,-0.079913586,-0.08142902,-0.073383108,-0.098228261,-0.046734471,-0.11297753,-0.2520296,-0.099653572,-0.42170608,-0.13045235,-0.1303594,-0.047310427,-0.52928293,-0.091423325,0.39866382,-0.07632073,0.19527654,-0.90366834,-0.088599287,-0.071282782,-0.088067114,0.78836018,-0.061967049,-0.099020988,-0.050746031,-0.13849477,-0.63123834,-0.093125448,-0.10791577,-0.046537306,-0.096946247,-0.34472746,-0.1124891,-0.74765331,-0.082862288,-0.091337882,-0.56087506,-0.45104346,-0.12016375,-0.068489544,-0.084531046,-0.093635924,-1.0621061,-0.076834559,-0.077931799,-0.074758224,0.92023784,-0.23371343,-0.070835702,-0.11327979,-0.038794637,0.68938071,-0.92816931,-0.11855172,-0.11823547,-0.13538618,-0.74563819,-0.042741038,0.27354425,-0.50121307,-0.08105167,-0.12591487,-0.074080318,-0.078103766,-0.12993681,-0.093492009,-0.23442025,-0.08815299,-0.30362296,0.095957249,-0.15306327,0.77370286,-0.094182521,1.4736228,-0.11949664,-0.096635833,-0.082152829,-0.57977164,-0.10711969,-0.045070902,-0.070400015,-0.076423496,-0.13739729,-0.41951707,-0.046112984,-0.120414,-0.71107632,-0.11050691,-0.058019023,-0.074022003,-0.059716754,-0.056654956,-0.12343976,-0.12142622,-0.083316766,-0.11512066,-0.11994586,-0.07516633,-0.11916222,-0.09000323,-0.043896087,-0.078625225,-0.13515475,-0.062659048,-0.057880946,-0.12922946,-0.044817813,-0.086615145,-0.35255054,-0.081585295,-0.09315116,-0.6351164,-0.074413165,-0.11863809,-0.14277989,-0.066653281,-0.10466867,-0.071832016,0.95438582,-0.10476967,-0.10803604,-0.095346071,-0.089234903,-0.088144109,-0.043636799,-0.085936032,-0.064487979,-0.077389315,-0.079743102,-0.099990495,-0.098982461,0.71973807,-0.044096712,-0.082249776,-0.11440331,-0.11471135,-0.58436757,-0.058059305,-0.11645508,1.0227883,0.23718978,-0.10535835,-0.088777959,-0.10336226,-0.084894121,-0.052516669,0.039526366,-0.065922558,-0.095176831,-0.084126927,-0.085624583,-0.59062743,-0.10705277,-0.086964667,-0.094046757,-0.10695902,-0.13250214,-0.050086327,-0.098070972,-0.052989349,-0.13623185,-0.053872071,-0.70292574,-0.095197976,-0.058792591,-0.077937931,0.73531955,-0.12190523,0.6420154,-0.12221158,-0.11694793,-0.13509721,-0.48133093,-0.12522222,-0.10272726,-0.061680872,0.57559991,-0.0990761,-0.067629434,-0.12244921,-0.094687425,0.53962803,-0.084230624,-0.082565092,-0.047675833,-0.092397995,-0.099040389,-0.12525305,-0.055609334,-0.087884545,-0.11855778,-0.10940151,-0.060462322,-0.13477276,-0.085610196,-0.062525861,-0.10758109,-0.11312904,-0.06359382,-0.077863306,-0.099856094,-0.041566491,-0.098253079,-0.11528925,-0.079842284,-0.059454475,-0.095722586,-0.4644835,-0.10638378,0.11549405,-0.11186859,-0.085645057,-0.35121104,0.20522451,0.29872322,-0.094425023,-0.11095482,1.1385801,-0.077433273,-0.1213394,0.25885668,-0.13338037,-0.047823384,-0.29527801,-0.19182843,-0.11102628,-0.77978617,-0.059373669,1.0611039,-0.10170249,-0.052701257,-0.062301796,0.14611848,-0.11319067,-0.074353531,-0.062765829,-0.10577729,-0.11157754,0.52970707,-0.46984783,-0.45365882,-0.11877109,-0.093277171,-0.078293495,-0.0661778,-0.039434649,-0.074863344,-0.088392176,-0.12354209,-0.10534706,-0.077788092,-0.062242392,-0.64254397,-0.54991263,-0.075606525,-0.045471713,-0.10373177,-0.56703687,-0.11806198,-0.12276565,-0.11533369,0.71232814,-0.1215,-0.10599365,-0.10280967,-0.11165529,-0.10965924,-0.070764065,-0.13173698,-0.075337835,-0.045616865,-0.13753021,1.2225496,-0.079576492,-0.075481974,-0.12216504,-0.67552537,-0.11026265,-0.038427919,-0.82113492,-0.086239599,-0.07849668,-0.084032506,-0.062996238,-0.11176648,-0.055826031,-0.038525995,-0.12560999,-0.045120895,-0.1262133,-0.093635164,-0.09970618,-0.11583731,-0.10309038,-0.045018122,-0.063151479,-0.10422438,-0.11284609,-0.10405416,-0.083298869,-0.11207554,-0.13106759,-0.098238245,-0.09096048,-0.074380137,-0.049871467,-0.28192246,0.37543243,-0.92675525,-0.19211186,-0.061074439,-0.78809279,-0.24930903,-0.10223981,-0.04430531,-0.060589463,-0.40083042,-0.13789378,-0.096601345,0.92232233,-0.045920096,0.59356564,-0.08133918,-0.085419901,-0.13584869,-0.10426695,0.89198637,-0.10906939,-0.18657212,-0.086797796,-0.10036755,0.55432165,-0.9603405,-0.063629292,-0.11159548,-0.069459118,-0.093305185,0.48068777,-0.083268009,0.32492486,-0.13084598,-0.97583824,-0.088802867,-0.069446273,-0.06281852,-0.13047001,-0.089305528,-0.10801212,0.90533364,-0.080207355,-0.1263864,-0.12176904,-0.25566575,-0.12795164,-0.11099143,-0.10054373,0.53453338,-0.086130194,-0.079610616,-0.047944564,-0.048924994,-0.83925611,-0.096683517,-0.1400134,-0.12339544,-0.11678964,-0.083921127,-0.089188814,-0.050941799,-0.1170269,0.65018421,-0.12238844,0.52350312,-0.097638145,-0.096100129,-0.10073557,-0.091435716,-0.13067283,-0.1132273,-1.1602516,-0.068642244,-0.059209101,-0.058446839,-0.11017243,-0.11197598,-0.12150026,-0.10872018,-0.86693919,-0.086844228,-0.066024378,-0.07002078,-0.099846296,-0.051958609,-0.1043674,0.13652268,0.29484197,0.24966459,-0.1687786,0.31519622,0.33159235,0.33494148,0.28743666,0.35262731,0.3518143,-0.10886744,1.0421451,0.31703228,0.29706162,0.35997012,0.34697819,0.25019023,0.22823098,0.25695094,0.22925176,0.049521126,0.28117031,0.28520778,0.2909129,0.25803879,0.10031669,0.23923342,0.3024376,0.31656259,0.26952398,0.85836923,0.3358666,0.30410224,0.37884504,0.26391539,-0.078772999,0.309497,0.2503503,0.19204985,0.29592362,0.96278876,0.25578314,0.3652344,0.3844249,-0.2086318,0.25504786,-0.14137566,-0.31358084,-0.010746345,0.31659079,0.30982226,0.30850971,0.7738837,0.28156132,0.27417794,0.28093737,0.36699817,0.1186129,0.30384371,0.28456122,0.91818893,-0.008094199,0.29406023,0.28808209,0.27158839,0.32672787,1.1298487,0.21631031,0.25144023,0.28241083,0.22432932,0.29050332,0.32986641,0.26623213,0.25732821,0.36391404,0.30564263,0.32056323,0.30668283,0.27390313,0.33463413,0.28900135,0.27503231,0.29476196,0.28897169,0.29005286,0.32316774,0.28155786,0.25136942,0.23681803,0.32623127,0.29481268,0.2545512,0.3055965,0.28633112,0.2761372,0.35315841,0.30185738,0.33864978,0.30295432,0.27679595,0.26806286,-0.11479077,-0.038651317,0.16362788,0.20518172,0.3283228,0.28492543,1.6341319,0.3274118,0.28178194,0.75551635,0.32845271,0.3234013,0.31465179,0.24435174,0.32428426,0.36214441,0.37962744,0.26093471,0.068501875,0.32626864,0.43988177,0.30760139,1.2725141,0.34419474,0.28339836,0.35302886,0.23622794,0.28094658,0.31999987,0.27769276,0.30086523,0.28344461,0.29494673,0.25868794,0.026635241,0.31367761,0.29583544,0.27239823,0.27768233,0.26825809,0.81187433,-0.055984959,0.38785332,0.4021973,0.32227942,0.27419937,0.28424814,0.30997112,-0.065677635,0.2319143,0.3009052,0.27842501,0.33140945,0.30158132,0.29117545,0.36902568,0.32261324,0.29312834,0.32393876,-0.050782446,0.23302892,-0.13049409,0.31058729,0.25956661,0.32881835,1.3972362,0.25372255,0.26891464,-0.090025932,0.31289575,0.12575598,0.62338036,0.24301855,0.28418073,0.2414429,0.27476346,0.24691047,0.32633194,0.36619121,0.30885592,0.31990936,0.29578412,0.29453143,0.28799596,0.29284504,0.24965154,0.26637912,0.30068138,0.23692134,0.33634081,0.31993809,0.2476235,0.30969372,0.26881582,0.33725938,0.26779613,0.3323299,0.26141843,0.20702867,0.26873618,0.067998789,-0.14743158,0.32788455,0.22546452,0.06708964,0.27737767,-0.098050579,0.27350354,0.07331682,1.4787155,-0.057954881,0.25769481,0.31731248,0.26542926,0.30976853,0.58485508,0.30769807,0.3020559,0.35141382,0.23828959,0.15181634,0.16485515,0.30175495,0.25305989,0.29189828,0.27397272,0.32320273,0.26589969,-0.16776018,0.2786642,0.27093631,0.1874339,0.29608411,0.33210343,0.28638965,0.25541529,0.31445888,0.27266124,-0.29986677,0.27545407,0.29354003,0.0023318108,0.25222319,0.3050954,0.29501122,0.99411052,0.35494894,0.3050493,-0.11133797,0.59326023,-0.017226072,0.31787962,0.24386474,-0.029391261,0.33286631,0.30319577,0.29764307,0.24150811,0.072153568,0.30859929,-0.045622621,0.63112092,0.27788317,0.41653517,0.21154927,0.26099059,0.26641273,0.27863458,0.27156901,0.15082181,0.33662209,0.29124126,0.23415411,0.30616948,0.24280758,0.991732,0.28224626,0.34030807,0.31094524,0.28908616,0.30288959,0.24255554,0.31354505,0.29143554,0.26118442,0.29919881,0.2958467,0.28182864,0.32795888,0.33102295,0.25674519,0.29984263,0.32335392,0.2896333,0.26655126,0.2831673,0.31633705,0.25043347,0.26856005,0.25964785,0.25535876,0.087157637,-0.0050814571,0.26914337,0.24208714,0.28965729,0.29357177,0.32583898,-0.31087294,0.30119008,0.26915485,-0.044049706,-0.10893739,0.27629679,0.26867875,0.30842465,0.2711136,0.31105307,0.055657707,0.26894349,0.21440561,0.33435366,0.097313978,-0.43703455,-0.18049426,0.27765223,0.3051503,0.27719742,0.33939731,0.28248736,0.27898669,0.26132566,0.25284967,1.0562102,-0.066553935,0.28342423,0.26531923,0.31737834,0.33856788,0.33791506,0.25746304,0.56061125,0.29263437,0.29458222,0.28235105,0.30458385,0.3010152,0.24913827,0.43266505,0.24116851,0.3099764,0.27062505,0.35138932,0.083865173,0.24600792,0.33065772,0.26224026,0.22940408,-0.0052955076,0.25006852,0.28446656,0.2986266,-0.094305754,0.23738274,0.28340563,0.30998534,0.33006617,0.28671977,-0.030514913,0.29485077,0.67759967,0.27828059,0.32611895,0.23946431,0.30090562,0.24942768,0.25490627,0.36135224,0.3033627,0.3549625,0.33384985,0.29005951,0.2817533,0.29031512,0.27506566,0.33870542,0.34833086,0.29210186,0.26483724,0.32839724,0.24952355,0.2926037,0.28579617,0.2443925,0.30240861,0.27849203,0.31220248,0.29136324,-0.03686754,0.31776142,0.17955776,0.2963824,0.23683122,0.36156055,-0.072605819,0.2498873,-0.11474293,0.3100979,0.30025986,0.54470682,0.29295909,0.30739778,0.33050904,1.0501215,0.3205047,0.33873609,0.31710914,0.30621988,0.16160436,0.2927478,0.37359121,0.30103749,0.31775296,-0.031437133,0.30258867,0.43448347,0.29469633,0.32802624,-0.037272718,-0.2559154,0.24105228,0.2386792,0.26179188,0.31616801,-0.35504973,0.29802907,0.32743564,0.29956236,-0.071089968,0.15246254,0.29307735,0.29257375,0.3370083,-0.31344667,-0.064583719,0.27088851,0.29476592,0.29307857,-0.26282936,0.32552949,0.40865591,0.19533153,0.27529469,0.35273665,0.35146114,0.29178068,0.29310277,0.28160414,0.32764953,0.25804541,1.4617983,-0.29373533,-0.017855544,0.56955206,0.26307294,-0.018519243,0.26585478,0.26469091,0.2872979,0.097058713,0.29549226,0.28717834,0.31769785,0.25688311,0.23726515,1.1157848,0.32238135,0.2685906,0.74801362,0.31034103,0.23513238,0.29121318,0.24770643,0.27853614,0.29312223,0.33433309,0.28137082,0.33713779,0.28839925,0.28352284,0.31247804,0.34734222,0.2930364,0.30668366,0.30745631,0.30375627,0.33011585,0.36157605,0.25477403,0.26898363,0.27271989,0.30970278,0.24665515,-0.13965972,0.3613756,0.26135653,0.25294751,0.25851086,0.26272395,0.29415375,-0.0060843625,0.25639775,0.29064986,0.28191882,0.25215024,0.3631539,0.26858437,0.33598498,0.25371137,0.31130639,0.30264503,0.27507895,0.29651135,-0.0080757076,0.29343441,0.24124536,0.36835796,0.29853079,0.35687253,0.22042567,0.32714859,-0.085587487,-0.35370481,0.28997558,0.31962484,0.33168966,0.32728189,0.28559673,-0.022659495,0.33973607,0.27355433,0.2946749,0.31522602,0.47273868,0.25117627,0.33451855,0.26228094,0.24405317,0.30449656,0.55536383,0.29952893,0.31006852,0.29766575,0.27716026,0.27047038,0.30004582,0.34596956,0.29134172,-0.089165919,0.35336804,-0.3031081,0.2881155,0.21381445,0.30784535,-0.14525643,0.29151911,0.25326204,0.3098585,-0.20921695,0.27033329,0.28194964,0.30944774,0.33198887,0.31524044,0.2572248,0.27506578,0.30715415,0.24590859,0.32259932,0.29950354,0.247364,0.30953482,0.30706698,0.31914717,0.28848898,0.3609319,0.30352661,0.27329755,0.2881892,0.31685552,0.25021896,0.28671423,0.27119821,0.32530355,0.29204178,0.32183596,0.35095516,0.29398659,0.32561779,0.75710261,0.31947193,-0.043017291,0.30598447,0.25981396,0.89482325,0.13973875,0.21827438,0.26866055,0.31656799,0.093295805,0.29196259,0.30590805,0.18804051,0.32153732,0.25524512,0.088940926,0.12178658,0.31393445,0.2031316,0.31425726,0.081319556,0.36789778,0.29547146,0.3185913,0.10046965,0.31532964,0.31768298,0.30540228,0.31168199,0.30578759,0.1826409,1.4696642,-0.0972028,0.29319215,0.30145833,0.28899083,0.2712594,0.29548648,0.34852263,0.3334271,0.32554719,0.32998574,0.31728581,0.2405664,-0.32039836,0.037050765,0.29412153,0.36004946,0.30047157,-0.25395957,0.30433726,0.32575208,0.33297929,-0.069419831,0.31569293,0.27284452,0.31675991,0.27736291,0.29519594,0.27661821,0.29317662,0.34652203,-0.30875096,0.31876355,-0.28764918,0.24338159,0.28935701,0.34573659,1.07427,0.23539731,0.34804273,1.6595074,0.26838085,0.24345732,0.28020939,0.29316524,0.29474941,0.22648859,0.30770355,0.28853956,0.2545771,0.31681901,0.29766372,0.29339069,0.26774517,0.2795912,0.28919888,0.3222751,0.30895656,0.35783058,0.30166698,0.2499083,0.25937945,0.30918166,0.30228955,0.33912343,0.32634184,0.25545019,0.94323492,-0.22007884,0.049986538,0.9137882,0.23214035,0.87361223,-0.2391036,0.30913839,0.25208554,0.36266634,0.42810306,0.31497622,0.32487404,-0.30247831,0.26564664,0.10191189,0.26862875,0.2804397,0.28380075,0.34949791,0.0043358966,0.26717103,-0.32509312,0.27682069,0.28320783,0.079067774,0.31696123,0.27674937,0.33633488,0.26640925,0.31302017,-0.00016701513,0.28627503,-0.030358169,0.26391339,-0.070063062,0.26804936,0.27493256,0.28314582,0.30817485,0.30817676,0.33177698,-0.0029008579,0.31181514,0.29009479,0.3134661,-0.16535012,0.32841709,0.31871536,0.29327399,-0.19448368,0.25890604,0.27680179,0.24024771,0.31586671,0.83236557,0.30630505,0.82910985,0.34235454,0.31143719,0.31110394,0.27445677,0.33679876,0.32432598,-0.0054145195,0.26792768,-0.07270281,0.26823986,0.30925709,0.29264113,0.34094539,0.2903026,0.34034678,0.31720597,0.24607471,0.28852332,0.30418646,0.29316491,0.30917338,0.2907593,0.24250776,0.45077237,0.25508747,0.26242405,0.29549828,0.32768267,0.2770707,0.3395319,0.45974717,-0.34057593,-0.14327978,-0.36828971,-0.10818141,-0.077141449,-0.1582991,-0.11095553,-0.11061011,-0.15151051,-0.34286043,0.30565086,-0.15594289,-0.1316978,-0.12396264,-0.59744775,-0.13057186,-0.11162791,-0.11675124,-0.10260777,-0.076281138,-0.064441025,-0.074770764,-0.11766065,-0.031439707,-0.76488483,-0.14613746,-0.066464677,-0.1040857,-0.079912975,0.38727662,-0.15068024,-0.15450495,-0.063299596,-0.15939763,-0.73705983,-0.11918068,-0.11102837,-0.099202089,-0.10935769,0.15600741,-0.1290881,-0.64418471,1.1205089,-0.73905289,-0.13678843,0.70530576,0.60979617,0.56968415,-0.067253679,0.087025814,-0.12099992,0.76678061,-0.087689072,-0.13437782,-0.06661617,-0.15623164,-0.43441921,-0.15230225,-0.10775158,0.61780524,0.74919176,-0.14607243,-0.11404809,-0.089599624,-0.10301019,-1.3758304,-0.07870461,-0.13081059,-0.086791269,-0.078566991,-0.092098713,-0.091453888,-0.14790304,-0.064710386,-0.13989756,-0.11184094,-0.11535686,-0.08096496,-0.14434026,-0.10485449,-0.13856936,-0.14060219,-0.11754585,-0.10410497,-0.16032623,-0.1585274,-0.10130035,-0.074984357,-0.11938397,-0.078228056,-0.11950637,-0.11602923,-0.07122916,-0.14895058,-0.077560306,-0.12618054,-0.066010103,-0.083758213,-0.1547873,-0.14783384,0.33365029,0.087406024,1.5220846,-0.5331853,-0.11873502,-0.063382871,-0.10266953,-0.77540708,-0.15306905,-0.14531529,-0.93137431,-0.1234183,-0.080815963,-0.06706246,-0.14052451,-0.16512059,-0.1473279,-0.10679395,-0.11947309,0.66992617,-0.13317496,-0.82420266,-0.13776985,0.12258086,-0.13881342,-0.13345443,-0.10018047,-0.064120963,-0.11012711,-0.15125032,-0.089833006,-0.095422283,-0.090604097,-0.11394816,-0.13428888,-0.44713962,-0.10882629,-0.16436388,-0.093792267,-0.068356901,-0.089861378,-0.23914436,-0.46729481,-0.14889258,-0.32146963,-0.15404208,-0.1465044,-0.11005091,-0.12287977,0.54469532,-0.95198435,-0.13242754,-0.08631707,-0.14987256,-0.076171003,-0.16582437,-0.15959352,-0.10228133,-0.15582035,-0.089189902,0.53915989,-0.081858598,-0.30326828,-0.15423326,-0.11348367,-0.13950323,-0.14710993,-0.069886237,-0.070513412,0.22860596,-0.096401267,0.34712309,-1.1923629,-0.11910166,-0.12660234,-0.12627378,-0.12505752,-0.10960824,-0.1425418,-0.13611984,-0.14617096,-0.084461316,-0.11514877,-0.087598749,-0.14915743,-0.15300797,-0.087168276,-0.13068876,-0.14808644,-0.0955351,-0.15246913,-0.084809043,-0.089025274,-0.14282486,-0.15431532,-0.12353171,-0.080587745,-0.14658345,-0.1178824,-0.17497419,-0.087189697,0.28356045,0.48129568,-0.8186084,-0.00023649679,-0.66081506,-0.11782542,0.70566654,-0.09883599,-0.19870356,-0.35009274,0.53642726,-0.15538481,-0.14601712,-0.11258202,-0.10933809,0.81472164,-0.13619475,-0.098576337,-0.10528244,-0.082925536,-1.4139966,0.5637002,-0.15703635,-0.088711359,-0.080512032,-0.086182356,-0.14969254,-0.098509163,0.83354169,-0.13021751,-0.14142208,-0.7355485,-0.12872769,-0.1593035,-0.16094853,-0.15629035,-0.14012448,-0.071249388,-0.24779208,-0.077610366,-0.081403121,-0.32028961,0.70937878,-0.093366697,-0.14644179,-0.69626755,-0.086487889,-0.078056157,0.15280557,0.28262615,-0.52971196,-0.09685073,-0.1090869,-0.19924195,-0.10166813,-0.14857717,-0.16483597,-0.13810557,-0.68474638,-0.12844092,0.43910685,-0.94638157,-0.1591973,-0.44491529,-0.071428768,-0.087701924,-0.10041107,-0.10171488,-0.14748611,0.1094206,-0.14686769,-0.15277229,-0.15057258,-0.062192619,-0.070745178,-0.44023821,-0.095907897,-0.14126487,-0.13957267,-0.15887217,-0.07112366,-0.067313477,-0.13275598,-0.095231064,-0.16475244,-0.13877834,-0.12851575,-0.13464342,-0.088107355,-0.13818976,-0.066350773,-0.10497075,-0.075667582,-0.071397409,-0.11372872,-0.1321542,-0.14362848,-0.1429048,-0.083608225,-0.12270081,-0.065377563,0.42533979,0.28535444,-0.063250735,-0.060744699,-0.12625091,-0.14379069,-0.096995048,0.16477802,-0.1132965,-0.092404164,-0.14285478,-0.32325009,-0.074304536,-0.16321698,-0.14826794,-0.14312433,-0.11032155,-0.56292295,-0.12751192,-0.10019673,-0.13439351,-0.81586444,-0.55333769,-0.56964141,-0.15026397,-0.076095879,-0.086843163,-0.14487723,-0.14143567,-0.070673786,-0.066219203,-0.10204414,-0.49763837,0.045560781,-0.1290601,-0.076112852,-0.1518279,-0.15734464,-0.13691059,-0.080554098,-0.43417442,-0.14524017,-0.13353175,-0.12290739,-0.074330404,-0.10947568,-0.084417589,-1.0850501,-0.08319781,-0.13209626,-0.13118087,-0.14370561,0.74071306,-0.074779853,-0.12365555,-0.062942103,-0.068562463,0.36771744,-0.10846961,-0.081978939,-0.091108374,-0.22834875,-0.08221449,-0.58087492,-0.093298987,-0.10380912,-0.070003934,-0.50369811,-0.16680463,-0.7573297,-0.13722077,-0.1329554,-0.11508407,-0.091792434,-0.077438429,-0.12837069,-0.14721195,-0.1014882,-0.10237487,-0.12172765,-0.098134652,-0.061685611,-0.066095136,-0.11784048,-0.070832305,-0.12547493,-0.080916807,-0.082286768,-0.13612327,-0.13814278,-0.097029336,-0.08154466,-0.12939522,-0.14620535,-0.066474676,-0.12133626,-0.068307593,0.10878719,-0.09399239,1.5750325,-0.12012055,-0.064077504,-0.15195303,-0.70375448,-0.62829322,-0.80955297,-0.10476386,0.54893559,-0.79180175,-0.1524092,-0.14691502,-0.15459798,0.080266871,-0.11908457,-0.11123865,-0.15102966,-0.10721313,-0.069537587,-0.093217827,-0.07661169,-0.15208568,-0.16059281,0.23548797,-0.12008937,-1.0221211,-0.10149565,-0.13322046,0.60725313,0.76180387,-0.095443703,-0.093780428,-0.08679501,-0.076712444,0.46808481,-0.15435809,-0.093246862,-0.10829298,-0.92015791,-0.75850236,-0.15806812,-0.12030183,-0.14880507,0.54102498,0.070052549,-0.12536791,-0.13837415,-0.10611488,0.53691465,-0.15518896,0.55174601,-0.33351055,-0.089961573,-0.086383916,-0.15034512,-0.14690581,-0.14942363,-0.068590686,-0.67601764,-0.081852823,-0.30857542,-0.43260187,0.081615292,-0.73326045,-0.095846102,-0.76910841,-0.073769696,-0.13732618,-0.1628923,-0.72385037,-0.16267498,-0.11884215,-0.11578551,-0.11017653,-0.15717873,0.17379452,-0.13274086,-0.088633627,-0.97858429,-0.15971127,-0.09581317,-0.088548392,-0.14666663,-0.096977144,-0.12505654,-0.16007166,-0.069736712,-0.14918333,-0.10508038,-0.072502203,-0.15119763,-0.067083485,-0.16102166,-0.11620129,-0.072008975,-0.15806223,-0.1131931,-0.14917219,-0.15727066,-0.1250217,-0.001620829,-0.086497515,-0.13869144,-0.48194522,-0.10997953,-0.16293815,-0.10891712,-0.11585566,-0.10059954,-0.11736578,-0.51076353,-0.15941586,-0.07179416,-0.11837999,-0.11970459,-0.16132903,-0.07857427,-0.1419681,-0.14924867,-0.081502922,-0.11295001,-0.079201229,-0.15401281,0.72699904,-0.12809764,-0.12858179,-0.16654757,-0.11834541,0.35074389,-0.13771492,-0.15340583,0.40342012,-0.28050724,-0.11739333,-0.15483138,-0.14977691,-0.12468553,-0.11521325,0.86109483,-0.11533536,-0.089523114,-0.16090998,-0.16709341,0.64022499,-0.11039215,-0.16217089,-0.1475464,-0.071807444,-0.071354724,-0.75079906,-0.11767031,-0.14385085,-0.15912192,-0.077391088,0.45991111,-0.10864674,-0.074279509,-0.13054991,-0.84035337,-0.097943857,0.55963975,-0.1230662,-0.099799402,-0.10766269,0.67341882,-0.12302058,-0.068921551,-0.072804369,0.79943007,-0.073775433,-0.13660091,-0.12830064,-0.14161077,-0.12145795,-0.073634654,-0.16679452,-0.11184946,-0.12109892,-0.13261849,-0.075686872,-0.12579396,-0.091075875,-0.10115554,-0.1218577,-0.15296373,-0.11360619,-0.16765562,-0.10846864,-0.083227582,-0.13001893,-0.11957937,-0.07998126,-0.1412382,-0.079733677,-0.093243591,-0.12026704,-0.13745633,-0.1556838,-0.084609568,0.36873236,-0.063961439,-0.87599421,-0.12468858,-0.088813305,-0.72645509,-0.94606942,0.65901107,-0.13205127,-0.1172912,-0.63733149,-0.15143064,-0.13203737,-0.030789929,-0.073231496,-0.11538888,0.79784113,-0.10956502,-0.13246337,-1.0989567,-0.12350866,-1.1185769,-0.12364552,-0.063976124,-0.1440444,0.70208073,-0.092664108,-0.087603465,-0.15887897,-0.097089909,-0.086840048,-0.6423924,-1.0377471,0.17349267,-0.157949,-0.15559638,-0.11997946,-0.11981845,-0.12005149,-0.11876112,-0.14754741,-0.15145099,-0.14888181,-0.14209649,-0.075915836,-0.93279999,0.0024993164,-0.067307636,-0.14432476,-0.14310129,0.90659362,-0.071355872,-0.11311823,-0.15407011,-0.75440836,-0.074839897,-0.076764174,-0.1170247,-0.14649612,-0.15189749,-0.086218379,-0.12817653,-0.16240752,-1.0477625,-0.10278859,0.56590182,-0.068598099,-0.15688701,-0.12217072,-0.99861348,-0.088785328,-0.1067514,-0.55958664,-0.11406434,-0.094291724,-0.143933,-0.11811234,-0.12876566,-0.10974513,-0.12495593,-0.15202272,-0.14257212,-0.16463281,-0.10347942,-0.11851886,-0.067243405,-0.07973329,-0.083495267,-0.11269375,-0.12608898,-0.11984654,-0.10217414,-0.10281079,-0.09558823,-0.1092348,-0.089362323,-0.089610003,-0.11081291,-0.10616201,-0.13204445,-0.94931132,0.42681497,0.34880742,-0.1025373,-0.020657498,0.37302214,-0.064089872,-0.083527856,-0.15174215,0.48751438,-0.094425254,-0.14715278,-0.44746131,-0.13765916,0.48987612,-0.15527682,-0.078167811,-0.11072775,-0.14531906,-1.6800896,-0.064836912,0.013616685,-0.1325901,-0.13127729,0.97469419,0.46954894,-0.09702123,-0.086862788,-0.10149588,-0.12342829,0.099620365,-0.083219625,0.59601748,-0.10721286,-0.81580096,-0.085336186,-0.11862138,-0.1297196,-0.1057427,-0.1140896,-0.10072041,-0.22753483,-0.15248324,-0.12727578,-0.11682671,0.055562753,-0.084841453,-0.11633256,-0.15953548,0.68930495,-0.098714299,-0.12315766,-0.097953379,-0.12869366,-0.31969103,-0.079439662,0.049708243,-0.078871913,-0.14788803,-0.14501026,-0.07663735,-0.1417897,-0.13673425,-1.106003,-0.07990934,-0.38058192,-0.081659392,-0.13930769,-0.064389966,-0.15875775,-0.10007478,-0.14620805,1.3252677,-0.086061135,-0.13817377,-0.14769226,-0.090028837,-0.096063815,-0.11455096,-0.080097511,1.0100213,-0.073282488,-0.10897361,-0.06685669,-0.10089499,-0.083380289,-0.15260629,0.68445545,-1.3419958,-0.12159182,-0.65959847,-0.10505776,-0.15768099,-0.15154217,-0.14662416,-0.13417102,-0.1494893,-0.5066365,-0.54648817,-0.11551785,-0.10964455,-0.14849563,0.0088789482,-0.12607269,-0.09886653,-0.11131524,-0.12359061,0.3181563,-0.10692284,-0.10791005,-0.13336903,0.35207108,-0.29948539,-0.08617989,-0.14018436,-0.15012378,-0.12438889,0.53245556,-0.1178956,-0.11689249,-0.14916904,-0.1031152,-0.35225308,-0.14782275,-0.14197887,-0.24295326,-0.13069843,-0.38430089,-0.11935624,-0.46118894,-0.36897883,-1.0632511,-0.084336139,0.021009758,-0.28297529,-0.90080386,-0.13296233,0.29568183,-0.12142239,-0.37952584,-0.13046451,-0.14737776,-0.14195757,-0.11903206,-0.41277549,-0.13611045,-0.14056046,0.6475302,-0.40484348,-0.078971244,-0.085738681,-0.13554585,-0.16905908,0.16562688,-0.13316144,-0.083473146,-0.093292594,-0.088703983,-0.099102959,-0.10910928,-0.10522391,-0.095516667,-0.1265303,-0.1417127,-0.15668131,-0.1462723,-0.077679701,-0.063416496,-0.15274096,-0.13106628,-0.12297159,-0.069530547,-0.18189749,-0.10636436,-0.10512897,-0.077730097,-0.079715848,-0.12276648,-0.16493079,-0.14393023,-0.081946924,-0.10061164,-0.088537268,-0.085664369,-0.079893522,-0.14744656,-0.11514408,-0.13650416,-0.65678573,0.58421189,-0.53172988,-0.61708552,-0.13982707,-0.11650058,-0.091030747,-0.49385419,-0.095309936,-0.12403938,0.14207204,-0.078129247,-0.15161279,-0.16459125,-0.087422609,-0.11376809,-0.091958426,-0.14413357,-0.12571213,0.70005101,-0.098548681,0.49520826,-0.069940865,-0.84320533,-0.13565499,-0.10343631,-0.079184778,-0.10928028,-0.14366545,-0.12546586,-0.12033954,-0.085210696,-0.13184738,-0.10492647,-0.08723817,0.3337602,-0.13358532,-0.18074302,-0.14001635,-0.099856421,-0.11942726,-0.48315912,0.18408254,-0.13207167,-0.26470813,-0.12919722,-0.12693357,-0.15680444,-0.14261428,