0.19368182,-0.39495251,0.36965787,-0.26144022,0.33930555,-0.30156168,0.17266159,0.23181814,0.57211018,0.21956609,0.39656529,0.15895532,0.17186305,-0.39335775,-0.00052573526,0.38139248,-0.016580161,-0.2029763,0.43084818,-0.47848472,-0.21153548,-0.030400554,0.198965,-0.059371933,-0.16375859,-0.46663031,0.23583306,0.2598561,-0.29486138,-0.19864982,0.64694303,-0.73827809,0.13494125,-0.34189111,-0.13066234,-0.140049,-0.033774953,0.2301387,-0.54367119,0.68427885,-0.68572003,0.032960363,0.72105908,-0.75211793,-0.22236431,0.13395308,0.017534081,-0.24821837,-0.88051575,-0.12104094,0.19372018,0.31072214,-0.6081723,0.081721768,0.88187772,-0.58275932,0.1460157,-0.18342099,0.1706076,-0.052432053,0.67816538,-0.38579285,-0.20928165,0.0087401913,0.21548446,0.4635523,-0.269012,0.019906007,-0.04334655,-0.37822369,0.041070804,-0.01575214,0.027060755,0.38392323,-0.16136204,0.14151469,0.13401629,-0.10136764,0.18957743,0.093688197,-0.18637311,0.23126078,-0.1976769,-0.26143557,-0.08584819,0.37096575,-0.070165366,-0.12330323,-0.096429139,0.21795434,0.31864119,-0.00798441,-0.098860145,-0.18530676,0.093825251,-0.14582795,0.024521252,-0.0018270607,-0.089259766,-0.036282152,-0.10491219,0.020991102,-0.079483882,0.047039524,-0.033545922,0.013351093,0.032847293,0.079571843,-0.5744229,0.53581959,-0.54391479,0.23036931,-0.60509694,-0.037567306,-0.25192931,-0.47658998,-0.56423843,-0.047686175,-0.18300305,-0.037035469,0.15067881,-0.34782773,0.33759487,-0.10916517,0.10123314,0.47629416,-0.093450144,0.16454673,0.17072184,0.028482663,-0.053305328,-0.15919976,0.16636933,-0.10284086,-0.076424941,0.46752462,0.17601185,0.30981338,-0.22657454,-0.45670953,-0.10172546,0.2474336,-0.29697597,0.11904993,-0.27530682,0.021573998,-0.56252426,0.47768205,0.36432829,0.30726004,-0.26219764,-0.62950766,-0.896649,-0.040989608,-0.19251987,-0.6848591,0.021683587,0.046841405,-0.068838634,-0.26731765,0.29617593,0.71194953,-0.58031195,-0.21787544,0.11084951,-0.77959639,-0.23179701,0.097119279,-0.0043500112,-0.38131407,0.36951885,-0.47107527,0.017760029,0.14300813,0.046231125,-0.11669432,0.77083164,-0.14213896,0.049225252,0.53864926,-0.66583085,0.18888445,0.21181934,-0.27907753,-0.19755493,-0.15486255,0.44010285,0.17125881,0.1201561,0.28119239,0.045206849,0.50387013,-0.64580393,0.26528785,0.15418337,-0.15976462,-0.32189479,0.45597133,0.16990659,0.39335775,-0.10926605,-0.059367802,-0.29545704,0.24461357,-0.48851013,0.37738219,-0.0065127774,-0.24416828,-0.13438684,0.39293984,0.31018794,0.39108893,-0.096494682,-0.031122573,0.08143691,-0.32621586,0.21178746,0.10011773,-0.11696519,-0.20513213,-0.042052396,-0.40418002,-0.1248709,0.56668061,0.26127625,0.2500886,0.099098496,0.061100632,-0.00092477229,0.18798774,0.14431591,-0.30259711,-0.16157942,0.54208142,0.28177997,-0.16906928,0.47633773,-0.010614787,0.13902427,0.12824491,-0.071814381,-0.28704026,-0.14245105,0.15069956,0.17193201,0.33217439,-0.35288197,-0.50309241,0.38570285,0.14191581,-0.28650233,0.33823273,0.39044607,-0.56450742,-0.54611242,0.11515643,0.43882716,0.30475882,-0.3650949,-0.83268255,-0.28469342,0.34714532,-0.3144545,0.1322771,0.44513252,-0.31304562,-0.30490983,-0.015228663,0.12122153,0.070351601,-0.87002683,-0.05671148,-0.047496665,-0.47524318,-0.52216774,0.17546882,0.37517482,-0.28634319,0.23447093,0.013943508,-0.0007701171,-0.59356153,-0.39208728,-0.22303806,0.0096898898,-0.070651762,0.0056711338,0.51610196,-0.021705663,-0.0004646134,-0.12358194,0.1174574,-0.051380385,0.46156737,-0.13477692,0.63066554,0.18881045,-0.42237312,-0.37006575,0.13870609,-0.51634568,-0.042108621,0.15069225,0.38167429,-0.27632782,0.30205351,0.13551918,0.15742739,0.064254716,-0.31634298,-0.44865465,0.74698675,-0.72390944,0.36556974,0.16128851,-0.041238084,0.47878835,0.30682966,-0.20001456,0.22644849,-0.13437453,-0.42812502,-0.49663714,0.23988876,0.34068722,0.62730491,-0.10456733,-0.027597606,-0.38242736,-0.33070597,0.17586444,-0.28026778,0.041300502,-0.20318477,0.09201286,-0.39096206,0.17158651,-0.14947015,-0.21573944,0.27651098,0.060999122,0.69923788,0.51324737,-0.27574489,0.062818475,-0.35779545,0.013398858,0.0057533407,-0.14799947,0.86245227,0.18149063,-0.31581944,-0.093809009,0.18460158,-0.21443506,-0.05493347,0.11353052,-0.42922172,0.24969845,-0.28261819,-0.15498123,0.42958966,0.24152917,-0.74947143,0.40436304,0.0071644182,-0.40135828,-0.15413281,0.064850003,-0.1235361,0.18101083,-0.73156506,0.49166763,0.15978748,-0.25617516,-0.25539356,-0.056071464,-0.43709788,-0.64259875,0.30664024,-0.56661046,0.1205949,0.66239858,-0.11233696,1.0883203,-0.10273636,-0.25548199,0.70599794,-0.48128456,-0.72033077,-0.62899673,0.30761963,-0.48138672,0.077317856,0.78229153,0.23366161,0.026292071,-0.36210221,-0.3266032,-0.12250998,0.14343278,-0.70743388,-0.21969207,0.19364586,0.30544987,0.29449818,-0.70519674,0.70068669,-0.3238427,0.09074273,0.083442599,-0.1602951,0.069596291,0.67934608,0.20718859,0.14536119,0.42792711,-0.28134191,-0.52513152,0.40058854,-0.41988567,0.33771816,-0.20693427,0.0604482,0.62288564,0.26182863,0.10172118,0.059369057,-0.21605547,-0.082460284,-0.17949598,0.0077003939,0.22755772,0.0013305215,-0.3166742,-0.0085063465,-0.35120916,-0.62491858,0.27627599,0.04623108,0.30349705,0.25155276,-0.22393717,-0.29675025,-0.059597034,0.10106707,-0.47578084,0.294099,-0.27759069,0.17781748,0.76668811,0.052892003,0.26345134,-0.073820308,-0.20681068,-0.14008626,-0.28798687,0.49553984,-0.60350877,0.57728088,-0.051816486,-0.15864708,0.089752883,-0.15709339,-0.48837346,-0.021551529,-0.033835344,0.016638478,-0.042955469,0.78725773,-0.52612215,-0.98636955,0.15310556,0.20409955,-0.51757663,-0.033804733,0.28586408,-0.58730865,-0.21708366,-0.16593577,0.56846398,0.18481156,0.14646295,-0.37207869,0.11256745,-0.57771003,-0.47484326,0.5343743,-0.055340134,-0.075398475,0.97192335,0.64028442,0.43808544,0.32844454,0.15691654,-0.1009794,0.27809244,-0.51269138,-0.47940898,0.033265322,-0.27116233,0.56754613,1.1938308,0.34252661,0.18752867,-0.0025508991,-0.75382119,0.6862694,-0.28413197,0.12088261,0.16237193,-0.32214165,-0.64187735,0.21257542,0.54091877,0.11030571,0.27967513,-0.060526658,-0.23412035,-0.20153987,-0.16837412,0.55780464,-0.21127845,-0.30455044,0.37806538,-0.045349877,-0.33696285,0.38851669,-0.27129823,0.16705944,0.065359011,-0.2024014,0.42993376,-0.40768561,-0.13005228,-0.0179893,-0.090251759,0.018576546,0.10392463,0.51749009,-0.1559847,-0.29240692,0.5112794,-0.44533226,-0.38490987,-0.40269491,0.36609933,0.67644852,0.58230406,-0.1424195,0.16420047,0.20085643,-0.26054898,-0.071044974,0.04000273,0.10108127,-0.23056553,-0.17277336,0.37642974,0.19031246,-0.12300733,-0.0056166057,-0.010579503,-0.25599962,0.40935069,0.19443752,-0.62062401,-0.085637555,0.35634777,-0.14214356,-0.35665965,0.19237703,0.17358941,0.1280463,-0.1860324,0.076598555,-0.46838337,0.46829915,-0.36207005,-0.29176146,-0.14057912,0.48549959,0.78164876,-0.028148673,-0.2459244,0.14865777,0.56651402,-0.25094521,-0.2417997,0.098449029,0.27891901,-0.12543844,0.24546973,0.28991309,0.51243687,0.21246415,-0.26599786,-0.099841312,0.68946224,-0.39772215,0.070171461,-0.56649089,-0.21589592,-0.028437404,0.56399256,0.36752298,0.2687712,-0.29866141,-0.051163457,0.073941641,0.74835694,0.33254209,-0.0062689511,-1.0788006,-0.43723986,0.44890144,-0.17295785,0.47103485,0.085297592,-0.12081437,-0.42979953,0.57143831,1.084623,0.67891026,-0.11464773,0.070700616,-0.19661771,-0.21351953,-0.34602258,0.27807969,0.27431819,-1.0288973,-0.15942031,0.57348663,-0.25205997,-0.29328835,0.098260745,0.076107942,0.22906026,-0.33495459,-0.26365677,-0.051159352,0.096434653,0.26918909,0.011525046,0.35829186,0.22183889,0.47759607,-0.11404442,-0.36872891,0.13016066,0.73595214,-0.3602542,-0.16200398,0.26358321,0.64695233,-0.50577772,-0.34376082,0.11735714,-0.18573661,-0.23832269,-0.38673598,-0.014512712,0.29517767,-0.73717946,0.20470031,-0.01631213,-0.3334125,-0.29137853,-0.47127736,-0.32327002,0.13018402,-0.019147687,-0.17973368,0.22843888,-0.14730345,0.055429861,0.27891442,-0.089616865,-0.16179404,0.11784746,-0.091380626,-0.13958356,0.59814441,-0.2668635,0.10316778,-0.044154119,-0.095957033,-0.29260907,0.39398009,0.24293178,0.12967917,-0.078113407,-0.20550327,0.06411998,-0.094201848,-0.13877612,-0.045476362,0.084867641,-0.06758824,0.36028105,-0.11497111,-0.1708796,0.25769395,0.027896369,-0.13868615,0.19026609,0.14177747,-0.19459794,0.22625935,-0.15614448,-0.20239627,-0.15301739,-0.082220539,0.36897576,-0.50765795,-0.10905598,0.31775013,0.033887934,0.16112009,0.4095653,-0.30684254,0.85387373,-0.47496644,0.0027477546,-0.095405072,-0.50135756,0.44496518,0.64751589,0.40587011,0.50598615,0.48407158,-0.089975104,0.17455491,-0.064754628,0.093578406,0.091857396,-0.2331555,-0.098376617,-0.93982387,-0.092472434,0.52901959,0.06730774,0.15891735,-0.16563696,0.22661054,0.33069348,0.047285341,-0.11538372,-0.6187923,0.15314601,0.094594114,0.047845233,0.46555117,0.16229609,0.32847315,0.089376159,-0.15843712,-0.20845008,0.55747187,-0.20510644,-0.51343167,0.16616783,0.078882627,-0.17856856,0.0006846271,-0.057823222,0.1645968,0.3109464,0.028995493,-0.36353442,0.35914358,0.16742554,-0.071308836,-0.63895762,-0.065651633,-0.64863819,-0.5631339,0.17111331,-0.17036454,-0.35112438,-0.14576916,0.13813706,-0.07031361,0.18398979,0.36097693,0.051783808,-0.48017484,-0.01779772,-0.21636258,-0.00025934394,0.3409757,-0.26971492,0.22366928,-0.2118593,-0.54883409,-0.11933892,0.39062771,-0.30349204,0.28996444,-0.092103705,-0.19229002,-0.10715614,-0.15653537,0.30200788,-0.36246663,-0.1226507,0.22982556,0.32142365,0.15535985,0.40084985,-0.18149431,0.17015241,-0.14471711,-0.12651981,-0.29873791,-0.22418855,-0.21054156,0.42407653,-0.034874387,-0.66190767,-0.59828502,0.31360966,-0.59706384,0.21144463,-0.11166672,-0.20143713,-0.2047285,0.03712697,0.018960098,0.10152803,0.45398745,-0.5855673,-0.670196,-0.083137229,-0.80591518,-0.010618276,0.4598718,-0.4222407,0.059593748,-0.12656832,-0.10274531,0.16257775,0.47224677,0.019320641,-0.66211879,-0.55427796,-0.22949503,0.37182337,0.47232902,-0.70477235,-0.29928443,0.052536655,0.21955054,-0.023452105,-0.32628545,-0.20275,-0.61634481,-0.49680629,-0.034621626,-0.12884948,0.16715907,-0.0054845191,-0.031688765,-0.024932435,-0.050776727,0.061907597,-0.34939793,0.17082283,-0.069312148,-0.12266371,0.14238417,0.10964589,0.018857993,0.0032091339,-0.069713168,0.058629744,0.086776093,-0.089964531,-0.44485921,0.42763239,-0.028342016,-0.55023777,0.19076143,-0.23393993,-0.16446427,-0.069903977,-0.40486756,-0.011413204,-0.15843618,-0.21474802,-0.48112598,0.40066946,-0.23875532,-0.25769049,-0.19147429,0.22741385,0.52280086,-0.27654308,0.33998197,-0.48578951,0.16086772,0.012348194,-0.46508223,0.065257706,-0.27516797,-0.12057572,-0.052633073,-0.041835658,0.088417009,-0.20937082,-0.35202086,0.021515707,0.075777046,-0.4780086,-0.52493137,-0.13112745,-0.16090392,-0.3387481,-0.22136644,-0.14655894,-0.25378925,-0.026495581,-0.36947873,0.13908678,-0.079411209,-0.21940786,0.022992169,0.14308602,-0.083992712,0.060491592,-0.70357907,0.14502023,0.028941989,-0.31409341,-0.19156539,0.26354218,0.10894931,-0.20889607,-0.46698418,-0.53944087,-0.5134064,-0.42086634,0.40364435,0.34356692,-0.058022246,0.16290665,-0.085691534,-0.098784231,0.033460725,0.41788748,-0.033435997,-0.4606719,-0.56625587,-0.39976859,0.44408524,0.54791749,0.1764828,-0.028756015,0.24441266,-0.079549603,0.078461938,-0.045347236,-0.10344137,-0.45915976,0.025470611,0.12488075,0.37917939,0.22274727,-0.014123541,-0.066386528,0.1362516,0.081641018,-0.088624381,0.084129058,-0.18195927,0.16948983,-0.22884277,-0.07905598,0.18333866,0.059362024,0.070339359,-0.004087599,0.14798041,-0.020239394,0.099457376,0.14685629,0.022671653,0.15533812,-0.1746235,-0.1430122,-0.14932601,0.075756609,0.076407917,-0.16354623,0.32427278,0.086809173,0.024813876,0.50681663,-0.22877993,0.49606645,-0.019116232,-0.13809657,-0.075769804,0.34703317,0.11013504,-0.058237117,0.0092317732,-0.27412409,0.35825014,-0.057264876,-0.043695491,0.049276512,-0.42991954,0.024081184,0.063954674,-0.034022972,0.25957701,-0.20811403,-0.045325231,0.066949695,-0.42271313,-0.057024986,-0.12315146,0.13017984,0.022350498,0.15327056,0.5686146,0.037145127,-0.1093746,0.10100686,-0.2074421,-0.17227389,0.18921608,-0.44453374,0.3191292,0.035166446,0.033335667,0.08094012,-0.237168,-0.3855128,-0.1014394,-0.053733476,-0.10315829,-0.15414645,0.20599096,-0.29562321,-0.060730442,-0.3966755,0.46376172,0.018091025,0.25754371,-0.18267041,-0.31973335,0.10773282,-0.093414322,0.17229466,0.061682627,-0.57932705,0.33007628,0.14307602,0.10632049,-0.32723239,-0.054147642,-0.16629328,0.034612369,-0.33574948,-0.28138784,0.060480997,0.47676766,-0.2363506,-0.18896089,-0.0094742263,0.12875281,-0.21681382,-0.035961177,0.033601247,-0.11735229,-0.31913406,-0.10217821,0.043957893,0.32077089,-0.78089207,0.4170264,-0.64557767,0.45879722,0.018489407,-0.50735641,-0.019282084,-0.34974417,-0.22851373,0.15854008,0.22807245,0.037098709,0.25699043,-0.16539143,0.046077508,-0.15261796,-0.08438582,0.32634383,0.11893174,0.26774547,-0.090230606,0.27932432,0.069863006,-0.11827353,-0.14864585,0.40683097,0.058585767,-0.014625926,-0.22435622,-0.049399264,-0.064080186,-0.0011296812,-0.09193112,0.3585999,0.16298884,0.070360236,-0.29142243,0.44293398,-0.2210449,-0.13215934,-0.39702609,0.083808139,-0.1658548,-0.14740416,0.055328935,0.24158785,0.20458043,-0.28987646,0.014973676,0.072428524,0.25745738,0.090257928,-0.33648962,0.29401734,0.071309753,0.1097221,0.094216883,0.38649935,0.56676102,-0.13241257,0.12073666,-0.22530106,0.31286854,-0.13855158,-0.23781845,0.61052698,0.22498891,-0.0075174933,0.50664955,0.64325672,-0.083710141,0.39548051,-0.2827886,0.20580399,0.16174661,0.19246997,-0.10157717,0.11225696,-0.25262544,-0.090617277,0.0020494817,0.32052466,0.077447511,0.16563763,0.039380755,0.10415947,0.13064507,0.29457474,-0.071767479,0.020807603,0.10466784,-0.24053778,0.094092138,0.64226878,0.095884018,0.030825786,-0.17199002,0.091001101,-0.017450865,0.3434822,0.059812468,-0.040257771,0.079652928,-0.24669829,0.058058981,0.38831386,0.18637863,-0.29159218,0.53202611,-0.36154056,0.29831874,0.11293396,-0.44118902,0.2178853,0.33237457,-0.29296687,0.433337,0.42752105,0.36947766,-0.21506678,-0.0028793358,0.28826076,-0.26131946,0.15641315,0.036566682,0.066509821,-0.0021095825,-0.23821726,-0.064888582,-0.39607894,0.14547291,-0.32639262,-0.12379342,-0.14198025,-0.52228051,0.59199184,0.13645904,-0.031168832,0.16896796,0.023600338,-0.44379032,0.055989675,-0.18571542,0.077884398,0.18831667,0.69027883,-0.46063283,0.54589057,-0.14558005,0.45691898,0.044511884,-0.28157541,-0.29586539,-0.38081542,-0.13888745,0.32886958,0.062009677,0.24957927,-0.66207802,-0.21041979,0.17726879,0.31544062,-0.16657384,0.16742413,0.28010812,-0.32113034,-0.38076609,0.28502923,0.48004529,-0.55271989,-0.28565851,-0.61509395,0.11970168,0.28614986,0.28970304,-0.079889871,1.0050648,0.17115851,-0.14197661,0.4695797,-0.1365549,0.30220479,0.10099595,-0.29479957,-0.28004411,-0.034639679,-0.11461417,-0.20375232,0.38687149,0.47846988,-0.050398871,0.050595906,0.44001371,-0.74298126,0.58016741,-0.46205541,-0.29064649,0.47453082,0.17734334,-0.22611187,0.48864001,0.74564958,0.066093571,0.2825754,-0.14363115,-0.73997831,-0.16889456,-0.31768143,-0.1217915,0.33574051,0.45767337,-0.13139987,-0.27225918,-0.16085048,0.041341081,0.14140241,-0.099645756,0.071628086,-0.14309017,-0.010765973,-0.00019027201,-0.52150339,-0.048307706,-0.2416105,0.16788842,0.19213203,0.4331139,-0.24721834,-0.080494598,0.17641817,-0.15700263,-0.074942097,-0.15301912,-0.045272358,0.045842513,-0.26689193,0.087018028,-0.093892999,-0.015650308,-0.23486321,-0.15476325,0.37429783,-0.34085807,0.58726156,0.36433047,0.3922078,-0.19327684,-0.32901579,0.4143399,0.22292016,-0.43263176,-0.086316094,0.24389328,-0.36479685,-0.19374911,0.78451139,0.16232355,-0.06314107,0.21114253,-0.20613754,-0.12981756,-0.21861149,-0.53971934,0.2608338,0.20240092,-0.36317629,-0.7789529,0.040515337,0.30322653,0.46318325,0.46310306,0.15383939,-0.25739056,-0.11460573,0.17550801,-0.38645044,0.42310831,-0.30635566,0.066035934,0.45952344,-0.44896907,-0.29161644,0.31116056,-0.37936473,-0.44279608,0.090235285,-0.32354409,0.3916589,-0.36046642,-0.0034080334,-0.28750309,0.27511117,-0.35229981,0.3465797,-0.36214602,-0.21453309,-0.19024332,-0.14945228,-0.62088275,0.13167426,-0.11716095,-0.70383489,0.016735613,-0.13770093,0.092644185,0.074336693,0.087244816,-0.16682458,-0.3019765,-0.33115101,-0.14707467,0.020040212,-0.44201639,-0.84833544,-0.20463875,-0.090098783,-0.10435668,-0.23976937,0.35364294,0.30330899,-0.49426654,-0.43853673,-0.25647894,-0.053836506,0.26380995,-0.56014419,0.38485396,-0.084570847,-0.041061874,-0.0018861571,0.11835096,0.21238151,-0.32417077,-0.15898483,0.21867253,-0.36992353,-0.053493597,-0.39670485,-0.010963328,-0.44231808,-0.33703887,-0.026651803,0.39091638,0.15435456,-0.10660614,0.5450936,-0.66632456,-0.071989037,-0.028054899,0.8689993,-0.068281971,-0.06797567,0.78982121,0.22249241,-0.36193031,0.25949159,0.086313926,-0.15986693,-0.18587129,-0.06985762,0.76214689,-0.16756243,-0.22196612,0.49709842,-0.03472152,0.18928219,0.16142981,-0.083981812,-0.28948757,-0.50981164,-0.091073118,-0.025221782,-0.33347481,0.455282,-0.57431823,0.079453103,-0.10035661,-0.37565169,-0.16473407,-0.20600395,-0.81610972,-0.25665197,0.093157239,-0.36813748,0.82098836,0.52145368,0.0097343475,0.64016646,-0.28552973,-0.10919631,-0.0093739554,-0.22452505,0.023138177,0.15836565,-0.56444442,0.24150403,-0.012167564,0.020405823,-0.012042029,0.051449154,-0.34141082,0.097429402,-0.28507954,0.068021566,-0.31567502,-0.15085526,-0.65078753,0.18345347,0.10623166,-1.3147846,-0.066223234,0.0015253311,-0.26478606,0.43354598,0.12605961,0.34388974,-0.15435168,-0.23128277,-0.083297737,0.024097148,-0.32346222,-0.60443836,-0.0074406415,-0.18320014,-0.05084002,-0.33331648,0.38921186,0.37455317,-0.36406747,-0.0027420328,-0.4287824,-0.054002825,0.01813085,-0.25787669,0.05971659,0.034823004,-0.25924462,-0.5298838,0.1579933,-0.051547118,-0.50839043,0.33286422,-0.41804829,0.13894589,-0.17954427,-0.13627356,0.0092727132,0.093623675,-0.32621291,-0.59786576,0.11945274,-0.22581287,-0.42073631,0.31208679,-0.5322302,0.068941742,0.34788126,0.54575384,0.22626948,-0.13452941,-0.12631106,-0.31651953,-0.26215774,-0.32206896,-0.057762213,0.30848029,0.056233484,-0.0075641093,0.53756994,-0.24120837,0.10927653,-0.60836041,-0.62785161,0.22760612,-0.10035355,-0.023522127,0.57053727,-0.13170464,-0.11032607,0.55460751,0.15859586,-0.15358873,-0.11873544,-0.27811161,-0.026574841,0.28868806,-0.028957792,-0.090547256,0.12559325,-0.41793656,0.34759766,-0.064197637,0.035982452,0.35358241,0.0069744824,0.30021557,-0.38162851,0.43932587,-0.40481082,-0.03232399,0.37077221,0.62702614,0.35980991,-0.080137424,-0.10184705,0.37304711,-0.15608491,0.37701094,-0.6262489,0.64274716,-0.067384385,-0.18107104,-0.42174396,-0.14579743,-0.063741729,0.15599461,-0.13996589,0.17139322,0.16256265,0.0078304829,-0.15322697,0.12669948,-0.36441675,0.018655699,0.34052533,-0.17557718,-0.083154872,0.17846206,-0.32252869,-0.16619368,-0.13933249,-0.6884855,0.23324771,-0.021094296,0.36300412,0.56297982,-0.23492096,0.54015011,0.0083084628,-0.23334861,0.14225714,-0.0085486937,-0.024754649,0.084362812,-0.072403349,-0.34381795,0.052474756,0.35672662,-0.3606312,-0.29815993,0.16996463,-0.50279045,0.061564885,-0.56541538,0.22875094,-0.27322808,-0.44602668,-0.4824253,0.33337605,0.56267202,-0.27763933,0.39594933,-0.082640186,-0.071330443,0.14599746,-0.0050854087,0.025473896,-0.40177312,0.46294346,-0.18681237,0.064831533,0.4064303,0.36313996,-0.2988106,0.072468996,-0.043532003,-0.26078561,-0.35212794,0.025288954,-0.45899031,-0.033798609,-0.34250721,0.18630713,-0.076784693,-0.23550943,-0.31862518,-0.1385764,0.30835569,-0.27511188,0.18414986,-0.39305565,0.20103575,0.097322062,0.32335258,-0.062085737,-0.26779047,0.0025573839,-0.22192313,0.3271423,-0.40333971,-0.1511205,0.51272285,-0.081322595,0.29080743,-0.039819282,-0.18861417,-0.039587982,0.0055254488,0.25168067,0.46104574,0.075220391,-0.00094221969,-0.34638679,0.15885755,-0.20710798,0.16995874,-0.080461763,0.49013975,0.13296294,0.035846155,-0.63132465,-0.28939739,-0.053493291,-0.090382323,-0.34381735,0.30998459,0.038992304,0.21778905,-0.24552305,0.0019714348,-0.11042378,-0.20017442,-0.63340044,-0.26430732,0.094657272,-0.085656866,-0.59862566,0.075902633,-0.035104327,0.26091781,-0.038121175,0.35192317,-0.037499394,0.073497832,-0.66708744,0.0188908,-0.19263567,-0.22419026,-0.24586593,0.015377939,-0.11368708,-0.016250135,0.23006922,-0.46719775,-0.22752658,0.17317034,-0.071725078,-0.38018602,-0.03049564,-0.012425934,0.017958719,0.16052867,0.15959907,-0.59036601,0.10814378,-0.35531515,-0.29492295,0.64307517,0.13585755,-0.30067992,-0.28372887,0.21501364,0.034079012,-0.042488448,-0.19708239,-0.31741232,0.061625488,0.16397992,-0.0099446978,-0.023587404,0.38882768,-0.044813477,-0.30228099,0.084974363,-0.0056823888,-0.47919309,-0.10348377,0.1983605,0.58071506,-0.1070453,-0.12795934,-0.34627751,0.36286074,-0.17485526,0.11124033,-0.16425581,-0.10249325,0.31404427,0.29779848,0.65956086,0.10016108,-0.12199939,-0.23832381,-0.42341155,-0.12787215,0.26709494,0.56257379,-0.36905959,0.10548645,0.17745072,0.1702023,0.027695378,-0.5326544,0.10474693,-0.15522283,-0.46289748,0.40007856,0.57398021,0.14202642,-0.24843062,-0.2762439,0.41911456,0.26213393,0.22598569,-0.69098985,-0.20300314,0.015806986,-0.62186891,-0.57714951,0.62755418,-0.25267181,0.0785712,0.13435954,0.10178772,0.03886186,0.0086118011,-0.33016127,-0.32000059,-0.17475402,-0.12932047,-0.05019322,-0.12382996,-0.132558,0.27062532,-0.10418891,0.033928566,0.16167031,-0.21427774,0.080210552,0.073633924,-0.20135021,0.036789786,0.01246884,-0.2361989,-0.23159431,0.0025096876,-0.1918457,-0.0087738484,-0.096503571,-0.34815496,0.26578662,-0.4648557,-0.074763276,0.269393,-0.20557603,-0.34006602,-0.16419363,0.29650512,-0.30708551,-0.052637786,-0.29159218,-0.53615588,-0.235926,0.23883779,-0.1078376,0.23257095,-0.038893361,0.24743542,-0.24775609,0.22488201,0.11915761,-0.16529268,0.053086158,0.089935631,0.16525619,0.11863405,0.36579731,0.11537366,-0.1830309,0.15087393,-0.16275619,0.018570047,-0.27505115,-0.046820655,0.12401215,0.5546065,0.039356135,-0.090148412,-0.44840345,-0.90181494,-0.27898014,-0.34256625,-0.067691632,-0.14065121,-0.12920921,-0.034178667,0.10714291,0.13160619,0.084344834,0.071061872,0.095968045,-0.41012642,-0.14324267,0.33360699,0.50045091,-0.3882536,-0.24652532,0.074810825,-0.097247161,0.30776882,0.029479589,-0.16644196,-0.0066286661,-0.51850075,0.37680197,0.18627958,0.53241223,-0.54066807,0.2084512,0.34223592,0.15032154,-0.088453926,-0.63463676,0.21938711,0.1229257,-0.48838383,0.18399493,0.27398071,0.080507591,-0.13165976,-0.14845368,0.39208946,-0.46028391,-0.22170039,-0.36043867,-0.43863133,-0.062482055,-0.13943821,0.098450661,0.20029286,-0.13642518,-0.099846788,-0.14299542,0.15042055,-0.10214955,-0.28749442,0.43519703,-0.0056857853,-0.10474775,0.40216011,0.14605065,0.17816105,-0.20968322,0.15926442,-0.48777723,0.35029241,-0.32697436,0.036619905,0.30848265,-0.33251819,-0.21347824,0.020839293,-0.27984035,-0.11020689,-0.24745362,0.11226712,0.039461959,-0.21371838,-0.10249259,-0.40609261,0.027582264,0.22457966,0.19253168,0.24275514,-0.019888824,0.30459589,-0.17972697,0.17008677,-0.10811897,0.1960766,0.14253376,-0.043295894,0.07266096,-0.040040098,-0.055801861,0.093326971,0.12238168,0.026753519,-0.2086477,0.050450735,0.18600985,-0.27681565,0.3483384,0.34095898,-0.068723626,0.11076438,0.0089109289,-0.42866069,-0.020732602,-0.14204755,-0.06608475,-0.00023188411,-0.22157595,-0.18396257,-0.041775148,0.12541537,0.21451391,0.35229558,-0.090624653,-0.36755347,0.0386298,-0.30230471,0.18450463,-0.048440471,-0.20277853,0.14311466,0.0046693394,-0.12939362,0.19101463,0.14492497,0.11727316,0.11744877,0.083674416,0.30822274,0.16009428,0.02639918,-0.30691969,-0.016216261,-0.29705518,0.48439229,0.36523068,-0.14426087,0.12755303,-0.38413405,-0.21941161,-0.32147786,0.0705617,0.22454615,-0.38814053,-0.092358574,-0.33819225,-0.21969402,0.063417293,-0.066900946,-0.031966403,0.14778677,-0.069326714,0.20657103,-0.12479357,-0.2402194,-0.17792673,-0.047595099,-0.17288809,-0.12167704,0.21314341,0.49859583,-0.057439055,0.1875847,-0.012727271,0.0021230099
-0.072703555,0.18545498,-0.095460825,0.033922981,-0.004590489,-0.084320068,0.074160062,0.052627522,-0.064751059,0.053711213,-0.05740118,-0.067434676
-0.17863213,0.083935879,0.32023713,0.074025385,0.10775391,0.062194232,0.39143804,-0.058534924,0.27661794,-0.011418083,0.30692664,-0.82448244,-0.018506771,0.12940241,-0.012489545,-0.085666224,-0.55628026,-0.18505487,-0.043954045,0.13709767,-0.33804142,0.10945818,-0.045105305,0.10789294,0.22099552,-0.024092892,0.15814906,-0.091356941,-1.6525514,-0.1244735,0.20448674,-0.32460284,0.081933349,-0.12980644,0.25523001,-0.015361818,0.11473701,0.27406967,-0.078289315,-0.040333152,0.10582052,0.44224763,-1.4433181,-0.058667216,-0.0012850126,-0.017733755,-0.04450357,-1.9088297,-0.061500505,-0.4698545,0.15257271,-0.11742442,0.0042871335,0.081970155,-0.059279814,0.059358384,0.043125298,-0.023579679,-0.11172715,0.22831754,-0.13278389,-0.049874142,-0.16228636,-0.23128216,-0.050200395,0.10900947,0.25312954,-0.30350119,0.49028334,0.063550122,-0.04934806,-0.11684931,-0.018440614,0.020878727,-0.049000137,-0.053669643,-0.079233743,0.19730976,-0.32189125,-0.0705643,-0.61621374,-0.21205665,-0.059960749,-0.20930262,-0.17432959,-0.074972913,-0.043757297,0.10467636,-0.097359896,-0.062628582,0.086342096,-0.48295319,0.012274123,0.22248617,0.14076284,0.059087098,-0.0061228969,0.044412285,-0.86718357,0.046414524,0.19363576,-0.0088531943,-0.038554344,-0.042283807,-0.022865815,0.11221005,-0.048597511,0.10642403,-0.02483701,-0.33534989,-0.017344702,-0.12062515,-0.04920157,0.60816586,-0.0098560052,0.059758447,0.28621456,-0.10052779,0.10594157,0.068769284,-0.012326891,0.053950157,0.0044202926,0.13063592,0.059941381,0.033697031,0.11656968,0.090120271,-0.058031768,0.024869418,-0.18721841,-0.068915032,-0.01180143,-0.071082801,0.07976979,-0.063721009,-1.3139457,0.024733014,0.15182422,0.31456184,-0.087499246,0.12354449,0.24319854,0.21519023,0.029937288,0.28682843,-0.026278259,0.10741418,0.017245157,0.23039238,0.22522576,0.011493061,-0.024603248,-0.041756827,0.050105419,-0.047561057,-0.49268061,-0.047497742,0.39922392,-0.023656012,-0.50313157,0.076617122,-0.32296297,0.13905969,-0.063148759,-0.10442315,-0.094775878,-0.11830565,0.13495228,0.1654201,-0.16487367,0.042503972,-0.56456167,-0.80594957,-0.13185187,-0.079788961,-0.0070384317,-0.1356364,0.0076679527,-0.48778692,-0.013936737,-0.52375561,-0.12551159,-0.10306609,-0.42321414,-0.0568044,-0.042087261,0.39377454,-0.5356648,0.11623849,0.1438151,0.057292126,-0.41680321,0.036141135,-0.048450887,0.025691437,-0.0062224478,-0.21908593,0.15188469,-0.33079338,-0.53015798,-0.34603435,-0.013249504,0.13776064,-0.072694585,-0.015986081,0.038459398,-0.20291813,-0.35161248,-0.10346227,0.032790188,-0.2064933,-0.26427612,0.22247294,-0.0096020121,0.019282402,-0.62006712,-0.070862286,0.040275995,-0.074437037,-0.20238744,-0.12993927,-0.45670003,-0.52101988,-0.32441601,0.1852012,0.066306464,0.20978002,-0.0039930497,-0.037772324,-0.25696924,0.72436821,-0.0048472309,0.099077918,-0.19402915,-0.0075705838,-0.16143125,0.1022718,0.64088219,-0.1791342,-1.1409855,-0.00045919424,-0.042088639,-0.28569987,-0.36901966,-0.026334574,-0.00997598,0.18666218,-0.18628077,0.55491692,0.012966954,-0.10465304,0.42366549,0.41896221,0.044467967,0.32071587,-0.065203927,-0.031415809,-0.25562474,-0.0071035028,-0.392993,-0.41715112,-0.228938,-0.0066425893,-0.40994093,0.0079216287,0.37574083,-0.19210309,-0.16998702,0.087749235,0.11491117,-0.16051324,-0.14986177,0.022782424,-0.087071054,0.05457234,-0.46166289,-0.64008808,-0.025591552,-0.130714,0.45871741,0.051424392,0.20102237,0.10472563,-0.97937506,0.20411713,-0.29026106,-0.4093135,-1.0202235,0.38025749,0.46145797,-0.73366284,0.32354829,0.11477491,0.12548786,-0.30472982,0.25407293,-0.32461259,-0.61704874,-0.0035023482,-0.31063828,-0.25596866,0.64045882,0.035093356,0.058480937,-0.5492723,-0.031218678,0.55175108,0.44637662,0.24089806,0.43343443,0.58703971,0.66444439,0.36858097,-0.24482323,-0.005353143,-0.22381857,0.13364318,-0.46655455,-0.19991539,0.52373946,0.38933328,-0.020658921,-0.041025206,-0.0064565674,-0.0083656088,-0.017350316,0.1031201,0.047121216,0.076079808,-0.55069774,0.7262165,0.14459057,0.37460941,0.06396994,0.040452287,-0.31151137,-0.064531282,0.071836621,-0.20289637,-0.37377968,-0.011093329,-0.2768054,0.51329726,-0.27288142,0.083893538,0.37393922,0.089907482,-0.15430926,0.081787691,0.0683906,0.076367401,0.18720961,0.32119405,-0.1478669,0.083555162,0.19873443,0.086848743,0.057217918,0.38036975,-0.044306736,0.018901041,0.11763851,0.48946518,0.065537952,0.21187566,0.17120537,0.093756773,0.4189831,0.10762868,0.21082874,0.72381437,0.33088529,0.022080932,0.059440289,0.1676881,0.04467576,0.0431467,-0.07903786,-0.036791995,0.10781285,0.13003464,0.29547217,0.058082014,0.17506906,0.073400043,0.11624624,-0.038493548,0.10208103,-0.072122194,-0.03823271,0.094955668,0.42560348,0.34088519,0.75100112,0.044031106,0.093471996,0.33658883,0.097672835,0.10022964,0.061653633,0.58241522,-0.13664161,0.063090198,0.32623768,-0.038582016,0.071355775,0.41485441,-0.078240789,0.32417309,-0.24182235,0.212341,0.077039294,0.18383239,0.31847808,0.34411734,0.083900988,0.1337809,-0.23533376,-0.30064031,-0.13384609,0.1024563,0.26985651,0.091407478,0.098082766,0.29671121,0.22907212,0.11992918,0.13821451,-0.026264234,0.114662,0.52684212,0.45163813,0.42911518,0.090316482,0.45273352,-0.067435794,0.04182139,0.23660007,-0.013234141,-0.25856191,0.11701702,0.32678181,0.50293005,0.12350775,0.097993776,0.114409,0.54103523,0.41555971,-0.081627779,0.47188646,0.17292988,0.24683169,0.1462875,0.56343371,-0.3616136,-0.1366576,0.63544029,0.12033127,0.31261954,0.12145805,0.4296335,0.55640149,-0.044474524,-0.046082657,0.20771259,0.36121559,-0.3297483,0.38281217,0.50215048,0.1252847,0.46812788,0.06425564,0.13161951,0.58442646,0.053248324,0.24912545,0.037619606,0.029888254,-0.05647007,0.54789376,-0.017669583,0.19777897,-0.24546367,-0.17077494,0.35577151,0.17276363,0.044856265,0.10763463,0.41676527,-0.12813678,0.035376608,0.14260957,0.11788318,0.15044305,0.083753705,0.13097413,0.091763631,0.23719217,-0.013787617,0.04572475,0.69835794,0.12896851,-0.060147218,0.13866124,0.49978629,0.21885635,0.4329716,0.15621939,0.087828949,0.62638289,0.53123319,0.33124059,-0.20374057,-0.24299437,0.47050288,-0.043757491,-0.16158849,-0.62348837,0.063130066,-0.0070714452,0.38820732,0.014164333,0.30630299,-0.72135401,0.36625743,0.28973851,-0.0082657086,-0.0020910932,-0.2682656,0.59659481,0.050472837,-0.32301068,0.2949492,-0.14503713,-0.0046068798,-0.44041222,0.069837555,-0.00038254884,-0.079584509,0.039828449,0.47436637,0.32513893,-0.11760107,0.40763685,0.11493041,0.16617724,0.023147836,0.197868,0.18576549,-0.67419022,-0.15471092,-0.018310811,0.032787744,0.36351141,-0.35574552,-0.0071186949,-0.0025415395,-0.77646846,0.06483645,0.22798382,-0.19654433,1.3143191,-0.055057716,-0.32813567,-0.20429268,0.65636289,0.25072888,-0.46042883,-0.20185861,-0.030764114,-0.068006992,0.3433558,-0.46540493,-0.020903023,0.23027763,-0.38871101,-0.018169351,0.27264377,-0.26384127,0.22027887,0.14112002,0.3410387,0.017415389,-0.11877988,-0.10724574,-0.26506326,0.043462057,-0.0042281579,0.20477524,0.56965768,0.26032698,0.037014253,-0.95657527,0.34331602,-0.46797785,0.11610267,0.47297528,0.017842365,-0.032349866,0.22697556,-0.048393354,-0.32954684,-0.3821975,-0.38863775,-0.029338364,-0.075122125,0.073103219,0.0022851166,0.1201113,0.0025712166,-0.23002349,-0.24158609,-0.18792465,-0.30599707,-0.012062327,0.2043889,0.0031453697,-0.27995533,-0.21233542,0.10425909,-0.26328406,0.29669589,0.44426993,-0.1763497,-0.012998027,0.07410033,0.34213093,0.094066024,-0.37313789,0.19194087,0.50781989,-0.4865481,0.059222464,0.37943086,-0.48908865,0.0086725,-0.34223956,0.44757453,-0.3437674,-0.18889424,-0.0161548,0.082740203,0.5615927,0.12758651,0.061648685,-0.040980976,-0.24583165,0.021058338,-0.73411387,-0.424043,-0.074961945,0.15698545,-0.17259979,0.1295338,-0.1185218,-0.015951429,-0.16682418,-0.41296008,0.0063620224,-0.13849001,0.20742978,-0.35599142,-0.31704149,-0.28970194,0.021166621,-0.0025218341,0.1732702,0.0095625995,0.022041582,0.16404995,-0.36740994,-0.067828335,0.3955979,-0.75670737,-0.096123211,-0.34930557,-0.0148961,0.16084975,-0.0020361608,0.42301571,-0.434789,-0.24838674,-0.58236969,-0.70543987,0.095880151,-0.25910059,0.10988796,0.016803095,0.24413031,0.19599709,0.081020594,0.39247909,0.0025725025,0.3957361,-0.030068228,-0.10365181,0.17170727,-0.0063678711,0.057275027,0.074140668,-0.17472775,0.034109022,0.12870394,-0.032284677,0.20882125,0.059556723,0.41002813,0.52505869,-0.0030205417,0.19505614,0.083361775,-0.35834229,-0.12862362,0.3974131,0.039543997,0.27080256,-0.058128718,0.010453541,0.17135553,-0.056656387,0.24664319,0.016097244,0.039781801,0.40850487,0.41102979,0.18367256,-0.0019666501,0.039559111,-0.072616875,0.041835148,-0.1050075,-0.46144602,-0.27796111,0.38826934,0.0589724,-0.13602158,0.54365146,0.18990286,0.44767919,0.19526258,0.0040334435,0.081807852,0.22032699,-0.091623068,-0.0081585869,0.32052168,-0.043316811,0.039833415,0.48572913,0.30081469,-0.059023906,0.64009571,0.16914956,0.036256231,0.12011221,0.40960309,0.49597856,0.021762045,0.0032927317,-0.55757338,0.044347785,-0.15352114,0.032949619,-0.082183182,0.15957485,0.16903827,0.19897491,-0.079201944,-0.036493,0.0038987384,-0.25151062,0.039322209,0.13653569,0.13407202,0.00021433822,0.010816237,-0.07117036,-0.001735652,0.091950677,0.09305121,-0.01095549,-0.19905975,0.30156571,0.038344122,0.31073835,-0.028369591,-0.18911248,-0.0017454079,0.4567045,0.32818553,0.63887846,0.26040924,-0.088693433,0.44559509,0.3197926,-0.016747706,0.32284623,0.047687296,-0.03043548,0.16449091,-0.19180851,-0.46604142,0.27715999,0.32625747,0.11882281,0.1975418,0.047991004,0.58315521,-0.10271985,0.60655266,-0.1157409,0.022881769,0.32094872,-0.17318873,-0.033560488,0.19973433,0.16694081,-0.18980148,0.091929451,-0.14455131,-0.25800481,0.37749946,0.042744666,0.067842469,-0.14025939,0.11979195,0.34234548,0.068249911,0.26991624,0.41954568,0.36385858,0.21990822,0.69399518,0.026075197,0.21614805,0.04830125,0.03715311,0.17958669,0.014201024,0.24876261,0.2412584,0.1577677,0.20436962,-0.068013445,0.33629954,0.33562678,0.53928816,0.092060708,0.24177323,0.017050231,-0.033520844,0.34725833,-0.033969186,0.02187288,0.028013252,-0.14090696,-0.65828007,0.1883499,-0.92981446,-0.46638358,0.41469753,0.046514034,-0.58384877,0.0045652064,0.53662699,-0.1614235,1.1890272,0.67081434,-0.014178259,0.027194098,0.7416212,-0.23675746,-0.82103741,0.24180505,0.054766309,0.022031855,0.032802898,0.030270901,0.42247978,0.01120533,-0.32095808,0.22456415,0.3879593,0.029027147,0.42098081,-0.33249986,0.58320981,-0.11720919,1.6407936,0.030301092,-0.12420208,0.34576759,-0.076923721,0.0326083,0.12361225,-0.19037893,0.017286431,0.049830724,0.0046822024,0.42518869,0.031373002,-0.20007078,-0.17702901,-0.17590721,-0.14960289,0.20410298,-0.37379795,0.043920405,0.085366406,-0.16004981,-0.020524528,0.0020903072,0.015078579,-0.25041139,-0.020804474,0.040696569,-0.13911828,0.38931382,0.0033436038,-0.1381216,0.24269265,0.036791846,0.056400213,-0.023748254,0.026371347,-0.093954153,0.40348804,0.13513866,-0.044145487,0.053648099,0.12082879,-0.5846107,0.085252918,0.049442753,-0.41933003,0.24978179,-0.56649691,-0.21600105,0.12188914,0.045493554,0.056059163,-0.48824227,-0.035875492,0.15226851,-0.10610572,-0.29764432,0.022037491,-0.41506901,0.036245227,1.2379698,0.07964889,-0.039045606,-0.0086140512,0.033474278,-0.5585807,-0.050687831,0.012574471,-0.088183001,-0.0031826377,-0.1543337,0.21371678,-0.71738058,-0.22397438,0.26724541,0.018288124,0.43191665,-0.30350783,0.31543896,0.014477127,0.0076703168,-0.21957435,-0.1418532,-0.66544479,-0.1055451,0.10874642,0.22691637,-0.5850727,-0.025103778,-0.085888915,-0.33398756,0.17097777,0.1337463,-0.01297939,0.0043455316,0.41150299,-0.27468094,-0.50125492,0.20489486,-0.036859337,-0.021597818,-0.40807471,-0.28382841,-0.17050985,-0.84304225,-1.0825565,0.0056345728,-0.25374228,0.083630316,0.036624476,0.086725347,-0.27097505,-0.30243951,-0.10034312,-0.43107674,-0.11494682,0.1222622,-0.0063527687,-0.014266924,0.28073579,0.013796073,0.010752046,0.75751281,-0.079760224,0.13131112,-0.19181614,0.044929117,1.0978384,-0.20385903,-0.036324404,0.12602635,0.045215648,-0.13981335,-0.09456972,-0.61753976,0.37671208,-0.40060824,-0.10306063,-0.0042249109,-0.17320193,-0.10918298,-0.068272226,-0.099803977,-0.014488804,-0.094753452,-0.01274033,-0.14204398,-0.67905676,0.075538829,0.075207859,-0.01047876,-0.08178091,-0.44180748,0.22655685,-0.046757873,-0.23088235,-0.044296764,0.041870423,-0.009538033,-0.76075214,-0.2004876,-0.061110076,0.07246387,-0.027604971,0.24623139,0.17897455,-0.18059562,0.057644963,-0.25729239,0.0011714884,-0.53237271,0.064064369,-0.078171037,-0.52697146,0.034845218,-0.074479595,-0.38819212,-0.24660611,0.15870444,0.0064494992,-0.03577153,0.11260127,-0.056090906,-0.15842858,0.13357686,0.50109524,-0.050000239,0.07922855,-0.095334388,0.20808589,0.54647768,-0.096957438,-0.14231132,-0.043622635,-0.0036336069,-0.17918018,0.114649,-0.026995489,0.0014069019,-0.35692877,-0.029621039,-0.20757036,0.087004177,0.54607129,0.11837059,0.22207564,0.0022057944,-0.07054922,-0.027931627,0.014058609,-0.030146124,-0.045236345,-0.34415603,-0.21898791,0.29595384,-0.0051682647,-0.057011828,-0.20730163,-0.51403797,0.18103664,-0.045512192,-0.0062023751,-0.014249658,-0.1189645,-0.056012556,0.21955673,-0.094612807,0.088041246,-0.013189144,-0.026882883,-0.055725444,-0.16173959,0.32938144,-0.16539539,0.32985088,-0.29746598,-0.11301379,0.079804957,-0.052420214,-0.075778522,-0.015188319,-0.0097776121,0.018143808,-0.034264371,0.032139435,0.28632531,0.41996345,-0.0066022989,0.24251428,0.080214694,0.1568771,0.22422691,-0.39214909,0.090523332,-0.4994292,0.045496985,0.13165821,0.44884065,-1.4860733,-0.15808997,-0.043691702,0.084296986,-0.031872757,0.061255097,-0.0046336357,0.13598609,0.14764196,0.073838703,0.0853488,-0.13722117,0.047609735,-0.035040271,0.070334502,0.34308875,0.07699424,-0.14201921,0.3754952,0.16054833,0.011165407,-0.3246479,-0.23539807,-0.30742976,0.051358987,-0.12146327,0.50483245,-0.062633969,-0.12018292,-0.28516865,-0.041728646,-0.040160652,-0.063128494,-0.031112701,0.18528318,-0.21449907,-0.7382248,0.16893551,-0.38915986,0.051013354,-0.0960676,-0.034657415,-0.076905347,0.041359752,0.0067834076,-0.17280488,0.10439409,-0.057025157,0.28225619,-0.10541163,0.50646567,-0.51880586,-0.00012575461,-0.66707116,-0.38244337,-0.27528888,-0.023209006,-0.41311768,-0.010984264,-0.40333772,0.041409612,-1.8224971,-0.72294712,-0.0034422763,0.023610361,-0.22252484,-0.30881181,-0.19276257,-0.089325622,0.16905959,0.65163463,-0.051953051,0.41244149,0.49041936,-0.043949995,0.30531624,-0.14854608,-0.28449026,0.30554122,0.68192863,-0.16185315,0.099689513,0.034258958,-0.78472465,-0.28852695,-0.5775761,-0.046288621,0.081950657,0.030089621,0.61185598,0.35729396,-0.34906819,-0.027512448,-0.070163965,0.027283946,0.010853951,-0.011367406,0.015836654,-0.80021417,0.050121121,0.14032422,-0.16483085,0.35559943,-0.42222628,0.27084553,0.27813661,0.005114946,0.0046693957,0.15112965,0.45505488,-0.0046078321,0.34541097,-0.40485224,0.012960036,0.14268169,0.51049346,0.75929946,0.063491642,-0.56111842,0.0030367048,0.0115109,0.10514116,0.016093744,-0.036921199,0.010326411,-0.0067605278,-0.47194254,-0.87717628,0.013129245,-0.85334963,-0.0086830733,1.3812141,0.16432233,0.13752621,-0.063206367,0.011424029,0.44848785,-0.058250606,0.42585957,0.064795204,-0.62837029,-0.021647891,0.26023826,0.49744901,1.2876364,0.13850281,0.24450226,-1.7957437,0.19701557,-0.17909847,0.23917852,0.026465114,0.20820792,-0.036778748,-0.05729571,-0.046410874,-0.15645683,-0.16094883,-0.47593257,-0.50827402,-0.24099652,-0.055047695,0.24548551,-1.7387034,0.71177101,-0.3503373,0.032614477,-1.0251398,0.44721353,0.12799169,0.28831896,0.32476634,0.071908042,-0.21764001,0.21651471,-0.078644454,0.073775291,-0.068162292,0.51088321,0.34514257,-1.2791241,0.75765061,-0.15558419,-0.17511925,-0.069008715,0.055077497,-0.057193205,0.3451733,0.01009512,0.14589685,-0.038992554,0.66689336,0.34745193,0.2001033,-0.089831345,0.25147685,-0.2490005,-0.080043688,0.20976622,-0.51165336,0.17736821,0.008775549,0.0016689772,0.11133811,0.0040087351,-0.034901772,-0.10772149,1.0734609,0.15914211,0.26792434,-0.27413088,0.71278876,0.10139302,-0.18061282,0.1301095,-0.069016524,0.022881255,0.17559281,-0.005936529,0.51824409,0.011366996,0.16987334,-0.37768781,0.11839242,0.63734573,0.12207814,-0.3308208,0.00091491133,0.071176626,0.014909383,-0.17700918,0.11695389,-0.449839,-0.227143,-0.03455599,0.004589526,-0.68864155,0.18113366,-0.21069667,-0.16477872,0.053415172,0.21084982,-0.009329156,0.15583871,0.1508292,0.0017447066,0.2608248,-0.19934411,0.47362453,0.13962673,0.06763345,-0.19503461,-0.053165834,-0.21056147,-0.40910015,-0.10194408,-0.20932502,0.12370854,0.039521981,0.0019321657,0.16339676,0.019826658,0.013167893,0.034388892,0.025060931,0.24526185,-0.017141361,-0.43853864,0.080808371,-0.24446316,0.1465428,0.39307737,0.38607562,-0.14188755,-0.071958587,0.15231872,-0.018922858,-0.080744393,0.0070409351,0.026809921,-0.90429944,0.048569985,-0.43631846,0.31390312,-0.018405411,0.023235325,-0.010351197,-0.016713176,0.28141743,0.29575944,-0.0064989268,-0.1194453,0.14338006,0.26822159,-0.00092636328,-0.0050621717,-0.42343342,-1.0523165,-0.70094919,-0.03700966,0.56040978,-1.0325592,0.024054719,-0.061253991,0.1408733,-0.049401354,-0.0055869892,-0.29573095,-0.030673541,0.28711581,0.085920341,0.50042665,-0.024560569,0.27371618,0.33455846,-0.17778708,0.18092376,0.09469232,0.14740957,0.082699507,0.26451814,0.25303465,-0.027662411,-0.10143548,-0.032121848,0.28445461,0.28330892,0.061777528,0.31503555,-0.0069486401,0.031543057,-0.13015857,0.4512558,-0.016978195,-0.22372825,0.15759529,0.40209818,-0.07524991,-0.26259193,0.27455789,0.24066515,-0.017054373,-0.28648716,-0.035298277,0.052619517,-0.33299282,0.23111151,0.36822233,0.023479195,0.093377717,0.10950281,-0.32963809,0.18774934,-0.11639402,0.7565822,-0.016232101,0.087143958,0.7106719,0.43886018,-0.31839108,0.20089394,-0.098711371,0.13742827,0.059200171,-0.20204321,0.29382151,-0.55814749,-0.017337125,0.092103675,0.41990215,0.16633698,0.07880567,-0.0082744723,-0.035272326,-0.13100888,-0.053924609,-0.32390359,-0.18125789,0.085421406,0.24916799,-1.0035677,0.16264991,-0.33029035,0.31835899,-0.024824344,0.020582914,0.025902852,-0.089943931,0.34275824,0.30615979,0.25910798,0.094647817,-0.21607967,0.19935457,-0.23609187,-0.01015413,0.18123814,-0.084069394,-0.10640406,0.37000009,-0.10283172,-0.47604194,-0.10322539,-0.046473227,-0.18059373,0.047641084,0.0027681151,-0.26572496,0.080917969,-0.15820879,-0.0090666655,-0.20061359,-0.041322496,-0.039739192,-0.024323897,-0.044701204,-0.045483012,0.15515141,-0.13033959,-0.032260455,0.32921815,-0.2577354,0.0034759424,-0.46816424,-0.13043605,-0.023720469,-0.14281775,0.29584911,-0.042348534,-0.01457216,-0.081869297,-0.19092804,-0.013986502,0.16566971,-0.06500008,-0.087764516,0.20474295,-0.063387342,0.21895884,0.18105449,0.0078066401,0.07126902,0.080542423,-0.29469478,0.13489848,-0.0054945201,0.16834757,0.23065646,-0.026518539,-0.050842363,0.061619893,0.21601994,-0.034511887,0.16684981,0.1533293,-0.084858932,0.16298194,-0.11772663,0.20022722,0.20589806,-0.016024103,-0.0596417,-0.045203872,0.015834223,-0.18221723,-0.10342135,-0.022478908,-0.018906308,0.23058882,0.059290469,-0.048654106,0.00053700543,0.090964504,0.37884015,0.41041905,0.068409115,-0.099409148,-0.071491152,0.11898167,-0.12610106,-0.043097299,-0.10740565,0.076572262,0.010354205,0.085313812,0.22167611,-0.47384885,-0.33663067,-0.15291154,0.058915548,-0.092346512,0.132017,-0.080728985,-0.086477302,-0.24687202,-0.08304324,0.13404551,0.097434103,0.2974965,-0.010119922,-0.24448051,0.23553452,0.17672659,0.14839682,0.11538158,0.32649019,0.016673023,0.22591409,-0.19840743,0.039256345,-0.069319911,-0.10194106,0.23420449,-0.040097479,-0.23721179,0.051118009,0.28813806,0.10814842,0.05316513,-0.15137029,-0.071057327,-0.29784024,-0.1037326,0.18655315,-0.19194084,-0.051285055,-0.034205768,-0.031161493,0.17266558,0.14168112,-0.17281961,0.51821458,-0.098467037,0.4759914,-0.20959601,-0.061667681,-0.10401379,0.027426995,0.12108866,0.10341261,0.23732494,-0.14682123,-0.14084668,-0.031880416,-0.025595794,-0.39500085,-0.11758379,0.15106,-0.39804411,-0.35042772,0.13327962,-0.081378281,0.16569507,-0.14890967,0.037034165,-0.066207737,0.060340114,-0.11423575,0.081222929,0.043737207,0.088721551,0.045895848,0.050008845,0.26755932,-0.55369949,-0.35121933,-0.37389934,-0.0049401131,-0.34265843,-0.031052545,-0.070369929,-0.031118648,-0.10737656,0.36861506,0.025815269,0.051281851,-0.062895685,-0.030326042,-0.54506564,0.1824356,0.15159726,-0.1319733,-0.30438635,0.16838506,0.0160152,-0.12347738,-0.30206621,0.025797391,-0.28125745,-0.026397768,-0.25201601,0.091846518,0.10849947,-0.27866787,-0.67801303,-0.13252394,-0.072856709,-0.31804851,0.77016187,0.25281942,0.075538635,0.015282379,-0.20350808,0.37524462,0.068187244,-0.0314794,-0.028055701,0.24353366,-0.054594595,-0.80299491,-0.10497493,-0.073889911,-0.1418304,0.23871423,0.22351108,0.046781469,0.012800865,0.3200314,-0.092411652,-0.083580799,-0.10167636,0.071149394,-0.02423677,0.011724502,-0.57770061,-1.655467,-0.042856861,0.22645159,0.089980781,0.13210982,0.0084694866,-0.081165798,-0.068669461,-0.032817751,-0.29027745,0.080844186,-0.021024358,-0.0075467611,0.16192974,0.55453664,0.26177412,-0.010203855,-0.16536228,-0.3949472,0.12823945,0.16353641,-0.23338203,-0.038238235,-0.02638003,-0.20664379,-0.025150489,0.070512198,0.37970179,0.086101092,-0.010604871,0.058021363,-0.19429001,-0.22321886,0.11928584,0.24478157,-0.42260993,-0.11829178,-0.095362119,-0.0012499952,0.010747203,0.083385393,-0.0053302683,0.062620841,0.060821179,-0.030893071,0.086042494,-0.27640769,-0.039998572,-0.43458182,0.35807198,0.026581837,-0.55597961,0.36083421,-0.12597208,0.52495259,-0.46981633,0.17448096,0.29964367,-0.017602025,-0.20844372,-0.2968342,0.1480622,-0.18531831,0.2056368,0.14479211,-0.087483622,0.18921849,-0.33133152,-0.28475791,0.41782221,-0.15955253,-0.071566805,-0.021669649,0.051835515,-0.56483656,0.10713854,0.51749814,0.38265115,0.29347354,-0.11624315,0.0087265996,-0.075593576,-0.12566811,0.24644896,0.076824017,-0.26615822,0.21147811,0.51650083,-0.0059982603,-0.060921505,-0.021986021,-0.23908347,0.0073177782,-0.29616362,-0.30434054,0.042625014,0.23956037,-0.53794682,0.16046406,-0.22384888,-0.042777736,-0.068469271,0.1788865,-0.054138761,0.06223185,-0.029601406,0.26251626,0.22959334,0.29772249,0.019621259,0.10101688,-0.042745184,0.10530346,-0.078317031,-0.99026346,-0.02795328,0.091614582,-0.035103705,0.036342569,0.41459647,0.11499564,0.22910893,-0.0067679859,-0.027649458,-0.18482107,0.34733516,0.058385778,-0.068387158,0.15501983,-0.13750827,0.015151863,-0.028062798,0.17759255,-0.079795375,-0.13975701,-0.1988328,0.25576925,0.10680041,0.13051216,-0.44321379,-0.48766372,-0.11451114,0.031428237,-0.18411863,0.12334118,0.31015986,-0.032855891,-0.053760026,0.13121304,0.12064002,0.11956397,-0.032611072,-0.010799761,-0.035379235,-0.023414968,0.1301572,-0.14986576,-0.19385345,0.001013091,-0.063949488,0.058209606,-0.50680315,-0.41370574,-0.0078995852,-0.04173094,-0.02284937,-0.063556023,0.064744122,-0.16174433,-0.062545158,-0.87489307,-0.00043970291,-0.019122951,0.28554314,-0.07753031,-0.60802507,0.030299209,-0.1412074,0.0056258752,-0.045067988,0.055183936,0.20030577,-0.045172248,-0.047942363,0.1746811,0.21877025,-0.057921603,0.034724638,0.146106,-0.39946654,0.14412259,0.36793587,0.20761341,-0.032465622,0.0063964818,-0.077677593,-0.055898659,-0.11366992,-0.065769717,0.13765711,-0.040233918,-0.19759126,0.39081162,0.0073681278,0.094028138,0.27813822,0.058043048,-0.20440644,-0.06696979,0.015136599,-0.076043263,-0.022073565,0.031272959,-0.0022871208,0.047687411,-0.09078636,0.22778681,-0.74049836,-0.858594,-0.17009725,0.047946349,0.11433639,-0.27382821,-0.12287396,-0.022519408,0.10325979,-0.10264916,-0.16303223,0.023079228,0.18715864,0.1535299,0.033287805,0.031260248,0.033817325,0.056879003,0.079700612,-0.06276419,0.10933718,-0.18042435,-0.29363751,0.085197128,-0.20902352,0.24403836,-0.027540538,0.074990265,0.10285097,0.02291169,0.07341823,0.038447633,-0.051337101,-0.017802887,0.21909595,0.034800712,0.043258961,-1.4045821,-0.11094777,-0.20285669,-0.24414591,-0.054722369,-0.084266126,-0.019650804,0.016417373,-0.10372061,-0.037895042,-1.0841634,-0.20810811,0.16746525,0.011082944,-0.065806493,0.012687276,-0.38264847,0.054568149,0.09834516,0.20697154,-0.030775934,0.31643125,-0.1983811,-0.10006693,-0.087405287
0.087695338,-0.1840484,-0.010606591,-0.12673022,-0.04426682,-0.018875265,-0.080790043,-0.072614871,-0.066905849,-0.07839153,-0.14156754,-0.14041249,-0.050452843,-0.14663604,-0.11239085,-0.095540024,-0.2293337,-0.047394153,0.056191079,-0.11798965,-0.096865892,-0.14473309,-0.025222011,-0.086351313,0.03434125,-0.053215258,-0.06334842,-0.14524223,-0.044069625,-0.15778005,-0.063853674,-0.12769353,-0.19482702,-0.17812856,-0.30857703,-0.016277082,0.16500056,-0.048298072,-0.046595652,-0.073672958,-0.070819139,-0.14801008,-0.10608215,-0.03360571,-0.11828396,0.10373381,-0.077571221,0.055805966,-0.06686461,-0.14826149,-0.1195454,-0.051884778,-0.35766086,0.038314983,-0.028131582,-0.131925,-0.078637958,-0.095771424,-0.079984672,-0.20407408,0.081824772,-0.046012044,-0.24934839,-0.13302292,-0.067931212,-0.15579431,-0.039722454,0.16284493,0.16868182,-0.18116333,-0.088417768,-0.2151012,-0.14926217,-0.16789119,-0.093157761,-0.090747304,-0.0021718862,0.16682194,0.061073061,-0.057332173,-0.088058919,-0.16538091,0.094168872,0.039478593,-0.081539474,-0.058602788,-0.093855955,-0.10669567,-0.092521913,-0.10537451,-0.21648791,-0.015021317,-0.055346694,-0.10248731,0.052111443,-0.14813703,-0.025034603,0.063430198,0.15479791,-0.18959397,-0.008411238,-0.175061,-0.10307711,-0.13593617,-0.057125818,-0.097528867,-0.05949619,0.026694804,-0.11852178,-0.20742005,-0.11551788,-0.069875054,-0.055298358,0.12239252,0.11048087,-0.15029675,-0.0034642944,-0.040736683,-0.13332587,-0.17742543,-0.13664669,0.222697,0.0092970785,-0.22399288,-0.17032498,0.13060461,-0.12265411,-0.11462855,-0.12617439,-0.1545926,-0.093110576,-0.14006387,-0.16404332,-0.10101951,0.096559249,-0.06102756,0.0090245986,0.20918339,0.018395746,0.047041312,0.27798891,0.22519703,0.22205834,-0.05306457,-0.1779585,-0.13698782,-0.23970568,-0.22551949,-0.041406862,0.092162125,-0.046486586,-0.13279794,-0.20704475,-0.019067558,-0.21409142,-0.08683788,-0.29225636,-0.034287952,0.01442148,-0.091217518,-0.13892964,0.064100258,-0.12653534,-0.14039762,-0.15643471,-0.14316666,-0.15009393,-0.014869212,-0.1251007,-0.061110251,-0.077390917
-1.1527973,-0.075616077,-0.37460548,-0.93942356,-0.58590639,-0.4150382,-0.42514545,-0.4068785,-0.37422833,-0.33014923,-0.71373415,-0.28825843,-0.1269054,-0.39066362,-0.39480433,-0.79081017,-0.1972035,-0.37536162,-0.44144958,-0.3517336,0.048564594,-0.3668285,-0.43832505,-0.4008213,-0.23466769,-0.20045158,-0.4038901,-0.41802132,-0.36124355,-0.39335918,-0.19419873,-0.40440306,-0.42931184,-0.35201547,-0.42108789,-0.10368834,-0.052836396,-0.3934474,-2.4904723,-0.39973277,-0.20195758,-0.33554333,-1.2030276,-0.08068198,-0.44882193,-0.39790389,-0.11847331,-0.30892861,-0.4283253,-0.42118162,-0.3132464,-0.35437784,0.14721641,-0.37230197,-0.23345141,-0.39877719,-0.41829759,0.097263239,-0.40215561,-0.42738923,-0.61723286,0.088239804,-0.38225853,-0.41111401,-0.42314851,-0.35263219,-0.81283611,-0.15247761,-0.37782174,-0.45225766,-0.726749,-0.41167405,-3.0136678,-0.39015967,-0.41841626,-0.37642246,-0.37074447,-0.3702572,-0.39063403,-0.36171612,-2.4797339,-0.43020222,-0.92523789,-0.41802692,-0.34030315,-0.35226625,-0.3563087,-0.36488107,-0.43926239,-0.37430876,-0.38300258,-0.41343567,-0.393691,-0.39165848,-0.42889059,-0.36752245,-0.37826002,-0.40140939,-0.41798076,-0.36576936,0.042880684,-0.28050214,-0.34751227,-0.11543164,-0.41175529,0.12406278,-0.39996231,-0.38532886,-2.5676086,-0.37153366,-2.4246995,-0.14056562,-0.35636654,-0.20533173,-0.43114573,-0.38883871,-0.38610849,-0.37083304,-0.39598587,-0.31618783,-0.13402198,-0.39548123,-0.059093498,-0.39214167,0.054325584,-0.37139839,-0.38813058,-0.37486061,-0.40049368,-0.38224563,-0.40979108,-0.39212692,0.096889615,-2.1633885,-0.3806316,-0.43232164,-1.5844624,-0.4330819,-0.41292942,-0.40598458,-0.37768662,-0.45101616,-2.4096737,-0.70559496,-1.3604494,-0.218078,-0.44168156,-0.39828634,-0.41021168,-0.34471399,-0.15183923,-0.03549071,-0.4420267,-0.36842287,-0.40119049,-0.38014668,-0.76858473,-0.36918697,-0.38568127,-0.3813293,0.15477484,-0.12508634,-0.2414165,-0.24837506,-0.38959876,-0.73451924,-0.38759533,-2.6961949,-0.36528087,-0.37514514,0.020286066,-0.31781328,-0.6263752,-2.4553812,-0.24188732,-0.82403463,-0.41170469,-0.33917162,-0.39067447,-0.36533156,-0.35290101,-0.92319542,-0.45104581,-0.74827194,-0.37406507,-0.42089361,-0.40944439,-0.36482441,-0.35063902,-0.38319144,-0.42618603,-0.42218772,-0.435532,-0.44889337,-0.43891838,-0.4302316,-0.37879419,-0.37044182,-0.42399934,-0.41521898,0.036064155,-0.39841515,-0.10148071,-0.17924961,-0.074060753,0.011939866,-0.27125853,-0.38207012,-0.75026739,-0.426438,-0.10980739,-2.1461656,-0.089593209,-0.38402542,-0.40547004,0.15249817,0.096520528,0.057979181,-0.40094441,-0.3512654,-0.39690673,-0.427672,-4.5565404e-05,-0.38193884,-0.4238621,-0.42147738,-0.39868,-0.40418127,-0.39142916,-0.42005569,-0.036590263,-0.40603885,-0.36721468,-0.20582348,-0.40684187,-0.34291241,-0.36914593,-0.34229732,-0.39836469,-0.38303789,-0.33888152,-0.35962468,-0.39382955,0.10406222,-0.11433451,-0.37430128,-0.36309636,-0.16652735,-0.40325847,-0.41128787,-0.15034764,0.20523846,-0.3358773,0.023038844,-0.41443431,-0.038702376,-0.19413137,-0.40705249,-0.41245151,-0.40579832,0.11829524,-0.42089048,-0.49919549,-1.2418926,-1.2296851,-0.23564425,-0.4006719,-0.40447745,-0.41657141,-0.31001288,-0.3975676,-0.28521848,-0.43722787,-0.0012879513,-0.37291366,-0.44263074,-0.40730253,-0.65693706,-0.38439971,-0.3987115,-0.39352015,-0.34583706,-0.40411615,-0.35399669,-0.43727323,-0.39164969,-0.35859659,-0.43009803,-0.42612553,-0.39251384,-0.38809782,-0.29674241,-0.39998543,-0.38301229,-0.38790432,-0.41230509,-0.44480592,-0.39810154,-0.40241334,-0.44152477,-0.11475043,-0.34097412,-0.43092403,-0.38147473,-0.69643927,-0.32079324,-0.39348564,-0.41937485,-0.45677781,-0.34042096,-0.14175001,-2.5984604,-0.30847293,-0.31950688,-0.25579315,-0.071807854,-0.35807869,-0.36735177,-0.34618923,-0.38843122,-0.33084995,-0.40861228,-0.35913697,-0.43752047,-0.14133552,-3.725745,-0.027765507,-0.41214073,-0.38622922,-0.35825571,-0.31103837,-0.3547022,-0.41355175,-2.790055,-0.3625966,-0.5588814,0.20498197,-0.38088498,-0.35627416,-0.3853094,-0.018188313,-0.76234186,-0.39544752,-0.3724885,-0.34419268,-0.1083381,-0.34049332,-0.20197257,-0.35433415,-0.36842614,-1.6474322,-0.67031038,0.02645403,-0.40084454,-0.35217783,-0.11013388,-0.41538379,-0.3629145,-0.40028369,-0.39147156,-0.093429573,-0.04561707,-2.927151,-0.37906697,-0.29183844,-0.41493103,-0.053545907,-0.44029319,-0.40830755,-0.37936616,-2.9325562,-0.41439694,-0.82852721,-0.31718338,-0.41918206,-0.41947955,-0.41045448,-0.3404575,-0.38674748,-0.37006587,-0.41217339,-0.37184185,-0.40180776,-0.38239378,-0.36185169,-0.35544771,-0.39313641,-0.41794071,-0.38823184,-0.37294424,-0.40575635,-0.3750487,-0.3607024,-0.37615472,-0.40049484,-0.40725824,-0.41990653,-0.36001435,-0.37465855,-0.37607056,0.0011150672,-0.37021416,-0.16546461,-0.39596742,-0.12909606,-0.36102942,-0.59500927,-0.86596352,-1.0179845,-0.38891444,-0.79806751,-0.1430393,-0.37025741,-0.4117527,-0.43736008,-0.060952593,-0.40880194,-0.40237901,-0.373862,-0.37716651,-3.0874085,-0.36063606,-0.15989596,-0.37831464,-0.39134485,-0.27764311,-0.4013215,-1.8145524,-0.39655676,-0.3856658,-0.51024306,-0.36642697,-0.41534942,-0.37202609,-0.2180005,-0.37150848,-0.27527961,-0.36474246,-0.37770048,-0.40674588,-2.177089,-0.34024337,-0.41331366,-0.40610981,-0.40236232,-0.30079147,0.062200151,-0.32410851,-0.35400143,-0.42807376,0.065766975,-0.77814144,-0.011932578,-0.12192187,-0.38463825,-0.39796919,-0.41715747,-0.34432763,-3.6667564,-0.42160466,-2.4848356,-0.42955035,-1.7105082,-0.38834924,-0.10096908,-0.43801466,-0.58678705,-0.20064241,-0.42994761,-0.37768674,-0.38740107,-0.077142447,-0.37953901,-0.4522289,-0.3704257,-0.44961211,-0.39698648,-1.7119412,-0.39174351,-0.39525801,-1.6311334,-0.36087587,-0.40123153,-0.4366273,-0.40162662,-0.4240655,-0.39563164,-0.35056099,-0.41236684,-0.41508272,-0.38310915,-0.36977732,-0.36333615,-0.38275376,-0.31068173,-0.33939514,-0.39920625,-0.33702144,-0.40783,-0.36169738,-0.84506166,-0.35969242,-0.11848885,-0.43419236,-0.36998248,-0.36929584,0.0014436676,-0.36278787,-0.423612,-0.37574086,-0.36372274,-0.42092907,-0.013677326,-0.38047895,-0.38426271,-0.35575378,-0.41542143,-0.33831391,-0.41468838,-0.38282189,-0.41709089,-0.2708599,-0.39919302,-0.6714018,-0.42532343,-0.11671252,-0.42936075,-0.18113026,-0.36403441,-0.33268479,-0.12672137,-0.40040386,-0.42324841,-0.0083086854,-0.24726477,-0.37428138,-0.36523446,-0.34858167,-0.35595292,-0.33167204,-1.2899041,-0.43011522,-0.35159644,-0.35935289,-0.3945893,-0.23616017,-0.39324734,-0.08783593,-2.0015666,-0.38160023,-0.37498987,-3.1139221,-0.3266682,-0.40817702,-0.36749378,-0.39034203,-0.1025019,-0.39605778,-0.42091644,-0.39264026,-3.3182731,-0.37917021,-0.43749547,-0.35242775,-0.41398388,-0.38100517,-2.284184,-0.38665733,-0.39857921,-0.32834446,-0.23044872,-0.40285689,-0.42111328,-0.46049106,-0.41958243,-1.9732867,-0.36605325,-0.41342208,-0.38894162,-0.38099536,-0.4215292,-0.41300774,-0.35220399,-0.39319146,-0.39199495,-0.39821434,-0.40451452,-0.34002846,-0.42900443,-0.37060213,-0.33775732,-0.36689845,-0.38626823,-0.38355026,-0.35891184,-0.41626823,-0.35996041,-0.3784073,-0.37098044,-0.37602314,-0.38452509,-0.18870813,-0.4021683,-0.078590788,-2.4324331,-0.36372837,-0.298675,-0.14533514,0.10786408,-0.40516141,-0.065530382,-0.027379278,-0.49207893,-0.41522488,-0.22223258,-0.36916617,-2.2330544,-0.042120859,0.063807674,-0.41386044,0.041847624,-0.38130966,-0.30526257,-0.093928441,-0.54948241,-0.33419624,-0.46229607,-0.02556245,-0.3871401,-0.43021378,-0.44976899,-0.42616552,-1.0002798,-0.57424134,-0.11531265,-0.04072772,-0.39102802,-0.42003772,-0.42981949,-0.40923643,-0.1362357,-0.36300784,-0.39228353,-0.36530489,-0.26838347,-0.41300073,-0.12184998,-0.024421772,-0.36214322,-0.38232836,-1.1790657,0.10234184,-0.017213304,-0.34794113,-0.39230499,-0.035848111,-0.41682938,-0.46291617,-0.43471944,-0.36290228,-0.46824118,-0.27646199,-0.87500042,-0.39319202,-0.15313067,-0.4007948,-0.14137352,-0.32067513,-0.39589065,-0.36870459,-1.0325738,-1.4518783,-0.36851251,-2.5214026,-0.35835546,-2.1122193,-0.37560129,-0.37458155,-0.45362955,-0.3393977,-0.41942859,-0.35320771,-0.35373268,-0.38636315,-0.38397023,-0.40712291,-0.37136364,-0.36889249,-0.35749957,-0.39198139,-0.41090578,-0.38368332,-0.41571811,-0.40103799,-0.36659089,-0.36912453,-0.38739994,-0.3487398,-0.37506241,-0.43212929,-1.6393707,-0.0974878,0.025867935,-2.0036573,-0.33370206,0.11473589,-0.10251015,-0.39510587,-0.36379153,-0.39413157,-0.56494313,-0.37760094,-0.42140806,-0.60302663,-0.43302846,-0.1217315,-0.3949351,-0.37685665,-0.37937409,-0.369551,-0.14248145,-0.40835667,-0.0078130411,-0.18980673,-0.15390633,-0.2263861,-0.2434538,-0.38216203,-0.44588837,-0.36197022,-0.35303357,-0.0080419872,-0.3964121,0.031141693,-0.40406382,-0.39901334,-0.41733858,-0.37887013,-0.40266716,-0.38773534,0.050537206,-0.14351751,-2.7386951,-0.40741944,-0.36792624,-0.40837306,-0.3904576,-2.7584062,-0.4418481,-0.47001165,-0.44594914,-0.33226576,-0.36590144,-0.38605794,-0.021180606,-0.5139268,0.0050841412,-0.52069366,-0.40775785,-0.35902536,-0.37206668,-2.8204019,-0.38557106,-0.3754532,-0.073493071,-0.40423986,-0.11954783,-0.38407743,-0.390811,-0.41265601,-0.353172,-0.42586643,-2.2133439,-0.092711173,-1.3642583,-0.40846914,-0.36886895,-0.39239681,-0.38023385,-0.37192312,-0.42696127,-0.92882913,-0.40074572,-0.37470132,-0.39042786,-0.39721406,-0.42253947,-0.41486228,0.099991009,-0.24897531,-0.067051902,-0.0058430629,0.15616912,-0.056675717,-0.13020837,-0.09588217,-0.12040107,-0.053353328,-0.43017587,-0.39188191,-0.010215553,-0.1178585,-0.059565116,-0.071814954,-0.050794147,-0.13776045,-0.074175969,-0.1326679,0.012839401,-0.04492699,-0.10788565,-0.068038076,-0.0052581895,-1.9762607,-0.11023041,-0.065310389,-0.10055641,-0.1034044,-0.49987575,-0.066010244,-0.13496882,-0.34674796,-0.073700406,-0.024297031,-0.052810658,-0.096569516,0.0056760209,-0.13561073,-0.73054409,-0.088158667,-0.21709381,-0.078253284,-0.69530445,-0.080787614,-0.13892983,-0.15916958,-0.0027276981,-0.0632018,-0.42121676,-0.12989902,-0.076045856,-0.10718656,-0.10915542,-0.11321187,-0.11955329,-0.038493697,-0.090390988,-0.10517529,-0.65710276,-0.10291699,-0.14333378,-0.11123279,-0.14101571,-0.098662347,-0.026063694,-0.060251337,-0.099369057,-0.13059358,-0.52010119,-0.14298202,-0.5837636,-0.13395879,-0.1062372,-0.14054869,-0.15236518,-0.053606533,-0.11812699,-0.12326818,-0.047630068,-0.06492275,-0.082223885,-0.059642289,-0.098961569,-0.11741837,-0.14267607,-0.079771176,-0.06530682,-0.099025659,-0.088213995,-0.12291725,-0.13995373,-0.11357898,-0.13811532,-0.13484965,-0.13433965,-0.12846,-0.14653915,-0.059471354,-0.2021939,-0.58232665,0.06508933,-0.07195814,0.015788602,-0.087210618,0.01921623,-0.052837707,-0.070354976,-0.088451296,-0.061247449,0.00018444398,-0.12563895,-0.033483326,-0.066963486,-0.14241764,-0.11961962,-0.060468514,-0.07246469,-0.097579286,-0.032079287,-0.069756739,0.31641144,-0.09180823,-0.08310727,-0.15340734,-0.13893498,-0.10611521,-0.14794892,-0.12859166,-0.13249278,-0.13278194,-0.097163685,-0.068187565,-0.15357056,-0.1005169,0.072298586,-0.091432616,-0.10178552,-0.077286296,-0.096493095,-0.12960066,-0.035950169,-0.035960656,-0.58354819,0.19143823,-0.071741797,-0.10045446,-0.079933755,-0.14326076,-0.58526093,-0.032501467,-0.09088143,-0.063980229,-0.11143281,-0.07967715,-0.087666631,-0.054297507,-0.098718114,-0.12262264,-0.01843082,-0.29310542,-0.073216744,0.19201393,-0.12760171,-0.038867608,-0.054064207,-1.1960549,-0.10659239,-0.11625011,-0.2755397,-0.071844578,-0.44098467,-0.046684001,-0.040180799,-0.063756518,-0.13491942,-0.072092555,-0.071909346,-0.11116181,-0.083330423,-0.01625273,-0.15373084,-0.074430443,-0.10058519,-0.073850237,-0.058699105,-0.11531417,-0.076400638,-0.083169639,-0.088037796,-0.11038832,-0.09178248,-0.072284445,-0.081134893,-0.14682503,-0.11357043,-0.13077214,-0.10472306,-0.15255398,-0.046065636,-0.15155177,-0.064820297,0.091426611,-0.053494215,-0.017891131,-0.20286395,-0.14760964,-0.01456656,-0.14346437,-0.049200479,0.0039209379,0.06416139,-0.13323471,-0.094400004,-0.022825437,-0.048733983,-0.010170218,-0.13836928,-0.11799499,-0.01770803,-0.15242933,-0.074448541,-0.060359161,-0.14851135,-0.11588542,-0.11038888,-0.15439734,-0.081734113,-0.14391559,-0.3136735,-0.082507633,-0.085162163,-0.046714414,-0.097748607,0.0012782516,-0.096014194,-0.10110408,-0.06131313,-0.1066089,-0.043591816,-0.11628439,-0.086169265,0.0010293842,-0.4239417,-0.12544616,-0.1298317,-0.0033629197,-0.064308457,-0.075604938,-0.42989203,-1.0832762,-0.65215337,-0.051680457,-0.080146931,-0.033736207,-0.052197024,-0.1084134,-0.13189444,-0.075341336,-0.35602498,-0.10623632,-0.09617351,-0.41416401,-0.011482415,-0.74197417,-0.099355936,-0.14295815,-0.11036888,-0.06778919,-0.087390706,-0.044064809,-0.11741676,-0.033086844,-0.066794671,-0.085956611,-0.096445322,-0.096521661,-0.1124301,-0.11834396,-0.085301749,-0.073167227,-0.13229163,-0.12444324,-0.10261574,-0.0912145,-0.1269161,-0.10115034,-0.081898794,-0.092421286,-0.15222065,-0.047458086,-0.089666292,-0.064964324,-0.070418172,-0.086605549,-0.095914505,-0.13669214,-0.13357855,-0.055920441,-0.47604132,-0.13414538,-0.07117328,-0.22907732,0.13771769,-1.0092483,-0.087734081,-0.0818066,-0.11486492,-0.11370331,-0.076193959,-0.17865427,-0.050073385,0.13616256,-0.55599296,-0.08627145,-0.098935984,-0.094385326,-0.067617014,-0.10184972,-0.025774671,-0.1264911,-0.072279185,-0.13101354,-0.007188593,-0.38291717,-0.16818058,-0.10987748,-0.14911518,-0.11557637,-0.086772881,-0.14061612,-0.12423089,-0.014388677,-0.091606535,-0.016819604,-0.043747656,-0.077628091,-0.055852186,-0.11567168,-0.046842616,-0.10865146,-0.09489499,-0.041055389,-0.12983531,0.0035960828,-0.074604161,-0.080278121,-0.07272283,-0.089049496,-0.0071153161,-0.12171325,-0.0092918137,-0.074259914,-0.14837258,-0.015483983,-0.12206814,-0.078624681,-0.11676207,-0.12024531,-0.99934524,-0.039068773,0.20772682,-0.07759238,9.7186567e-05,-0.13955985,-0.17701718,-0.14043765,-0.066903397,-0.058339775,-0.13777269,-0.07208211,-0.11454906,-0.052074984,0.0058258148,-0.14095512,-0.12148822,-0.14785473,-0.082590088,-0.088847071,-0.13853632,-0.065571062,-0.091513872,-0.11555767,-0.054265112,-0.10562424,-0.14390212,-0.12482623,-0.07922776,-0.11831307,-0.11064708,-0.067157552,-0.14358628,-0.064700015,-0.053160504,-0.094842367,-0.081926532,-0.12503783,-0.11334924,-0.13174546,-0.0015459363,-0.10731955,-0.030391598,-0.1417421,-0.081174403,-0.11175647,-0.58184934,-0.044587348,-0.097422607,-0.099890225,-0.095566548,-0.0089308796,-0.11638874,-0.084589757,-0.070904031,-0.85077637,-0.069690615,-0.081928477,-0.090730056,-0.080717899,-0.043605957,-0.13984595,-0.070074089,-0.097592935,-0.085186951,0.39927933,-0.12297624,-0.034907479,-0.14618908,-0.1376304,-0.014747942,-0.40354919,-0.11234312,-0.09633936,-0.10111464,-0.10089945,0.082616113,-0.1443451,-0.12199206,-0.10118537,-0.14542846,-0.065817043,-0.11004089,-0.078678548,-0.071975879,-0.014238646,-0.011533017,-0.064823382,-0.11267208,-0.11275606,-0.79125822,-0.077577546,0.013789442,-0.044366311,-0.12803647,-0.072297052,-0.074149005,-0.089463763,-0.027187373,-0.091920361,-0.039946154,-0.12831858,-0.096333817,-0.20360804,-0.086232737,-0.21859331,-0.0062544839,-0.022153862,-0.10192952,-0.11032739,-0.061665788,-0.00081643678,-0.15166146,-0.086921304,-0.14795944,-0.14731398,-0.13085124,-0.042123243,-0.12130972,-0.056553718,-0.023731314,-0.066383496,-0.055746917,-0.064112902,-0.090999208,-0.13922526,-0.12058013,-0.081612647,-0.15082328,-0.15582485,-0.11016593,-0.14854772,-0.13655242,-0.10645865,-0.081110545,-0.11183628,-0.065582968,-0.076381892,-0.13728984,-0.088284664,-0.077114969,-0.1186619,-0.48958284,-0.13860807,-0.13185081,-0.049533963,-1.0846702,-0.10288715,-0.056432534,-0.15027086,-0.12570541,-0.10536066,0.0057635931,-0.081764802,-0.14110276,-0.060798131,-0.085879236,-0.06174792,-0.13384052,-0.090383291,-0.076562501,-0.039015379,-0.068840533,-0.31069535,-0.13501494,0.0043380265,-0.11033259,-0.1085637,-0.079437129,-0.049834527,-0.069348581,-0.058794491,-0.12240881,-0.042305604,-0.037203148,-0.066345833,-0.08869414,-0.078146912,-0.053467464,-0.07014104,-0.093833119,-0.1232235,-0.084920958,-0.057143208,-0.13775457,0.13338493,-0.10835075,-0.072524898,-0.033571079,-0.07847739,-0.089759611,-0.066919684,-0.098181203,-0.13599217,-0.063802302,-0.12938322,-0.10195155,-0.091663487,-0.14753985,-0.061600156,-0.19984812,-0.14453249,0.20593485,-0.10815469,-0.048926573,-0.15488788,-0.35171929,-0.099349231,-0.11578515,-0.13328989,-0.31365016,-0.098074228,-0.093436457,-0.077854566,-0.06390921,-0.53226119,-0.14572811,-0.14745602,-0.098530091,-0.1021948,-0.088017717,-0.071394429,-0.047549717,-0.079669513,-0.075127684,-0.12968118,-0.11680015,-0.065390594,-0.13742857,-0.10923413,-0.061098825,-0.10265069,-0.14009821,-0.096974261,-0.10782279,-0.064999998,-0.076634362,-0.048473649,-0.10265204,-0.058435582,-0.13243891,-0.20497513,-0.11345929,-0.019328894,0.00056331081,-0.10148751,-0.94268215,-0.067452841,-0.059378877,-0.12923777,-0.157708,-0.057357524,-0.096176945,-0.15521465,-0.10623017,-0.074265756,-0.085160814,0.028717242,-0.01942155,-0.12703976,-0.21886265,-0.13191555,-0.36285004,-0.055315576,-0.69849938,-0.096171752,-0.023978051,-0.056295749,-0.10525078,-0.080832027,-0.10984547,-0.058690321,-0.4791106,-0.11296021,-0.20505126,-0.016613903,-0.072587028,-0.13292718,-0.11111636,-0.092255086,0.010071798,-0.099424064,-0.070664741,-0.084623426,-0.052971296,-0.11469393,-0.071820237,0.019341949,-0.12049044,-0.11295806,-0.067918383,-0.083536521,-0.015519025,-0.14235415,-0.13417418,-0.59131706,-0.094853669,-0.083592035,-0.14091825,-0.10643764,-0.091575988,0.039642908,-0.029173769,-0.12372077,-0.46816811,-0.12909393,-1.4270576,-0.14452098,-0.072940253,-0.1183752,-0.042201079,-0.031870164,-0.060468934,-0.033051547,-0.078027107,0.13593696,-0.056068193,-0.1467326,-0.12856899,-0.094507895,-0.11306442,-0.084743693,-0.13540536,-0.14613739,-0.14675792,-0.12690026,-0.12015804,-0.13480403,-0.10226981,-0.11208338,-0.079445176,-0.12225556,-0.087527648,-0.088433467,-0.14361903,-0.11281724,-0.092524357,-0.12819386,-0.084140092,-0.072168447,-0.098055936,-0.16985998,-0.026434604,-0.070612356,-0.10629536,-0.062361322,-0.65287501,-0.10161155,-0.15027717,-0.070875496,0.11881848,-0.051760409,-0.062754929,-0.39833903,-0.14336585,-1.1038569,-0.079802185,-0.080180764,-0.13268964,-0.11692389,-0.052889302,-0.091530368,-0.25359446,0.018254392,-0.048069105,-0.39624465,-0.070286304,-0.1126532,-0.077917136,-0.086628787,-0.089570798,-0.17368877,-0.10309424,-0.083031364,-0.1106794,-0.0023326925,-0.061219536,-0.082261838,-0.086604133,-0.13553621,-0.65565276,-0.028739013,-0.093200609,-0.057803672,-0.083967537,-0.078965545,-0.060548373,-0.019376589,-0.1236195,-0.13646942,-0.35327476,-0.069406837,-0.10675511,-0.059611909,0.32547373,-0.07021752,-0.1068083,-0.013205486,-0.10814012,-0.12481056,-0.083816834,-0.026408082,-0.13754447,-0.11651289,-0.074187011,-0.071467102,0.065455675,-0.1508089,-0.12712802,-0.12895304,-0.13065392,-0.10252276,-0.027698532,-0.035117395,-0.011861826,-0.066050522,-0.097592734,-0.13929494,-0.10431063,-0.12470935,-0.10711249,-0.033840369,-0.031501409,-0.12966771,-0.068862014,-0.098827057,-0.10039426,-0.088802792,-0.21229182,-0.14800374,-0.53214246,-0.2820892,-1.1952223,-0.55890858,-0.57625049,-0.49823147,-0.59325951,-0.55131465,-0.020116067,-0.11747687,0.12533921,-0.51811653,-0.55685526,-0.24752897,0.4544991,-0.56509304,-0.56498218,-0.57051408,-0.31843066,-0.12889171,-0.57462144,-0.45021725,-0.10015273,0.078188442,-0.58559614,-0.58049113,-0.52605671,-0.57452083,-0.15067843,-0.5569523,-0.49947673,-0.10426963,-0.57939625,0.083080284,-0.48076239,-0.57121658,-0.29183394,-0.5693413,-0.1041007,0.046607967,-0.4383969,-0.21614879,0.058424693,-0.57244992,0.21284357,-0.10502683,0.1529282,-0.52919167,-0.41112021,-0.57260573,-0.068369687,-0.5179401,0.17860171,-0.60333902,-0.57468933,0.17684764,-0.5480814,-0.53379291,-0.094201103,-0.13358802,-0.59740573,-0.57484001,-0.62515384,-0.5165593,-1.1529906,0.068919688,-0.4795754,-0.54196751,-0.592094,-0.53883165,-0.054515418,-0.60550022,-0.58494115,-0.5636856,-0.5494163,-0.59661543,-0.6105445,-0.52608699,-0.081115574,-0.5633961,-0.46151483,-0.53409857,-0.48404932,-0.55356938,-0.53387463,-0.55586082,-0.60231739,-0.59670514,-0.53617555,-0.60152608,-0.53975081,-0.54572409,-0.56448221,-0.56512302,-0.57250571,-0.56727582,-0.61549592,-0.54460216,-0.07104747,-0.78990561,-0.91944671,0.41759092,0.29906973,0.1896434,0.13333616,-0.48074254,-0.13832726,-0.55894524,0.087257966,-0.14560859,-0.51103884,-0.88757509,-0.54435557,-0.55739969,-0.49944809,-0.5341959,-0.61521631,-0.53330904,-0.011338482,-0.53017914,-0.43992293,-0.60332686,-0.96543604,-0.52133721,-0.54827791,-0.58908492,-0.57748604,-0.58733618,-0.61944783,-0.58452129,-0.39488935,-0.83902788,-0.60897279,-0.54119241,-0.094797976,-0.62620336,-0.56515706,-0.51697469,-0.56576979,-0.58963263,-0.8350876,-0.52151179,0.20077805,-0.18847798,-0.57505679,-0.50073874,-0.52988321,-0.51091188,-0.37030914,-0.21276507,-0.58123857,-0.5349164,-0.62402296,-0.55320305,-0.70785326,-0.55864608,-0.54214245,-0.54920411,0.37105095,0.2106536,0.052730221,-0.0075055216,-0.54422086,-0.28125879,-0.48098248,-0.14947084,-0.5756793,-0.54553986,0.00076257059,-0.54843765,-0.77372783,-1.0210354,0.11324795,-0.87243414,-0.58956313,-0.58170009,-0.56534237,-0.55826235,-0.53481472,-0.4674629,-0.54548734,-0.11871257,-0.56178421,-0.60559934,-0.54832357,-0.52640045,-0.52991301,-0.54373449,-0.5815804,-0.5579468,-0.55153239,-0.59010971,-0.53727227,-0.60101414,-0.54881537,-0.52162778,-0.57454282,-0.53187513,0.117874,-0.56907517,0.28632954,-0.027033884,-0.16733292,0.18904334,-0.34355506,-0.56961691,-0.030399332,-0.56896681,0.12561083,-0.062419135,0.11278123,-0.57446969,-0.53389543,-0.93595105,-0.12614472,0.29799458,-0.5725494,-0.56062692,0.29963726,-0.58117789,-0.46063438,-0.84896201,-0.57052314,-0.54860073,-0.56262225,-0.5202738,-0.50423872,-0.55665416,-0.24217047,-0.57085598,-0.60181415,0.33904904,-0.53161526,-0.83944368,-0.58135784,-0.51189464,-0.48772243,-0.55526102,-0.95448637,-0.54851317,-0.50132036,-0.0069509461,0.03942766,-0.57308185,-0.51370245,-1.4296293,-0.55966634,-0.6242094,-0.0071750293,-0.099015132,-0.39026836,0.22014092,-0.59725422,-0.31888434,-0.48755658,-0.55162948,-0.51511693,-0.55705351,0.12887448,-0.50067025,0.076076679,-0.80607581,-1.9440126,-0.32573244,-0.60559922,-0.59639704,-0.51550913,-0.50376487,-0.58004528,-1.1948897,-0.54128134,-1.2054288,-0.52043098,-0.54018819,-0.52379012,-0.81918007,-0.49628705,-0.51023591,-0.54081261,-0.52965254,-0.59997243,-0.53432798,-0.50245559,-0.53499049,-0.54005551,-0.5531711,-0.56253552,-0.54883677,-0.61554486,-0.52785051,-0.54284728,-0.55796456,-0.57785565,-0.55366844,-0.55144155,-0.54479355,-0.60295349,-0.59378731,-0.060722642,-0.55601215,-0.59127289,-0.14415923,-0.18535331,-0.17186183,-0.52216733,-0.56490785,-0.5927037,-0.52512419,-0.10316554,0.063267529,-1.2887045,0.11329781,-1.5833389,0.21715125,-0.43506807,-0.55267006,-0.56052476,-0.50837094,-0.25911567,-0.5326162,-0.57157433,-0.56986308,-0.20630476,-0.30188468,-0.13251291,-0.57268679,-0.59273207,-0.60214353,-0.52494413,-0.52918816,-0.54397488,0.10036277,-0.52158016,-0.62376487,-0.21190497,-0.56295961,-0.52771556,-0.60906368,-0.02061669,0.014471134,-0.52660668,-0.09797927,-0.53401285,0.06100338,-0.6150915,-0.63228029,-0.499264,-0.56767255,-0.82541537,-0.10303042,-0.55936563,-0.51537871,-0.58054709,-0.97070336,-0.62579638,-0.59339488,-0.57313901,-0.60996193,0.076721393,-0.17752841,-0.23532805,-0.57996106,0.3094686,-0.55326742,-0.34081069,-0.58991414,-0.50869179,-0.50339919,0.33253542,-0.54613227,0.078249954,-0.53954518,-0.3146466,-0.5367012,-0.52122009,-0.53969771,-0.55840993,-0.62215698,-0.60611069,-0.59316802,-0.53599197,-0.5430029,-0.49315509,-0.50421768,-0.49503899,-0.56182361,-0.60907596,-0.52703094,-0.57307857,-0.57992589,-0.5290609,-0.52952313,-0.51839262,-0.56021285,-0.55691212,-0.5499813,-0.59157038,-0.51813024,0.22024721,-0.62797654,0.068619519,-0.57665765,-0.32520309,-0.55695152,-0.027899342,-2.8370554,-0.056592174,-0.52357453,-0.053390391,-0.37723193,-0.55318856,-0.59382671,-0.54667187,-0.082317747,-0.53303438,-0.54936439,-0.59517944,-0.51077247,0.024913808,-0.46573132,0.029566538,-0.54913634,-0.59214175,-0.18342122,-0.5634129,-0.97592878,-0.62562937,-0.58382171,-2.5074003,-0.89745963,-0.54009128,-0.55270422,-1.7871519,-0.5481776,-0.73748869,-0.56503069,-0.60120749,-0.59115607,-0.22913806,-1.0404003,-0.57799566,-0.54073757,-0.62120569,-0.4022097,0.1161916,-0.53901464,-0.50757521,-0.55976105,-0.084866077,-0.30083254,0.14930196,0.16467616,-0.53783226,-0.59824806,-0.55285305,-0.49273106,-0.21525821,-0.54349941,-0.71629322,-0.57629383,-1.9797143,-0.1045647,0.10881273,0.037152354,-0.25928441,-0.24338935,-0.57236207,-0.53637618,-0.50093812,-0.33376366,-0.58608949,-0.53417087,-0.52597606,-0.52626878,-0.55298024,-0.3352547,-0.50486863,-0.56368077,-0.9030363,-0.55248123,-0.5144785,-0.5690071,-0.60285163,-0.57549798,-0.52040416,-0.59152323,-0.58074623,-0.53243649,-0.56013173,-0.57558072,-0.51205951,-0.50232732,-0.48178661,-0.51245087,-0.50576466,-0.55347615,-0.53090197,-0.5450601,-0.20730704,-0.54762131,-1.276814,-0.58168632,-0.57426292,-0.047494747,0.087006785,-0.59141159,-0.52435452,-0.5945195,-0.49715057,-0.55237991,-0.0053463383,-0.55129033,-0.56004214,-0.51859164,-0.53284591,-0.57418638,-0.55118316,-0.50991285,-0.56422305,-0.44393733,-0.57199419,-0.10971002,-0.53390664,-0.1499539,-0.58745009,0.12359378,-0.6019581,-0.52281642,0.13493073,-0.6362288,-0.54554439,0.079599418,-0.13553792,-0.5214144,-0.53199416,-0.55789912,-0.53381866,-0.52151418,-0.55430907,-0.57114482,-0.54867911,-0.54887789,-0.53829116,-0.32613066,-0.53185892,-0.98960274,-0.69400078,-0.55889964,-0.58893245,0.29929051,-0.54690099,-0.52606404,-0.55076504,-0.5498054,0.136215,-0.53054959,-0.63608813,-0.60822672,0.014547506,-0.58639896,-0.18683352,-0.59241629,-0.46899685,-0.59958863,0.060729697,-0.48033011,-0.53485423,-0.52556062,-0.43841115,-0.59215677,-0.61818975,-0.56320125,-0.55418885,-0.99469095,-0.55518514,-0.53122002,-0.55031216,-0.55105835,-0.58431327,-0.56267822,-0.49782428,-0.60302377,-0.57673883,-0.55879301,-0.57011795,-0.47595826,-0.55035239,-0.50484115,-0.51289159,-0.54373151,-0.54137814,-0.56546009,-0.54778934,-0.56676209,-0.50634414,-0.5257988,-0.54440528,-0.58222389,-0.64540035,0.3257952,-0.41975766,0.010566122,-0.5496189,-0.54286975,-1.554142,0.090825684,0.15032935,-0.54522407,0.21164183,-0.1522167,-0.56312418,-0.60555977,-0.01493483,-0.57258636,-1.1780002,-0.040385589,-0.16182181,-0.56172252,-0.45432222,-0.52925986,0.080594309,0.16579665,-0.80613983,-0.55392939,-0.047921035,0.18465823,-0.5216133,-0.56758928,-0.56328106,-0.56138361,-0.6948269,-0.85504657,-0.5387814,-0.038202729,-0.54708308,-0.604572,-0.5518586,-0.49377635,-0.34660706,-0.59698325,-0.48585096,-0.47098956,-0.56974804,-0.52751219,-0.60086554,0.06755504,-0.56703287,-0.58938712,-0.24065392,-0.51122636,0.31419539,-0.60101479,-0.49789271,-0.43694982,-0.56970721,-0.54638809,-0.53992748,-0.60856599,-0.10694072,0.0089893518,-1.3682491,-0.48180372,-0.37974021,-0.51927572,-0.25992337,-0.53618753,-0.55792934,-0.55276906,-1.413082,0.15191139,-0.53921086,-0.11417957,-0.51943421,-1.219741,-0.55437422,-0.61368215,-0.55186266,-0.54319668,-0.55110115,-0.54287636,-0.58673811,-0.51246566,-0.52927077,-0.52005416,-0.5528667,-0.5714522,-0.55995995,-0.54312038,-0.5029521,-0.57254195,-0.55462569,-0.5662387,-0.54556185,-0.5815028,-0.54822075,-0.49861297,-0.56068909,-0.56882095,-0.091605984,-0.69570798,-0.26718268,-0.037601721,-0.052895069,-0.013569628,0.073203161,-0.5548889,-0.55884063,-0.60742116,-0.63233095,-0.55000865,-0.55911988,-0.54355633,-0.5297761,-0.37432614,-0.59955937,-0.5692178,-0.48883268,-0.61023444,-0.00057231932,-0.5145005,-0.11004272,-0.06179788,-0.65924996,0.15306622,0.1262475,-0.5565722,-0.60720599,-0.58529902,-0.52401298,-0.41013899,-0.57544631,-0.43348581,-0.63399762,-1.5623913,-0.62287819,-0.58625138,-0.53588426,-0.53943747,0.023236575,-0.10512547,-0.30463636,-0.55663073,-0.59996772,-0.60331118,-0.74339032,-1.4619358,-0.54691935,-0.55146819,-0.036493927,-0.54508734,-0.58953106,-0.62371647,-0.32083935,-0.23321256,-0.087552868,-0.23649947,-0.53558481,-0.52282023,-0.60917747,-0.20754524,-0.54832011,-0.53905368,-0.28028798,-0.57339996,0.091027886,-0.589665,-0.55970043,-0.56827253,-0.54871064,-0.60106206,-0.10381272,0.083758391,-0.38305697,-0.60421729,-0.57368147,-0.5834074,-0.55731386,-0.56267226,-0.49117076,-0.4771395,-0.063042499,-0.60034406,-0.5799827,-0.62314272,-0.575656,-0.57562935,0.078469783,-0.28805783,-0.035682037,-0.14854795,-0.24612248,-0.060691755,-0.02623632,-0.0028734449,0.023148147,-0.038099777,-0.048534084,-0.12175465,-0.1352804,0.013257352,-0.016405374,-0.21750584,-0.1771722,-0.067017205,0.0028424109,-0.00099729304,-0.08126805,-0.0489389,0.025802983,-0.056427021,-0.16473334,0.014141218,-0.051032837,-0.011949065,-0.028244657,-0.040641706,-0.2593917,-0.0077344328,-0.057762805,-0.26375791,-0.023656666,0.011648521,-0.2747238,-0.067526191,-0.054951213,0.014348505,-0.36295471,-0.11092691,-0.14206253,-0.26387483,-0.16415854,0.013290224,-0.19150791,-0.21154121,0.18620819,-0.055121709,-0.021810584,-0.0063968292,0.00072484236,-0.020650074,-0.12450185,0.027025178,-0.053180754,-0.066175394,-0.023754191,-0.037917394,-0.10802384,-0.29989091,-0.025074515,-0.0022993071,-0.0084804213,-0.071740061,-0.094386935,-0.12341852,-0.073330209,0.010129002,-0.036399502,-0.063110135,-0.062387537,-0.014420131,-0.041488558,-0.0029712098,-0.0014524714,-0.021877602,-0.058335457,-0.068188846,-0.02271542,-0.022039374,-0.10491527,-0.03023015,0.013542633,-0.032470301,-0.074604891,0.017804006,-0.0016157118,-0.054168336,-0.029781425,0.004482172,-0.070560925,0.016666999,0.012853897,-0.037103854,0.021694144,-0.048885472,-0.040747546,0.023676988,-0.44834623,-0.12955292,-0.084415309,-0.06348592,-0.11997845,-0.20936616,-0.10481071,-0.021842849,-0.042730805,-0.070434235,-0.086094372,-0.060226358,-0.018395018,-0.14023665,-0.038938425,-0.065937296,-0.0064455993,0.017156692,-0.023561733,-0.039625868,-0.51405293,-0.056127865,-0.2187763,-0.038786255,-0.13533837,-0.020430861,-0.062825963,-0.009680911,-0.063814722,0.0090770563,0.0148334,0.0080786292,-0.94432336,-0.35834274,0.025610689,0.004697375,-0.10253992,-0.060419083,-0.034220453,-0.027981438,-0.032678343,-0.03234864,-0.15808839,-0.16942284,-0.093071483,-0.38482589,-0.046707168,-0.056199014,0.011323024,-0.028982833,-0.36694074,-0.077913709,-0.050849117,0.025657473,0.015902165,-0.043604754,-0.065930627,-0.04004534,-0.0083045438,-0.061360765,-0.11810035,-0.15300633,0.038228802,-0.039577775,-0.02705149,-0.10071823,-0.062201057,-0.089387648,-0.015029279,0.0027425408,-0.18687758,-0.010749573,-0.068424679,-0.092892632,0.041488476,-0.0059120762,0.025230736,-0.034754056,0.0044598202,-0.042302936,-0.064447284,-0.16903071,-0.0089687929,-0.16658483,-0.0063403021,-0.06056723,-0.0037799603,-0.044134606,0.020024154,-0.052456204,-0.029835815,-0.026954891,-0.070479296,-0.0010843893,-0.032439686,0.0019727277,-0.040581595,0.0047410396,-0.036650565,0.00067863776,-0.011160827,0.012405946,-0.16602811,-0.12091043,-0.11422928,-0.39890677,-0.08593902,-0.01735956,-0.14277962,-0.0089300415,-0.1221685,0.058792166,-0.22157869,-0.053578362,-0.057691809,-0.21322893,-0.21480481,-0.10530274,-0.0022491151,-0.010130605,-0.16080973,0.024485143,0.014066567,-0.38941771,-0.034441449,-0.0058699339,-0.027386623,0.0070673879,-0.02873249,-0.028192142,-0.24810812,-0.013936494,-0.010880443,-0.11125451,-0.049245518,-0.12415607,-0.031342592,-0.010857495,0.0040475358,-0.047626961,-0.1840359,0.0034944282,-0.038411368,-0.13545755,-0.15948755,-0.0014062019,0.0013896084,-0.41887441,-0.067571886,0.024306549,-0.15926427,-0.08274702,-0.017258493,-0.24173094,-0.057036716,-0.66692042,-0.0089943036,-0.036726449,0.013863549,-0.061803784,-0.23349608,-0.035480276,-0.26508427,-0.080957897,-0.086859189,-0.17700301,-0.062540732,-0.05644089,0.015926413,0.0088718003,0.002074993,-0.039851587,-0.015256946,-0.46164104,-0.072045267,0.011126762,0.015617787,-0.25021309,-0.031895228,-0.028015573,-0.016940074,0.012248238,0.0083237039,-0.019127902,-0.01921957,-0.016042188,0.023439901,-0.0056002294,-0.039436586,0.017793356,-0.0013687385,0.02019106,-0.010674309,-0.028606214,-0.0097140111,-0.037673235,-0.0023441736,-0.047690012,0.018559908,-0.033386085,-0.083330378,-0.022197384,-0.048288379,-0.24794777,-0.50912565,-0.18375382,-0.068982251,0.016927779,0.013724889,-0.016137114,-0.077258989,-0.14062834,-0.19636807,-0.29742476,-0.17620227,0.0076072477,0.088354796,-0.025857145,0.019271635,-0.044053197,-0.16021165,-0.052689187,-0.039172295,-0.0048157172,0.09590859,-0.094648495,-0.29117593,0.0027712816,-0.044745822,-0.045144141,-0.0052888594,0.0054812627,0.0083429636,-0.03171372,0.011438629,-0.072037272,-0.22256005,-0.060086757,-0.070478499,-0.017913084,-0.39435771,-0.11231967,0.019302497,-0.10754355,0.018463282,-0.19787583,-0.0052801967,-0.45656642,-0.046195485,-0.074205026,-0.12948994,-0.041721933,-0.18807821,0.021880554,-0.029557036,-0.4933252,-0.047999561,0.0071448167,-0.029605065,0.024211884,-0.12346154,-0.16174498,-0.010064715,-0.047364481,-0.17773758,-0.0017872491,-0.28124681,0.0058162771,0.0118287,0.015058173,-0.1063673,-0.027931912,-0.11698443,0.021934019,-0.21830395,-0.064035729,-0.061784603,-0.063672349,0.013760271,0.003331797,-0.03514244,-0.055457998,-0.0062678237,-0.063551649,0.017821554,0.00072025147,-0.029126529,-0.0059912959,-0.0271159,-0.027958544,0.021103632,-0.016512955,-0.04452122,-0.073489979,-0.00036529824,-0.063376158,-0.034110896,-0.048619088,0.0098397564,-0.044365294,-0.23717178,-0.026300995,-0.04997316,-0.043981299,-0.15366253,-0.030109802,-0.13757454,0.015338178,-0.1849391,-0.062188979,-0.12603718,-0.38150796,-0.019315649,-0.050761633,-0.014168223,-0.019889103,-0.050407887,-0.028729564,-0.0017302905,0.022726336,-0.17187344,0.0052811434,-0.070803784,-0.050563276,-0.060006503,-0.02009399,-0.044407155,-0.0448852,0.021634873,-0.019709382,0.041797452,-0.12254376,-0.033232197,-0.040802725,-0.037943628,-0.0055949138,-0.1475462,0.0041725067,0.016178735,-0.05441957,-0.11305687,-0.030570002,-0.026482275,-0.018613072,0.0086461697,-0.13701412,-0.33481234,-0.054321218,-0.036266625,-0.031379297,-0.20180939,-0.014785117,-0.2519536,-0.13275215,0.010238773,-0.052460816,-0.012701099,-0.046997178,-0.061903089,-0.035999149,-0.04500128,-0.053546157,-0.42677972,-0.13012351,-0.2292566,-0.13294318,-0.17452425,-0.19997609,-0.025184244,0.009551025,-0.012283926,-0.071229786,-0.053662676,-0.038116738,0.023478888,0.017287146,-0.039200172,-0.23622705,0.00035888411,0.001803974,-0.087213188,-0.0503502,-0.036879819,-0.060117312,-0.053176276,0.013607911,-0.02128789,-0.031072654,0.014907449,-0.054587349,0.011971479,-0.023861786,-0.045862418,-0.060369223,-0.049863726,0.011362415,-0.065515548,-0.02094581,-0.0084288931,-0.017939068,-0.11907196,0.0057730684,0.017106939,-0.013455133,-0.066550098,-0.18296401,-0.13061526,0.0041041547,0.0081529599,-0.019861346,-0.058943033,-0.074989542,-0.7480886,-0.027846273,-0.058988482,-0.010241316,-0.015567096,-0.017788142,-0.046526764,-0.038927488,-0.061228089,-0.096363515,-0.032476034,-0.014771903,-0.054221451,-0.19969676,0.021187829,-0.15510486,-0.024320444,-0.029172838,-1.2196186,-0.053758193,-0.035664473,0.057010461,-0.14073612,-0.0012404659,-0.071203887,-0.053026296,-0.0093960334,-0.035688292,-0.091932394,-0.037252095,-0.052500624,0.013143605,0.013406748,-1.1246711,-0.02165157,-0.54116404,-0.11327807,-0.00075903442,-0.034307331,-0.13125493,-0.021445401,-0.050323155,0.0031205826,0.022646256,-0.13184872,-0.04514451,-0.053488433,-0.05176089,-0.068564482,0.0041777589,-0.17103755,0.005074373,0.010754215,-0.064494342,0.00092962093,-0.072353765,-0.047600847,-0.031779673,-0.15419857,-0.054823462,-0.064893767,-0.012272494,-0.022424126,-0.10682259,-0.024536949,-0.038762599,0.0063800965,-0.053909093,-0.057402566,0.0039856052,-0.0094500296,0.0017291786,-0.059733607,-0.03994241,-0.042847652,-0.065997258,-0.021192547,-0.03848147,-0.046088599,-0.020461103,-0.0065204562,-0.050196409,0.0221209,-0.010897592,-0.07445164,-0.027044985,-0.05550275,-0.0092355516,0.010787188,-0.24709751,-0.15067284,-0.68932784,-0.10388071,0.011414478,-0.060888387,-0.93664956,-0.15663849,-0.039248802,-0.16405229,-0.79678249,-0.015984239,-0.015078095,-0.17028528,-0.059911489,-0.13693251,-0.52694583,-0.15649046,0.015275899,-0.14355218,-0.071289271,-0.98735732,-0.19497526,-0.17303097,-0.060489718,-0.017715493,-0.15148538,-0.0051040305,0.022802539,-0.032721553,0.0076811803,-0.067401707,-0.012341698,-0.079655774,-0.07147193,-0.04062964,-0.049636271,-0.0020583943,-0.051393662,-0.1404313,-0.028186234,-0.03425958,-0.056934789,-0.14212014,-0.042991098,0.097542509,-0.11853636,-0.035552256,-0.029249784,-0.14222634,-0.10242626,-0.051569365,-0.013314967,-0.036696203,-0.16100638,0.010017143,-0.046387978,-0.0056319837,0.023366807,-0.1333905,-0.086641036,-0.18232599,-0.062241372,-0.039649915,-0.064685054,-0.038020436,0.02763531,-0.043766208,-0.029066371,-0.14352424,-0.13342868,-0.028275153,-0.15043701,-0.035745263,-0.060971666,-0.012529924,-0.003460933,-0.026525572,-0.016737148,-0.057915542,0.0088530071,-0.021524498,-0.057628147,-0.014773779,-0.047906801,0.017269531,0.014970276,-0.023544546,-0.024099732,0.022572678,-0.037195899,0.017072171,-0.060922842,0.019189749,0.011086281,-0.0012069872,-0.045866985,-0.02282816,0.0072398568,-0.083999567,-0.18435203,-0.68610656,-0.044148635,-0.094298393,-0.2272871,0.034874514,-0.0099842111,-0.011766218,-0.043153986,-0.012326866,-0.035895094,-0.058482438,-0.034124583,0.015119331,-0.089402653,-0.044260014,0.015206839,0.017849244,-0.046448927,-0.40879902,-0.050099105,-0.24080534,-0.12344331,-0.12641928,-0.14473169,0.075196907,-0.071495995,0.020844379,-0.010125568,0.012993297,-0.44512782,-0.0067913323,-0.037504528,-0.057179078,-0.034000937,-0.015051408,-0.050322212,-0.023272682,0.011692232,-0.38096082,-0.17543977,-0.10794776,0.00060480891,-0.046609804,-0.05687188,0.15987577,-0.085019693,-0.047562681,0.00070580788,-0.093609475,0.0022714818,-0.0092642428,0.0070740748,-0.33208597,-0.34601426,-0.090130247,-0.43373519,-0.038924817,-0.0294172,-0.028570175,-0.15383053,-0.051072389,0.022386296,-0.030249126,-0.049547721,-0.10760218,-0.02130639,-0.049030852,0.015201208,-0.041220881,0.020749232,-0.046882097,-0.20333444,-0.030379035,0.026626181,-0.013634183,-0.069403492,-0.03358417,0.011844956,-0.01907061,-0.13445431,-0.14919268,-0.027586907,-0.023318347,0.0018872089,-0.05936408,-0.038877189,-0.042701665,-0.62440228,-0.13375562,-0.81741458,-1.3022097,-0.15759471,-0.15684511,-0.13043156,-0.094989501,-0.097395413,0.01708464,-0.21101083,0.84750134,-0.12545469,-0.077624626,-0.034098752,-1.0887606,-0.12744951,-0.10904628,-0.10664629,-0.61436743,-0.38256475,-0.14664486,-0.075159244,-0.051180284,0.34476605,-0.14455876,-0.078616247,-0.14193694,-0.068029121,-0.2178527,-0.10844765,-0.11326373,0.22334808,-0.12671559,-0.23289543,-0.0088825421,-0.15559538,-0.28900933,-0.14682981,-0.31547609,-0.47222155,-0.80457193,-0.1094856,0.29286543,-0.10854866,-0.052935518,0.34761989,-0.1196631,-0.078585483,-0.062650926,-0.089195646,-0.080726214,-0.093319654,0.23426713,-0.15323165,-0.10259791,-1.2842021,-0.12793358,-0.078291565,-0.69678986,-1.1855477,-0.13130553,-0.064012013,-0.080142468,-0.12242284,-0.83896184,-0.31134161,-0.12172277,-0.1667278,-0.39123163,-0.12280235,0.089114152,-0.154347,-0.10892577,-0.10449103,-0.10396481,-0.13914026,-0.099505007,-0.11179321,-0.14898726,-0.16347843,-0.072440013,-0.083429754,-0.15469185,-0.1185635,-0.13626911,-0.080169477,-0.11906607,-0.14823461,-0.084013857,-0.12287772,-0.15247792,-0.14146374,-0.15429686,-0.088238046,-0.14542167,-0.1586052,-0.15785086,-0.090168886,-2.2576141,0.012777651,0.042236309,-0.73317164,-0.81664741,-0.66433948,-0.079419814,-0.083247401,-0.56810719,-0.063431419,-0.14955036,-0.4696407,-0.13868299,-0.042663358,-0.11662536,-0.097569071,-0.14447767,-0.075541213,-0.1513813,-0.11794085,-0.29315841,-0.067683056,-0.35314143,-0.082489453,-1.1826953,-0.15191469,-0.11584352,-0.099671073,-0.092621364,-0.13648626,-0.11852802,-0.13416888,-0.067137457,-0.10709406,-0.084843352,-0.1591239,0.039769955,-0.067111842,-0.14067556,-0.065918811,-0.13521107,-0.094178423,-0.069690607,0.39461422,0.16411981,-0.024462372,-0.15678307,-0.092777312,-0.10357236,-0.1449973,0.10431558,-0.32307073,-0.12277439,-0.14061727,-0.094599567,-0.10671164,-0.034755278,-0.083310463,-0.15499885,-0.096272774,-0.35024169,0.25059819,0.029499562,0.018360795,-0.1374815,-0.14443636,-0.15486145,0.01015499,-0.1616734,-0.078766681,0.48375571,-0.15297712,-0.026636314,-0.096296571,-0.24539633,-0.051235989,-0.11882456,-0.085022956,-0.1156818,-0.068766713,-0.12653533,-0.097506151,-0.09367618,-0.42942873,-0.14361101,-0.13098696,-0.14897798,-0.088572606,-0.15882224,-0.073965304,-0.16459624,-0.084083438,-0.073541783,-0.10411584,-0.067240164,-0.13890694,-0.097477838,-0.10551454,-0.079472728,-0.064946391,-0.078063972,-0.1527873,-0.69839096,-0.11005013,-0.066761464,-0.49862072,0.21821357,-0.073934294,-0.56582713,-0.11225877,-0.21591662,-0.075794451,-0.057910323,-0.072589308,-0.16913027,-0.1125047,-0.29351074,0.18466289,-0.16199622,-0.077120572,-0.10816965,-0.095600128,-0.040879145,-0.053730153,-0.083168648,-0.14792198,-0.15154642,-0.10016816,-0.13790891,-0.1563064,-1.6474378,-0.14905961,-0.16293131,0.39758149,-0.13123092,-0.023162449,-0.14103234,-0.082767747,-0.10961923,-0.091187187,-0.20584637,-0.13371438,-0.15771382,-0.59730858,0.1311647,-0.089925908,-0.15444037,-0.91864467,-0.13416934,-0.11454544,-0.064914227,0.1115748,-0.23031916,-0.5196982,-0.1367286,-0.024953324,-0.3231383,-0.11787622,-0.1324776,-0.093118235,0.065134324,-0.12081802,-0.10261709,-0.12264865,-0.21482396,-0.052346248,-0.095335737,-0.082535498,-0.15029168,-0.13722739,-0.081971481,-0.068911567,-0.12389495,-0.0048338836,-0.1519749,-0.1185772,-0.090097442,-0.12231539,-0.11073466,-0.12423094,-0.092621915,-0.085092202,-0.14374952,-0.095128782,-0.11162264,-0.13785605,-0.089263037,-0.11046711,-0.10433841,-0.099202596,-0.10939956,-0.059597429,-0.09688364,-0.1169284,-0.13862805,-0.13244237,-0.10707669,-0.14344047,-0.078793526,-0.16284324,0.18465723,-0.15755343,-0.11393444,0.10587913,0.16043146,0.22410148,-0.095752716,-0.090378024,-0.13923325,-0.065920584,0.3704114,0.16058363,-0.19516131,0.24036892,-0.085866481,-1.457503,-1.1674557,-0.059891839,-0.12831424,-0.10042582,0.0085638361,-0.124764,-0.14123569,-0.142133,-0.55222762,-0.39818463,-1.568193,-0.08874771,-0.078492329,-0.15918367,-0.093846768,-0.14489771,-0.097366922,-0.83775246,-0.12380849,-0.14538945,-0.79660821,-0.14154696,-0.13662066,-0.10884028,-0.053182106,-1.0113127,-0.098696277,-0.17949489,-0.14548989,-0.066454165,-0.10408534,-0.072208829,-0.1538491,-0.068242826,-0.73252493,-0.049664684,-0.033536803,-0.068199918,-0.15707581,-0.059400283,-0.15049049,-0.094038419,-0.093260221,-0.11716565,0.11170482,-0.38678694,-0.090861857,-0.1094464,-0.38340834,-0.10286389,-0.49300995,-0.14621875,-0.13364644,-0.084903486,-0.37899917,-0.092968144,-0.390416,-0.079549849,-0.056170207,-0.12938195,-0.11212491,-0.069721796,-0.1319201,-0.12805898,-0.11297952,-0.06964802,-0.089969531,-0.11843008,-0.13883841,-0.092142649,-0.15313406,-0.10338979,-0.16616578,-0.10581996,-0.064814962,-0.15928967,-0.067536384,-0.068750136,-0.12520069,-0.15818867,-0.11162543,-0.095323443,-0.12875839,-0.11194005,-1.6082231,-0.080167741,0.39177772,-0.13629204,-0.30559242,-0.14894201,0.24852265,-1.008411,-0.71741295,-0.14391293,-0.11967006,-1.2104497,-0.13910876,-0.11762448,-0.15754552,-0.26118279,-0.090953246,-0.071641825,-0.1444311,-0.10998482,-0.18261932,-0.13746911,-0.038050007,-0.080267519,-0.12287167,0.1845651,-0.11621483,-0.034653582,-0.14960594,-0.11701524,-1.3729159,-0.056316413,-0.11347889,-0.14810061,-0.34566915,-0.11771683,-0.64863986,-0.096418411,-0.11060271,-0.15534867,-0.85693502,-0.047644567,-0.12148425,-0.073157534,-0.16318592,-0.13747795,-0.53796655,-0.12860592,-0.13674954,-0.16259727,-0.4280507,-0.99116093,-0.065686412,-0.10747225,-0.074103504,-0.071081564,-0.11597736,-0.11573864,-0.051825408,-0.097924337,-0.59553611,-0.12149846,-0.017409729,0.45246401,-1.6991893,0.10750876,-0.085267104,-1.2810949,-0.1347366,-0.11541606,-0.11424848,-0.10261946,-0.15026172,-0.15975809,-0.078889675,-0.086972006,-0.12040288,-0.086990491,-0.11108989,-0.087360166,-0.57074428,-0.076524056,-0.069283329,-0.14365292,-0.14941183,-0.12552825,-0.14925869,-0.091441236,-0.10657521,-0.16520604,-0.15554212,-0.10839408,-0.13808359,-0.082700096,-0.061460517,-0.064139873,-0.14150929,-0.15149236,-0.11563165,-0.086969964,-0.087972976,-0.13396592,-0.81010622,-0.11452479,-0.14228585,-0.30242184,-0.011644625,-0.13977867,-0.10760707,-0.065128274,-0.12850465,-0.10145067,-0.56532413,-0.11053686,-0.073362112,-0.10563871,-0.097537436,-0.071954146,-0.15205538,-0.084849074,-0.080290608,-0.2933405,-0.15946761,-0.074521892,-0.088515766,-0.094234325,-0.1646917,-0.98413402,-0.070344768,-0.14840861,-0.41128993,-0.15826273,-0.16068465,-0.63660854,0.1403113,-0.087236419,-0.13839343,-0.13709226,-0.082454421,-0.14256462,0.072426058,-0.10889775,-0.13505626,-0.127995,-0.10692979,-0.027745333,-0.12640622,-0.063746855,-0.47070217,-0.13315579,-0.14927542,-0.28440884,-0.11656023,-0.12842388,-0.08663328,-0.16189781,-1.4216595,-0.13123615,-0.13274747,-0.11207578,0.041059703,-0.16481887,-0.33243555,-0.16195562,-0.12953164,-0.16437313,0.071525395,-0.091473386,-0.15196267,-0.092702568,0.031023005,-0.15829918,-0.16322978,-0.14575279,-0.072286434,-0.50111121,-0.083343238,-0.10076977,-0.069575615,-0.1382872,-0.12565058,-0.12352877,-0.1028701,-0.10672321,-0.12605894,-0.072816126,-0.16174732,-0.13487558,-0.14151584,-0.11650585,-0.11136115,-0.14164379,-0.16033372,-0.14386426,-0.075645611,-0.13557635,-0.08939825,-0.07160452,-0.16138543,-0.1429707,-0.095600754,-0.094405808,-0.1295622,-0.11520294,-0.013430985,-0.10042338,-0.066346139,-1.0939496,-0.4307338,-0.094651908,0.027306236,-0.084463738,-0.12898085,-0.15780456,0.045034546,-0.12918523,-0.65162194,0.057224374,0.24676007,-0.076307416,0.65897053,-0.1067637,0.41969436,0.20719247,-0.2817198,-0.14524812,0.085630052,-1.5208346,-0.085820206,-0.16357028,-0.16863503,-0.0694637,-0.33294562,0.020560399,-1.2406811,0.0063461633,-0.10852815,-0.076498993,-0.12772188,-0.12214088,-0.50222802,-0.14448234,-0.11952306,-0.067013219,-0.00086685451,-0.089877546,-0.045066185,-0.09454108,-0.072175808,-0.096402727,-0.1716547,-1.082311,-1.6644268,-0.1261566,-0.12806043,-0.015225349,-0.069310389,-0.13259563,-0.11085777,-0.089850828,-1.38437,0.022056697,-0.12152373,-0.089518048,0.23340699,-0.16192591,-0.39759222,-0.096560307,-0.072519675,-0.11824669,-0.032568559,-0.21050887,-0.1042301,-0.079643019,-0.11969238,-0.029692145,-0.13829927,-0.14750722,-0.096111141,-0.077144302,-0.10896114,-0.097909763,-0.13065121,-0.072879009,-0.087010726,-0.13974306,-0.1160265,-0.13190436,-0.13350913,-0.12548758,-0.10374469,-0.1076632,-0.11823036,-0.086668536,-0.07071989,-0.13924609,-0.1077577,-0.16050105,-0.10686411,-0.14414406,-0.029847022,0.074457653,-0.11232782,0.16262804,-0.095140867,-0.50940716,0.53071582,-0.13222906,-0.11722361,-0.082282513,-0.092649668,-0.085681289,-0.13181137,0.081254296,-0.068809055,-0.3683171,-0.10390975,-0.08682923,-0.11842377,-0.14207773,0.2088121,-0.13814747,0.49760661,0.091530979,-1.0215677,0.24652956,-0.068759546,-0.14121123,-0.06448742,-0.089147605,-0.13258499,-1.8074827,-0.083820656,-0.081950933,-0.11348321,0.015076745,-0.13071296,-0.12539855,-0.12831138,-0.12611148,-0.88797349,-0.080691919,-0.45321751,-0.14595297,-0.14339298,-0.11288326,-0.093158051,-0.017669866,-0.14024922,-0.13728379,-0.17030351,-0.14473931,-0.15676773,-0.10475706,-0.29820549,-0.060073949,-1.0756761,-0.093945757,-0.10165496,-0.10718548,-0.072432846,0.051811315,-0.075295329,-0.096893772,-1.1437579,-0.12924483,0.097256362,-0.087643921,-0.075555913,-0.16499975,-0.13837376,-0.15802971,-0.12788308,-0.028481239,0.07560192,-0.083954886,-0.070930585,-0.10444647,-0.068152212,-0.1390444,-0.13139781,-0.061879531,-0.10169691,-0.092597477,-0.13989013,-0.15520513,-0.16657533,-0.13095237,-0.040502362,-0.76742905,-0.23684385,0.52073258,-0.14548594,-0.17656846,-0.22480385,-0.23830149,-0.19061625,-0.25507244,-0.07678552,-0.87947714,-0.18155105,-0.23708487,-0.25293168,-0.1959136,-0.5012694,-0.25268772,-0.20043898,-0.23022312,-0.53852499,-0.50148451,-0.26689681,-0.2068202,-0.046421506,0.27442878,-0.19664189,-0.21680939,-0.20418175,-0.17633292,-0.64447999,-0.23599455,-0.22789279,0.0077356072,-0.24793901,-0.074333295,-0.006883882,-0.19388023,-0.27015552,-0.20204143,-0.33814052,-0.063427985,-0.48223218,-0.023639785,-0.024782462,-0.25082844,-1.0024171,-0.31564701,-0.087665401,-0.18141563,-0.057431925,-0.23230045,-0.089261428,-0.23090555,-0.0072678104,-0.19065198,-0.15174007,-0.64933103,-0.23110038,-0.25418335,0.078404039,-0.23857631,-0.25490373,-0.17077337,-0.18710932,-0.18194713,-0.70658964,-0.043003876,-0.22357915,-0.1983664,-0.24619336,-0.24265569,-0.015876664,-0.21743466,-0.26813889,-0.21821064,-0.19323619,-0.25900969,-0.27242434,-0.17911924,-0.52101034,-0.2534571,-0.12092859,-0.19692631,-0.1942248,-0.16436741,-0.17416313,-0.2403513,-0.18318838,-0.17565948,-0.200422,-0.27917954,-0.25049287,-0.25821751,-0.17212106,-0.21730576,-0.15567197,-0.196059,-0.22115538,-0.22217859,-0.36968315,0.087478146,0.2119436,-0.27276105,-0.49785694,-0.091098264,-0.068516254,-0.21786834,-0.67799699,-0.1912486,-0.47244188,-0.48286918,-0.23536254,-0.038055845,-0.25043073,-0.20087168,-0.24175525,-0.22610787,-0.20731007,-0.16827801,-0.27377278,-0.26370186,-0.0024472289,-0.25229266,